2907 10
7157 0.276186 1.502018 0.014022 0.049206 -1.372819 0.062569 0.748985 -0.497723 -0.451661 -0.084463
1029 0.742285 1.419287 -0.041568 0.382379 -1.375303 -0.205657 0.825440 -0.498777 -0.690945 0.174195
3845 -0.237886 2.043630 0.165466 0.511055 -1.155811 -0.178115 1.093641 -0.574931 -0.188054 -0.325027
3123 1.425024 1.167902 -0.656688 0.837531 -0.004152 -0.965389 -0.804357 -0.740492 0.536429 -0.996997
4609 0.339017 1.449793 0.297957 -0.114195 -1.658336 0.108348 0.974704 -0.489761 -0.388568 0.052192
4893 -0.178393 1.919302 -0.237180 0.393137 -1.633327 -0.529028 0.733636 -0.598349 -0.240171 -0.993504
3119 1.447049 1.158096 -0.632191 0.858565 -0.000248 -0.888269 -0.919888 -0.765145 0.527283 -1.033775
5728 0.409764 1.469601 0.136166 0.366514 -1.063844 0.005992 0.974310 -0.720326 -0.625737 0.491045
7015 -0.051229 2.075781 -0.727033 -0.641870 -0.978441 0.184635 0.664747 -1.316545 -0.897434 -0.334691
1499 -0.520419 2.054297 0.186901 -0.034366 -1.219170 -0.378053 0.296312 -0.937752 -0.544862 0.411222
2064 0.290152 1.492610 0.016315 0.396908 -1.259897 0.414597 0.990390 -0.764163 -0.234131 0.063266
3117 1.375574 1.138729 -0.592063 0.884199 0.062961 -0.989526 -0.809239 -0.774958 0.579529 -0.940090
4000 0.320354 1.233919 0.622645 0.500059 0.479410 -1.255632 -0.847287 -0.421403 -0.231499 -1.369354
1956 0.531328 1.470446 -0.083034 0.500890 -1.442977 0.251890 1.084102 -0.656680 -0.176324 -0.102403
4288 0.402219 1.548723 -0.084063 -0.280456 -1.189790 -0.101455 0.480238 -0.509971 -1.414405 -0.873991
170302 0.613994 0.514055 1.981187 -0.893377 -0.663299 -1.756312 0.205567 -1.767751 -0.171595 1.097582
3586 1.590751 1.174138 -1.394102 0.406488 -0.264340 -0.241547 -0.181712 -1.201004 0.039613 -0.816705
2260 0.205058 1.950971 -0.362055 0.931865 -0.630213 -0.542882 1.503383 -1.441842 0.515659 0.475928
80184 2.262078 1.478322 0.504624 0.377125 0.994639 0.306658 0.982373 -0.924017 1.651331 -0.340386
5925 0.610760 1.555023 -0.230434 0.025376 -1.606862 -0.121053 0.742355 -0.593985 -0.472764 0.171626
3596 1.666907 1.353442 -1.503850 -0.152094 -0.024837 -0.625123 -0.608880 -1.431504 0.530206 -0.911774
3939 0.457157 1.403837 1.544085 0.658499 -1.296394 -0.419874 1.266647 -0.297285 -1.229897 -0.530991
3265 -0.075375 1.927711 0.038557 0.532649 -1.291637 -0.129063 0.590120 -0.496745 -0.629294 -0.549608
3559 1.526323 1.076128 -1.084714 1.044693 -0.571194 -0.372170 -0.202256 -1.276399 0.971303 -1.313291
7490 0.609903 0.916501 -0.215898 0.544089 -2.263678 -1.281010 -0.149581 -1.351080 -0.058390 0.427267
634 -0.117970 1.930089 -0.024438 0.214885 -1.270880 0.281949 0.922916 -0.884414 0.011868 0.112385
2218 1.487960 1.518334 0.656035 0.972524 0.697568 -1.019890 -0.742907 -0.321002 -0.344312 -1.804838
4193 0.901068 1.336251 -0.113948 -0.517331 -1.750819 -0.047423 1.136965 -0.674740 -0.762827 -0.129325
7018 0.206928 2.080805 2.251676 -0.455904 -0.910654 0.553659 1.364549 -0.700241 -0.301954 0.946521
7466 1.748896 2.020038 0.300036 -0.061969 -0.323835 -1.543018 1.050017 0.404674 -0.627791 -0.486525
6331 1.438801 1.439171 0.403539 1.281035 0.465808 -1.610397 -0.972502 -0.696139 -0.470280 -0.214477
9896 -0.480665 1.075611 0.671228 -0.444907 0.491843 -1.775478 -0.134092 -1.643145 -0.639902 -1.356932
7431 0.510664 1.451495 0.823957 -0.698891 -0.538292 -1.017423 1.617908 -0.638273 -1.685263 -1.087878
7422 0.234481 1.665295 0.172655 -0.104377 -0.354635 0.846004 1.095970 -0.900077 -1.333833 -0.808366
3815 0.583765 1.162339 -0.604613 0.779432 -1.367830 0.151455 1.193334 -1.208979 0.196711 -0.446842
24 2.211330 0.927860 -0.002162 -0.266361 0.540127 1.523535 -0.280617 -2.347010 1.060056 0.001193
23090 1.994890 1.540591 -0.726122 0.530884 0.328820 -0.249662 0.389602 -1.002539 1.813177 -0.541968
673 -0.489135 2.577977 0.355055 0.686074 -1.365698 -0.301215 0.870705 -0.591035 -0.506731 -0.775454
367 -0.140664 0.658299 0.261713 0.947663 -1.125548 -0.510906 0.805013 -2.036601 -1.218904 -0.523478
5080 0.782167 1.346924 0.480157 -0.665173 0.605467 -1.982224 1.591675 -0.992125 -0.775673 -1.139154
1277 1.313538 2.828732 -0.519660 -0.417679 -1.398099 0.690569 -2.741971 -1.384763 0.622279 -0.754845
1278 1.370969 2.882452 -0.459260 -0.442845 -1.308383 0.552356 -2.674403 -1.187872 0.724502 -0.731741
6389 1.243425 0.555776 1.027044 0.685555 -0.132334 -0.837208 -1.270927 -0.563587 0.614562 -1.861402
7043 1.164112 2.154163 -1.437239 0.233756 -0.178729 -0.698953 0.232875 -0.786042 0.147074 -0.134250
1030 1.321957 1.386889 -0.070919 0.408063 -1.397751 -0.694826 0.751959 -0.545513 -0.927046 0.521415
613 0.473324 1.035426 0.413486 0.476189 -2.168779 -0.357328 1.434871 -0.768355 0.313557 -0.720701
5979 0.007205 2.702127 -0.234584 0.311543 -0.271269 -0.065822 0.993585 -0.877721 -1.326581 -0.585249
1778 -1.116800 1.525735 0.405583 -0.173293 -0.640482 -1.256602 -0.841954 -1.877629 -0.462936 -0.208233
675 0.449249 1.580344 0.415642 0.409436 -1.450484 1.033676 0.857245 -0.909179 0.048945 0.578817
546 1.178157 0.625403 1.120579 0.396153 -2.145058 -2.542103 -0.404566 -1.486541 -0.644005 0.482064
3767 2.092527 1.128052 0.090913 1.909072 -0.780747 -0.583134 0.721892 -0.738548 -0.698875 -0.359980
773 0.184333 1.720435 1.864818 -0.519393 0.737537 -1.618726 -0.564826 -1.407637 0.160157 1.190998
5915 -0.048979 2.006842 -0.107631 -0.663018 -1.277237 -0.744661 1.635254 -0.951096 -0.104336 -0.237598
861 0.422466 1.859489 -0.094117 0.280619 -2.410561 -0.639502 0.711687 -0.393516 0.852927 -0.778557
4221 0.372493 1.219580 -0.435519 -0.360270 -1.648572 -0.613090 -0.104972 -0.954571 -1.199948 -0.068518
5290 0.342342 1.687423 0.118918 0.001055 -0.960214 0.505721 0.920555 -0.630678 -0.288694 0.407742
718 1.493022 1.009732 -0.858617 0.380500 -0.097038 0.212834 -0.933371 -1.583078 1.144624 -0.151084
7124 1.519320 1.739712 -1.394052 0.226638 -0.068363 -0.320339 -0.556996 -1.016573 0.637964 -0.782588
3561 2.564628 1.243680 -0.966368 0.186095 -0.727339 -0.316353 -0.674743 -0.972416 1.374901 -0.902340
2706 1.948847 3.366918 0.279096 -0.676370 -0.251014 -1.163599 -0.416430 0.469473 -0.471247 -0.018955
4292 -0.464135 1.881145 0.201312 0.032587 -1.309096 0.470075 0.970735 -1.058471 -0.180431 -0.223678
6834 -0.318793 0.690136 1.401675 0.123843 -0.187098 -1.125790 -1.665434 -1.552856 0.364237 -1.627988
596 0.557643 1.251869 0.318962 0.217412 -1.542757 0.394416 0.696625 -0.405507 -0.963395 -0.512559
16 -0.735912 1.026082 1.688005 -0.352823 -0.199766 -1.571845 -0.838093 -1.365603 0.291836 -0.090119
717 1.636918 1.187801 -0.961037 0.431331 0.005621 0.189118 -0.969434 -1.596526 1.035851 -0.264751
595 0.510379 1.445467 -0.022926 0.395899 -1.131973 0.489952 1.072963 -0.632890 -0.282568 0.014421
2271 0.412570 2.726586 -0.151273 -0.735475 -0.376741 0.490430 0.887014 -0.624344 -1.453841 -1.339001
25 0.247424 1.271677 0.381027 0.551271 -2.265988 -0.294966 1.288797 -0.830112 0.342751 -0.694621
7273 1.621121 1.220129 0.607768 1.044064 0.521961 -1.113369 -0.645399 -0.234782 -0.036812 -1.537838
4233 0.142801 1.955078 -0.077194 -0.285632 -1.012722 0.159261 0.789706 -0.647997 -0.964802 -0.167696
1027 0.007771 1.419196 -0.226339 0.226707 -1.419721 -0.576826 0.841524 -1.454790 -1.340699 -0.333283
1493 0.913970 1.899583 -1.251594 1.089935 -0.585181 -1.164942 -0.264688 -0.937178 0.468744 -1.105984
3945 0.257163 1.273375 0.863686 0.381457 -1.467126 -0.511458 1.313977 -0.517287 -1.057735 -0.561051
720 1.259382 1.972870 -1.394757 0.134187 0.304830 -0.142096 -0.600034 -1.212863 0.639822 -0.084399
4851 0.433173 1.278504 0.324213 0.369667 -1.762723 0.484320 1.636038 -1.287879 0.747984 0.228859
1917 -0.657001 1.698212 1.408106 -0.719463 -0.428016 -0.938475 -0.328203 -1.729595 -0.158946 1.171500
1413 0.828955 2.108723 0.177998 -1.424189 -0.218273 -1.817360 1.920152 -0.614516 -0.220987 -0.633640
324 0.135462 1.940248 -0.378822 -0.107431 -1.501403 -0.247188 0.931769 -1.006741 -0.545621 0.078626
7056 1.490142 1.353668 -1.209317 0.660016 -0.729336 0.474760 -0.184725 -1.262769 0.907640 -0.366284
2904 -0.607034 1.686620 1.489198 -0.708284 -0.659937 -1.050213 -0.391935 -1.748851 -0.321464 1.237659
3948 0.222748 1.255963 1.002119 0.450042 -1.449853 -0.460105 1.307664 -0.541727 -1.089750 -0.674860
4041 1.028690 3.056441 -0.756887 0.307252 -1.567890 1.218247 -2.099569 -1.387648 -0.085891 -1.514110
6521 1.201177 2.292422 -0.549948 -3.999753 -0.499566 -1.896793 1.531983 -3.297783 0.253092 -1.217553
567 0.191731 1.438359 0.794294 -0.047963 -1.284949 0.511328 1.186443 -0.263273 -0.485323 -0.626751
6487 -0.177789 1.131366 2.027400 -0.818731 -0.172141 -0.787327 -0.211320 -1.910190 1.144529 1.148535
7415 -0.512177 0.945929 0.657614 -0.296294 0.170376 -1.671354 -0.931182 -1.847772 -0.686589 -1.281850
6658 0.749199 1.001763 0.746839 -0.480522 -1.251059 -2.616040 1.581625 -2.191257 0.193435 0.931275
3606 1.617470 1.282463 -1.358213 -0.278011 -0.094376 -0.531846 -0.603927 -1.437263 1.000431 -0.975664
3784 1.721171 1.781709 0.316903 1.439263 -0.005056 -1.278169 0.330540 -0.525073 -1.186728 0.189173
4647 1.195390 3.070770 0.769261 -0.709817 -0.015171 -1.329716 -0.397890 0.544257 -0.228924 -0.236021
5447 -0.437528 1.720023 0.575460 1.981919 -0.883291 -0.478728 1.393051 -2.604279 -0.457633 0.129539
5071 2.891141 0.568958 0.307370 -1.280088 -0.556425 -1.002513 -1.325182 -1.633085 -1.868770 -1.498878
7355 -0.393242 1.468468 2.601927 -0.949922 -0.237748 -1.035428 0.319321 -1.349805 0.026087 0.752258
8842 2.777839 1.089741 0.704236 -0.493756 0.762339 1.703718 0.181660 -2.174989 0.963582 -0.195020
1674 1.591063 1.211101 0.561915 0.751080 0.673959 -1.329954 -0.487672 -0.254224 -0.082132 -1.660102
6928 1.649317 1.207820 -0.208384 1.543517 -0.955503 -0.573938 1.217315 -0.693786 -0.622275 -0.501220
1785 -0.762213 1.533875 0.293746 0.791406 0.191663 -1.423351 -1.279615 -1.896419 0.221974 -1.156274
79868 0.366523 1.516777 2.637583 -0.348828 -0.035508 -0.673101 -0.014521 -1.125556 -0.547555 1.327788
999 -0.006683 2.054204 -0.097304 0.480679 -1.258225 -0.162793 0.644432 -0.606748 -0.711126 -0.440648
3630 1.932834 1.248585 -0.402065 2.362658 -1.165643 -0.690126 -0.158422 -1.211168 0.324036 -1.155642
7048 0.146742 1.836097 -0.443726 -0.247911 -1.023337 -0.313103 0.647648 -0.523412 -0.347949 -0.189978
7879 -0.809622 1.666277 1.321283 0.650554 -0.328752 -1.406528 -1.272414 -1.433651 -0.876925 -0.861724
959 2.757065 1.446249 -1.009553 0.165775 -0.676860 -0.493310 -0.736323 -0.915212 1.165021 -0.547974
4311 -0.213867 1.617612 0.902224 -0.110509 0.925422 -1.681388 -1.521539 -1.621723 -0.148566 -0.429607
4524 0.132076 3.186048 -1.275805 0.136190 -0.154040 -0.792772 0.429973 -1.703505 0.518934 0.707723
91147 2.421896 1.831983 0.473489 0.548370 0.552789 -0.343418 1.147100 -0.947172 2.412554 -0.134010
5743 0.562009 2.000177 -0.182910 -0.049197 -1.153791 0.394358 0.954337 -0.577379 -1.167966 -0.615733
5054 0.596993 1.519219 -0.194427 0.802747 -0.643377 1.020255 1.142350 -1.116308 0.046592 0.159344
2516 0.645279 1.037553 0.978334 1.366602 -2.271586 -2.732883 0.355718 -2.119989 -0.378472 0.303301
29954 1.629246 1.815284 0.964528 1.052879 1.162214 -0.701138 -0.611747 -0.634469 -0.999685 -2.169082
6010 2.732533 0.639251 0.600257 -0.987535 -0.006701 1.590477 0.625495 -2.306034 0.614975 0.037480
55624 1.704880 1.664272 0.945323 1.105253 1.167767 -0.681315 -0.385322 -0.635445 -0.997879 -2.126842
7428 0.301113 2.368666 -0.165762 -0.516974 -0.586551 0.545477 1.120722 -1.017762 -1.564247 -1.096168
2212 1.613686 1.347980 -1.423464 -0.156045 -0.073496 -0.544077 -0.464627 -1.450427 1.104340 -0.995947
1302 1.728006 2.935816 0.399830 -0.435680 -0.177320 -1.026182 -0.156819 0.542317 -0.353013 -0.120869
10585 1.642721 1.751489 0.952040 1.135709 1.168365 -0.662311 -0.469091 -0.634269 -0.847808 -2.163583
4867 2.318230 1.834562 0.344127 0.476607 0.427560 -0.073504 1.263313 -0.951741 2.321302 -0.264982
51741 0.011196 1.140865 2.224559 -1.566797 0.170866 -1.040285 -0.649679 -1.569111 -0.209964 0.551720
2261 0.088251 1.704036 -0.014055 0.924760 -1.018071 0.130934 1.540851 -1.026818 -0.039040 -0.343929
7054 2.483145 1.050393 1.489669 -0.352249 -0.565817 -0.490758 -1.082991 -0.992648 -2.585079 -1.994501
4040 0.569197 1.557154 -0.312735 0.311528 -1.105438 0.751154 1.345428 -1.533955 0.649104 0.610327
7039 0.428799 2.222974 -0.604098 0.004025 -0.962984 -0.375528 0.831097 -0.797691 -0.219302 0.524956
79876 -0.046765 1.160793 2.299577 -1.416434 0.156040 -1.025138 -0.581610 -1.471754 -0.164447 0.498845
6444 1.580798 1.382046 0.532145 0.935876 0.761255 -1.177185 -0.709092 -0.397077 -0.043282 -1.672951
55750 1.855702 1.372774 0.954552 -1.363863 -0.227251 -1.571150 1.883562 -0.272572 -0.647210 -1.368043
5236 1.049805 1.955287 3.174802 0.407959 -0.677521 -0.339731 0.789997 -0.358261 -1.485512 0.383577
4624 1.394591 1.248362 0.806422 1.104703 -0.147569 -1.660133 -0.824201 -0.047561 0.364679 -0.951669
2200 0.207368 1.948617 4.257857 1.579217 -2.852236 0.232200 0.114206 -2.546086 3.352671 -2.076402
8289 -0.441830 2.128991 0.322567 -0.461502 -1.165185 -0.438284 -0.052372 -1.112680 -0.694596 0.824148
7454 1.484574 2.743347 0.666525 1.372022 -2.571690 -0.640735 0.205329 0.361384 1.351749 -1.184652
7421 1.671590 2.404316 -0.719003 0.832264 -1.013816 0.129142 -2.492629 -1.207117 -0.312458 -1.390746
5167 2.487756 1.377038 0.286302 0.862804 -0.483698 -0.722966 1.102479 -0.145051 -0.771710 0.080279
8557 1.641410 1.340664 0.626031 1.012056 0.706832 -1.318889 -0.740741 -0.287804 0.014220 -1.517485
1200 0.392462 1.359210 2.296564 -2.016545 0.861476 -0.407190 -0.932409 -1.096265 0.146140 -1.053340
79809 2.268763 1.891405 0.356496 0.480998 0.339053 -0.152323 1.338575 -0.941968 2.416856 -0.081245
70 1.441719 1.190162 0.674562 1.029943 -0.162251 -1.572487 -1.007423 -0.058120 0.367665 -1.004093
2070 1.587290 1.982663 0.344896 0.234398 0.100953 -1.519369 -0.815971 0.443676 0.095709 -1.010385
6103 2.776449 1.212357 0.793980 -0.493396 1.010195 1.637645 0.337378 -2.154685 0.962689 -0.139012
2301 1.141120 1.755145 -0.220679 -0.685783 -0.467529 -2.054483 1.603898 -0.749290 -1.010077 -1.193427
23400 2.472772 1.015342 1.122231 -1.663932 -0.481518 -1.225787 -0.716963 -0.943909 -2.181330 -1.303006
64218 2.816008 1.169928 0.704351 -0.532683 0.851761 1.725977 0.299527 -2.172008 0.998758 -0.182114
652 0.529462 2.792274 -0.894750 -0.900242 -0.442667 -1.253929 1.797722 -1.281415 0.562266 0.153253
7139 1.382038 1.124145 0.320202 0.647252 -0.227812 -1.214124 -0.759649 -0.042952 -0.195582 -1.477521
26580 -1.526110 2.229913 1.772520 0.353487 0.659758 -0.061290 -0.572138 -2.395150 -0.510191 -1.480727
627 0.532058 4.013493 -0.258057 0.100497 1.346458 -0.138985 1.896259 -2.038234 -1.200288 0.071619
547 -1.072425 2.855564 1.265743 0.269513 -0.667725 -0.636521 -0.686760 -1.722520 -1.169470 0.564167
5468 0.716732 1.843412 0.220519 0.971102 -0.606063 -0.559394 0.636474 -0.065082 -0.856644 -0.383886
2720 0.394151 2.147613 1.738388 -2.408612 -0.559008 0.709639 0.255050 -0.890292 -0.216240 -3.131932
3082 0.683716 2.827465 0.257443 -0.693344 -1.145319 -0.607442 0.070929 0.119074 -0.585040 0.589955
84100 2.664753 1.066325 0.752234 -0.222267 1.338982 1.029514 0.764676 -1.320526 0.572065 -0.592581
4540 1.183518 0.642597 2.355055 -0.432111 0.291911 0.184240 -1.293097 -1.358636 1.014863 -2.600702
10806 2.349435 1.701970 0.575166 0.981110 0.963249 0.500508 1.280226 -0.756384 1.504139 -1.030708
5015 0.189760 1.948402 -0.288353 -1.336032 -1.283804 -1.287261 1.504900 -1.374472 -0.271765 0.185407
3075 1.766762 0.586205 -0.590450 0.237309 -0.593541 1.031321 -0.541919 -2.324256 1.048576 0.265092
6469 0.076511 2.710474 -0.117891 -1.851387 -1.056972 -1.218479 2.035986 -1.546267 0.041382 0.114608
4625 1.446023 1.115546 0.622531 0.813304 0.108861 -1.397902 -0.886482 -0.135123 0.134256 -1.290885
729920 1.615491 1.666821 1.026541 1.080333 1.151058 -0.732560 -0.573910 -0.638007 -0.819000 -2.159843
7040 1.330646 2.378372 -1.371693 0.195250 -0.766216 -0.077920 -1.313139 -0.834197 0.184387 -0.988666
7007 1.580354 3.562222 0.668843 -0.602010 -0.377070 -1.386417 -0.310880 0.660429 -0.276378 -0.314220
51062 -1.076476 2.881768 2.410310 0.887950 0.173207 -0.503285 -0.441407 -1.701756 -1.604970 -0.740464
2697 1.366836 3.334103 1.071991 0.193240 -0.623538 -1.522316 -0.307895 0.514389 0.392855 0.660403
3113 1.532011 1.191972 -0.025814 0.781098 -0.018157 -1.479773 -1.039445 -0.416759 0.325393 -1.432740
4914 -0.540610 2.183029 0.943147 0.974903 -1.136416 -0.665946 0.209776 -0.620688 -1.225795 -0.389505
2334 1.130314 0.081823 1.966712 1.097868 -1.408909 -2.313254 0.060374 -2.843878 -0.428721 0.794460
5354 -0.885429 2.539099 3.454422 0.928535 0.478799 0.172168 -0.207068 -2.141955 -1.197944 -1.799657
10804 1.559397 3.453925 0.573559 -0.562452 -0.435898 -1.388320 -0.382136 0.653339 -0.141783 -0.265235
2657 1.403955 2.567046 1.700017 1.884533 -1.521321 -2.231611 0.248136 -0.302584 1.113284 0.616777
1293 1.846730 1.681393 0.849112 0.760401 0.161399 -0.220045 -0.765969 -0.766142 -2.187659 -2.447644
117531 1.580242 3.357007 0.577484 -0.587710 -0.513214 -1.455418 -0.193042 0.585392 -0.134953 -0.193869
23064 -0.311999 0.919941 1.731313 -1.746407 0.662023 -1.254931 -0.413619 -2.265035 -0.917866 -0.853489
3569 1.627353 1.592708 -1.334786 0.399104 -0.154476 -0.399035 -0.509602 -1.033670 0.691755 -0.670004
3115 1.584162 1.297705 0.022101 0.864008 0.109085 -1.462354 -1.080783 -0.472068 0.379676 -1.482675
4594 1.761470 0.399437 1.500396 1.740122 0.979915 0.444185 0.433606 -4.110267 -0.991150 -0.200134
2512 1.752514 1.559575 0.661804 -1.543838 -0.257791 -2.069463 0.828899 -0.558772 -1.854199 -1.026695
8626 0.226222 2.517171 -0.753455 -0.097128 -0.979375 -0.336569 1.179392 -1.233987 0.298823 0.524373
355 0.843974 1.117888 -0.155792 0.437189 -1.359697 0.030691 0.878786 -0.491625 -0.626727 -0.433284
7137 1.477492 1.186931 0.370758 0.713986 -0.205941 -1.223326 -0.798392 0.024510 -0.138814 -1.444916
5158 2.743853 0.840301 0.977993 -1.067483 0.268934 1.738310 0.732770 -2.059482 0.470201 -0.091783
10381 2.213519 1.200808 5.316572 0.187688 -2.774939 0.169836 -0.564531 -1.319926 0.431481 -0.456511
6295 2.862120 0.763902 1.010286 -1.055175 0.258746 1.662042 0.657136 -2.036546 0.558342 -0.048948
1910 0.499642 1.922848 -0.318250 0.020488 -0.496459 0.399639 1.551884 -1.186533 -1.388712 -0.843659
2707 1.500086 3.366420 0.773378 -0.743456 -0.444069 -1.463400 -0.327453 0.674912 -0.211164 -0.394089
7423 0.349429 2.387051 -0.169353 -0.641774 -0.578481 0.354308 1.094291 -0.971866 -1.693642 -1.156527
3356 0.832472 3.270940 -1.138001 0.081345 1.057106 0.142499 0.363423 -1.834990 -0.168397 0.534739
3383 1.777845 1.805968 -1.301408 0.411844 -0.120300 -0.172184 -0.593405 -0.884838 0.753127 -0.713281
5663 1.084586 0.751856 0.273630 0.408658 0.277198 -1.852784 -0.729149 -0.688400 0.045697 -1.441291
57165 -1.082846 2.566193 3.283178 0.821983 0.506339 0.066866 -0.122398 -2.283677 -1.182067 -1.847390
2263 -0.361661 1.920354 -0.143955 0.863404 -0.914353 -0.312595 1.448462 -1.573536 -0.176841 -0.115595
26353 -0.798343 1.209431 1.010650 0.239055 0.213930 -1.219449 -1.120861 -1.848253 -0.350414 -1.073637
4646 1.714886 3.412599 0.695622 -0.527147 -0.410600 -1.263586 -0.366032 0.673860 -0.207845 -0.286394
3329 -0.904812 2.485416 3.313320 0.815476 0.650102 0.225590 -0.197384 -2.273823 -1.095579 -1.922230
8324 0.391797 1.586110 -0.157134 0.099473 -1.163711 0.363901 0.869402 -0.768340 -0.127693 0.478411
10060 1.657122 1.158180 0.520510 1.113086 0.307216 -1.457489 -1.011477 -0.433378 -0.218139 -0.620417
3508 -0.708764 1.046105 0.953486 0.183509 0.267327 -1.172551 -0.986237 -1.710239 -0.369691 -1.120072
34 2.152105 0.237326 0.562318 1.727512 0.637394 -0.112802 -0.181195 -3.981316 -1.071089 -0.740781
57449 -0.726498 1.170745 0.887440 0.223530 0.280037 -1.256253 -1.079466 -1.885637 -0.373650 -1.055623
3914 1.629694 -0.264666 0.555246 -1.193615 -1.892003 -0.587674 1.723367 -4.173678 0.806829 -3.087152
4023 1.162865 1.624894 1.867833 0.124465 -0.260913 -3.079400 0.311746 -1.048943 2.738543 -2.376326
3480 0.601417 1.669660 -0.296261 -0.319528 -1.691315 -0.500166 0.390798 -0.903674 -0.896744 0.627282
6712 0.448272 1.914974 1.772645 -1.484630 1.708655 -1.224540 -1.134695 -1.667604 -0.212578 -0.022357
3426 1.760465 0.560595 -0.535705 0.512847 -0.779199 0.785495 -0.608309 -2.492512 1.360167 0.146151
2617 -0.732757 1.203498 0.807368 0.227441 0.269241 -1.258193 -1.129729 -1.792913 -0.343750 -1.092952
3557 1.704673 1.709260 -1.377840 0.432376 -0.162351 -0.265874 -0.512017 -1.120257 0.689078 -0.649678
2629 1.428324 1.355637 2.011503 -2.401750 0.058605 0.140199 -1.011481 -0.747341 -0.620467 -2.476503
931 1.041004 1.058081 0.367904 0.379478 -2.013741 0.777835 0.349231 -0.791364 -1.331427 -0.902278
79147 1.577062 1.668531 0.889507 1.142648 1.077541 -0.786732 -0.522063 -0.742096 -0.894109 -2.211140
57728 2.138891 1.837848 0.642094 0.680918 0.199943 0.329821 1.751604 -0.886128 2.293993 -0.671459
57465 -0.020006 1.361159 2.262038 -0.132511 0.070104 -1.259472 -0.324382 -1.656214 0.086702 1.297322
3481 0.253930 2.016824 -0.314523 -0.105076 -1.560205 -0.481882 0.278136 -0.779346 -1.048918 0.156333
3479 1.251500 1.344234 -0.566947 -0.048691 -1.438207 -1.722384 1.069763 -1.759366 -0.660915 0.941171
6901 2.076678 0.946346 0.677964 0.346029 -0.041157 -1.685002 -1.316661 -0.241342 -0.233414 -1.318073
2645 2.222294 0.836839 0.392630 2.612257 -1.225877 -0.333144 0.380774 -1.294511 -0.059641 -0.723376
3880 0.216600 2.039840 0.047412 0.102074 -1.563192 -0.104218 1.140878 -0.691790 -0.328688 0.121952
174 0.029057 1.675936 0.420457 -0.518189 -1.240303 0.266756 0.684811 -0.280519 -0.824073 -0.362622
23229 0.169919 1.345174 2.315417 -0.751515 -0.486632 -0.730819 -1.076648 -1.463743 0.260090 1.238826
4582 1.048233 1.431740 0.101605 0.534866 -0.496434 0.516967 1.452455 -0.524971 0.974971 0.173881
1376 2.162367 0.166139 0.614347 1.820992 0.656493 -0.052636 -0.089409 -3.783774 -0.899768 -0.782601
9227 2.743974 1.278273 0.664066 -0.832602 1.042258 1.397967 0.883028 -2.150673 0.959710 0.059113
1041 1.431365 3.397890 0.206485 -0.314341 -0.896399 -0.431065 -4.101861 -2.968877 -2.306477 -1.618751
59341 -0.719850 1.167474 0.906525 0.215686 0.181946 -1.309368 -1.068091 -1.695027 -0.409681 -1.074071
2277 0.427402 2.465603 -0.211580 -0.698476 -0.698332 0.458968 1.039319 -0.971516 -1.734355 -1.221083
2562 -0.122801 1.322033 2.064454 -0.187243 0.042909 -1.195412 -0.370489 -1.751293 0.138982 1.321824
2078 0.006796 1.426135 0.792336 0.425679 -1.376926 -0.809018 1.558672 -1.256175 -1.468597 -0.609026
3730 0.926845 1.816451 -0.327810 1.030580 -0.331649 -2.504848 1.581763 -2.127363 0.562024 0.449798
6121 2.699140 1.253331 0.585735 -0.841082 0.870230 1.325400 1.006440 -2.080848 1.019528 0.081109
4094 0.715795 1.742935 0.623483 -0.357969 -0.268793 -1.204577 1.899602 -0.185349 -0.556822 -0.942224
4771 0.508608 1.609880 -0.450450 -0.381061 -1.651059 -0.604830 0.435231 -1.227461 -0.810775 0.713159
7424 0.321221 2.371393 -0.042098 -0.615849 -0.590103 0.293542 1.080103 -0.972715 -1.741307 -1.045013
788 2.286101 0.197010 0.581957 1.878863 0.597015 -0.095452 0.031307 -3.838342 -0.932632 -0.765901
64423 -0.537394 1.010670 0.317772 0.162889 -0.715595 -1.822708 -1.355442 -1.655231 -0.057314 -0.654005
7287 2.724604 1.374306 0.606961 -0.715564 0.962479 1.406087 0.933258 -2.019072 1.108055 0.049241
29925 1.818540 1.787452 1.130332 1.321026 1.316740 -0.846499 -0.229786 -0.622392 -0.443824 -2.180543
3972 1.030174 1.732317 -0.457735 1.103965 -0.472030 -2.399096 1.477054 -2.074441 0.535138 0.282414
190 0.953347 1.243022 -0.058983 0.789811 -1.182686 -2.887604 0.413153 -1.389081 0.220063 0.157492
64127 2.442079 0.715783 -1.550709 0.248935 0.060325 -0.929595 -0.560155 -3.013692 -0.708902 -1.326135
4627 1.570593 3.492347 0.075529 -0.612361 -0.384801 -0.998613 0.129343 0.757567 0.616531 -1.244903
4920 2.419365 5.194662 2.225147 1.268481 0.202171 0.068272 1.231345 0.081301 1.009892 0.846713
2243 0.946200 2.122234 -0.474634 0.636460 -1.194128 1.124062 0.928644 -0.731713 0.078886 -0.376093
2798 1.034439 1.894906 -0.206253 1.037184 -0.361558 -2.663446 1.611151 -2.122161 0.752490 0.498005
91942 1.100688 0.507595 1.922680 0.285295 -0.405825 -0.360556 -1.567647 -1.321781 0.923535 -2.616395
6598 -0.456813 2.184071 0.371370 -0.273094 -1.032773 -0.787469 -0.101243 -1.489012 -0.865260 1.070471
55835 2.960754 1.118762 1.471964 -0.709732 -2.470970 0.114968 2.183172 -0.821191 0.918312 -2.761526
3759 1.842374 1.996816 0.541366 1.752219 0.811523 -1.718728 -0.055168 -1.184468 -1.086112 0.176353
1729 1.669703 3.562317 0.177766 -0.403813 -0.314897 -1.013995 0.223240 0.797019 0.574611 -1.231826
55812 2.681848 1.225905 0.673685 -0.819522 0.882848 1.286298 1.005541 -2.095766 0.882613 0.104948
10128 0.998591 0.049242 1.581168 -0.370429 -0.941824 -1.064950 -1.963779 -2.204169 0.843875 -2.573641
27429 2.907039 0.948367 1.118657 -0.931581 -0.701629 -1.361546 -1.525220 -0.551078 -1.507485 -1.549328
5172 1.030673 4.460664 0.787228 -0.002469 -1.035091 -0.940452 -0.665956 0.425405 -0.869973 0.008061
672 0.299811 1.634792 0.498716 0.334578 -1.041840 0.693567 1.314920 -0.752449 0.196679 0.405022
2677 3.994591 0.670268 2.275624 0.718195 -1.054463 -0.518434 3.206676 -2.095349 -0.557296 -0.097667
3565 2.011698 1.394839 -1.245611 0.345559 0.034081 -0.465341 -0.618766 -1.319417 0.845245 -0.726585
3035 -0.428663 2.091013 0.712779 -0.480430 0.037033 -1.560775 -1.325249 -0.480600 -0.360190 -0.980951
65055 -1.091009 1.884398 1.959328 0.461548 0.898248 -0.354637 -0.518418 -2.455044 -0.955466 -1.410881
7169 -0.210668 4.052839 -0.164046 2.615277 0.143205 -0.084451 -0.402925 -2.349064 -0.763354 -2.232917
26191 1.432787 1.335326 -0.638191 1.544553 -0.505039 -1.154583 -0.837871 -1.190842 0.748337 -1.677654
859 1.568832 1.631863 0.858488 1.591019 1.256738 -1.271755 -0.292620 -0.847192 -0.864268 -0.920126
3558 1.235363 1.680440 -1.158015 1.177980 -0.489962 -0.872669 -0.644284 -1.139131 0.663568 -0.916698
2539 1.394901 1.731542 2.943305 -0.007778 -4.090678 -1.500504 -0.809899 -0.432439 -0.231762 -2.556684
23418 2.737625 1.284690 0.660920 -0.742761 0.812813 1.377156 0.970391 -2.029102 0.993580 0.108527
6622 2.445123 0.873108 1.150680 -1.694841 -0.425228 -0.572786 -1.214654 -0.833092 -1.653860 -1.785369
7134 1.580116 1.292659 0.673134 1.022661 -0.032331 -1.532398 -0.979289 -0.147888 0.184910 -1.249792
157657 2.836562 1.056872 0.958714 0.742431 1.229941 1.083224 0.180199 -1.419013 1.159951 -0.866779
4541 1.273756 0.520222 2.415951 -0.361919 0.294963 0.192080 -1.276844 -1.405332 0.945871 -2.580227
80055 0.557337 1.432759 2.431831 -2.028752 0.264732 -0.648212 1.015570 -3.257136 2.667340 0.690433
617 1.091089 0.464256 1.912231 0.234808 -0.508971 -0.292713 -1.564263 -1.479305 0.960025 -2.653608
64072 1.046466 3.273958 0.978688 -0.685745 -0.213991 -1.485140 -0.590997 0.399331 -0.450608 0.134105
59 1.599774 2.151740 -0.573423 -0.733803 -1.998480 -1.096551 1.466662 -0.540403 -0.920507 -0.629594
4724 1.090242 0.481282 1.945223 0.208145 -0.456791 -0.380824 -1.628911 -1.438839 0.967026 -2.654338
3594 2.166028 1.604269 -1.078242 0.492885 0.202471 0.027193 -0.905794 -1.100614 0.732238 -0.710846
10058 0.472755 2.217554 -0.482522 -2.122125 -0.429730 -1.499042 1.869385 -1.595896 0.369527 -0.455239
2554 -0.089311 1.337558 2.324379 -0.216459 0.069459 -1.250523 -0.299589 -1.783448 0.066586 1.203049
7439 1.836371 0.927727 0.338814 -0.837215 1.091769 1.194848 0.997606 -1.967336 0.037815 -0.247132
9420 -1.006601 3.120975 2.919260 0.913090 1.268009 -0.415444 0.329296 -1.875305 -0.761860 -1.627590
7170 -0.115813 2.690692 0.041365 1.477588 -0.552037 -0.430739 0.371388 -0.604926 -0.898552 -1.087322
5961 2.820228 1.243644 0.635202 -1.102733 0.772930 1.496112 0.752577 -2.023510 0.478799 -0.021781
22995 2.935361 1.076030 1.436114 -0.640694 -2.470843 0.083481 2.285315 -0.803489 0.805788 -2.739381
7414 1.510368 1.036973 0.636474 0.896288 -0.063444 -1.311011 -0.914353 -0.143036 0.060310 -1.293445
84839 2.312336 0.876220 -0.040851 0.403164 0.139848 1.474070 -0.515851 -2.201105 1.340851 -0.134659
1584 0.088665 1.918607 1.265421 2.334656 -0.250328 -0.398674 0.652840 -2.509027 -1.198421 0.895324
2065 0.468960 1.623182 -0.771702 1.845651 -0.526906 -1.162551 -0.936572 -1.843935 0.605543 -1.518212
3614 2.875222 1.252024 0.624041 -0.828688 0.746133 1.343522 0.857630 -2.072129 1.126488 0.184469
6855 0.527903 0.760620 1.464573 -0.805135 -1.556597 -1.562276 1.584600 -1.407241 -0.822397 0.463796
2316 1.064024 4.024767 -0.147547 -0.505614 -0.299962 -0.113086 0.213737 0.416262 1.073007 -1.922811
22954 2.135475 1.321051 0.816760 0.820587 1.726812 -0.202636 0.028185 -0.596803 0.297674 -1.410765
2643 2.353465 1.361103 1.718745 0.690515 -0.393301 0.427221 -1.183020 -1.677107 -2.873797 -2.053589
4763 -0.264057 2.936129 -0.287927 0.071543 -0.981881 0.091157 1.235027 -1.068410 -1.184559 -1.604278
9757 1.649716 1.132306 1.083983 0.679629 -1.564168 0.630699 -0.369274 -1.012385 -2.287573 -1.708568
4535 1.389445 0.646431 2.313363 -0.202765 0.093052 0.142125 -1.385608 -1.223682 1.002551 -2.578110
4728 0.890518 0.524740 1.923658 0.271972 -0.587578 -0.419650 -1.652520 -1.479264 0.931208 -2.768812
2074 1.262141 1.138932 -0.323527 0.714939 0.239624 1.138053 -0.833489 -2.824421 1.388892 -0.044241
4758 0.640657 1.729095 1.960938 -2.171718 0.602746 0.268511 -0.503857 -0.877205 0.523604 -2.602386
1605 1.596003 1.712790 1.070703 1.169684 1.350432 -0.963056 -0.359784 -0.679675 -0.421056 -2.113925
374291 1.065985 0.438989 1.904282 0.325635 -0.564501 -0.468566 -1.580965 -1.432979 0.896450 -2.627384
4141 -0.808941 1.485784 0.898404 -0.011991 -0.263669 -1.726406 -1.260498 -1.429303 -0.179998 -1.214681
5309 1.191441 1.630425 0.496883 -0.727668 0.173152 -2.248708 1.636314 -0.702136 -0.826076 -0.825550
55572 1.060079 0.473051 1.887343 0.204672 -0.440140 -0.348243 -1.621765 -1.417011 0.949444 -2.626667
5830 -0.108798 0.795629 3.370257 0.506535 -3.944132 -0.641519 -1.087079 -3.740109 0.781170 -0.825315
1832 2.561648 3.506474 -1.675485 0.025050 -0.688910 -1.355748 -0.166907 -1.343484 -0.935862 0.799748
3717 0.722150 2.045944 -1.123058 -0.722544 -2.513213 -0.239677 0.301363 -1.014100 0.957192 -1.385016
8048 1.526037 1.098892 0.673168 0.966763 0.086455 -1.359385 -0.912274 -0.177244 0.125741 -1.266301
7399 2.103701 1.886986 0.669583 -1.225631 0.941032 0.877045 -0.267861 -0.189037 0.279936 0.611519
4436 -0.560125 1.975230 0.715376 -0.058728 -1.344965 0.617843 0.882220 -0.772346 0.104817 -0.188354
10002 1.910920 0.875705 0.430993 -0.912385 1.152414 1.206514 0.964412 -2.044703 0.081059 -0.319888
5189 -0.135261 0.829248 3.352889 0.542124 -3.900916 -0.654514 -1.104475 -3.659873 0.830988 -0.785325
6017 2.775127 0.953995 0.185234 -0.825908 0.467917 1.331372 0.530844 -2.454924 0.820151 0.173789
4722 1.043413 0.473092 1.751072 0.265601 -0.600853 -0.394049 -1.602160 -1.505925 0.924116 -2.762404
25861 0.796430 3.425219 0.978860 -0.662409 -0.325285 -1.239032 -0.945690 0.317432 -0.485437 0.078389
4607 1.641903 1.251726 0.543526 0.943428 0.040781 -1.355043 -0.877725 -0.089014 0.131213 -1.121879
3690 1.157107 3.112970 -1.063463 -0.132624 -0.261382 -0.366525 -0.407849 -0.050064 0.977224 -1.359879
472 0.377915 1.645990 1.585896 1.080565 -1.895097 0.203810 1.655805 -0.577090 -0.341634 -0.981866
1639 -0.652670 0.958131 0.999320 -0.268723 0.502215 -1.116264 -0.444974 -2.534776 -1.238840 -1.361210
5000 2.696510 0.578458 -0.320152 -2.471239 -2.974802 -1.258325 0.888393 -4.386748 1.494392 0.112305
5741 1.253119 2.372934 -0.983536 -0.490815 -1.871289 0.107940 -1.772788 -0.941596 -0.672029 -0.747759
4089 -0.708324 2.517580 0.579360 0.304076 -1.319298 0.719281 0.615823 -0.820912 0.166257 -0.061246
137682 1.050026 0.472941 1.954429 0.311968 -0.401046 -0.297438 -1.518246 -1.444831 0.883576 -2.632194
8398 2.200137 1.029922 1.106538 -1.472794 -0.388461 -1.337058 -0.584349 -0.814640 -2.197805 -1.196607
4487 0.634215 2.829778 -1.127020 0.057286 -0.764512 -0.464851 1.316454 -1.638978 1.147633 0.648445
2623 0.976007 3.437804 0.316023 0.213692 -1.371948 -0.514500 0.174295 0.692958 1.520406 -1.714136
2746 2.295272 0.390463 0.782155 2.624352 -0.072891 0.159383 0.381177 -2.649460 -0.653376 -0.559718
4359 -0.675304 1.306987 0.846367 -0.095595 -0.073631 -1.664021 -1.185764 -1.419552 -0.174707 -1.146063
120892 2.522970 0.931512 1.329003 -1.856986 -0.268376 -0.567696 -1.378492 -0.871009 -1.760551 -1.871462
65217 1.038792 3.210361 1.026052 -0.718389 -0.273102 -1.158408 -0.884280 0.340181 -0.371025 0.278435
56997 -0.008064 1.652483 2.406882 -2.367778 1.296654 -0.627347 -0.749747 -2.503873 -0.308418 -0.394455
9241 2.223938 5.076968 2.022908 1.215837 0.038732 0.109560 1.126076 0.031262 0.869324 0.996238
5914 0.255409 2.304995 -0.903349 0.334139 -1.221350 -0.789584 1.229421 -1.038813 0.865637 -0.170076
94025 0.022137 1.865983 0.646155 0.047082 -1.188311 0.789506 1.038420 -0.695425 -0.340219 0.260537
6690 2.757416 1.292059 -0.135795 -1.681773 1.149920 0.454639 0.480676 -3.426151 0.540847 -4.377949
7168 1.513316 1.101280 0.515434 0.867581 0.040683 -1.430801 -1.008017 -0.226630 0.169278 -1.267617
54361 0.748948 0.958217 0.737729 0.799472 -2.073194 -2.728353 0.890162 -1.738749 0.234743 0.188988
1410 1.232142 1.556336 0.484404 -0.476678 0.196461 -1.962366 1.291660 -0.224403 -0.682888 -1.567877
57468 0.031002 1.344132 2.369724 -0.656604 -0.245727 -1.240795 -0.323504 -1.472502 0.076275 1.154927
51119 1.459223 2.035716 1.909429 0.822660 -3.754414 -1.133096 -0.552892 -0.074441 -0.305248 -1.685843
716 1.442277 2.450758 -0.601304 -0.088449 -0.321252 0.609562 -2.155091 -1.615492 1.361748 0.003338
4998 2.624037 0.562083 -0.299038 -2.385074 -2.874746 -1.179792 0.854015 -4.306732 1.550029 0.170107
92935 2.230129 1.087260 2.505416 0.116609 1.931202 -1.004963 -2.261876 -3.004361 0.296405 0.071429
6329 1.665335 2.260041 0.384553 1.743144 2.939244 -1.836690 1.600574 -3.212213 -0.137171 -0.213178
132884 3.219285 2.978597 0.053725 -3.515488 -2.239310 1.973009 -0.778290 -1.954970 -0.466833 -0.673188
5832 0.842655 0.283387 0.485906 0.950427 0.364033 0.623762 -0.681353 -3.121063 -1.026829 -0.318097
538 -0.325481 0.398557 0.462055 0.165468 0.130417 -0.197667 -0.619919 -2.210384 -1.114294 -0.529745
10083 1.027099 3.224715 1.077401 -0.614816 -0.429157 -1.283903 -0.978050 0.317256 -0.367746 0.338492
846 1.342351 2.024636 -0.368440 -0.765942 -1.999955 -0.485293 -1.028361 -0.576284 -1.799670 -1.317817
23236 -0.022410 1.469651 2.238746 -0.530628 -0.166504 -1.314921 -0.506630 -1.534317 0.100827 1.239648
10280 -0.728991 1.123820 0.959815 -0.356842 0.480766 -0.977667 -0.442966 -2.513521 -1.287699 -1.456590
4575 0.941892 1.156945 2.624124 -1.510606 0.597232 0.235243 -1.043439 -0.997407 0.541379 -2.007813
11155 1.549420 1.175148 0.288473 0.684950 0.285897 -1.623722 -0.511133 -0.265892 0.031456 -1.570565
4539 1.465790 0.278003 2.201235 0.142381 -0.125920 0.063168 -1.335291 -1.666566 1.026617 -2.570780
6352 2.161365 1.097138 -1.737536 -0.857611 -0.389592 -1.361722 -0.960979 -2.538049 0.201155 -1.549129
4567 1.037730 1.208525 2.468422 -1.560818 0.543052 0.352709 -1.100808 -0.995100 0.524094 -2.274300
3052 0.258895 2.555751 -0.212253 -1.697319 -0.832550 -1.624804 2.225526 -1.601715 0.404638 -0.365327
3418 0.460261 2.857157 -0.352097 -0.841959 -3.064981 -0.432810 0.492739 -0.661552 0.949166 -1.144479
10297 -0.325593 2.149021 0.018757 -0.510518 -1.632905 -0.051992 0.836901 -0.984341 -0.434187 0.025155
81620 2.615484 0.580138 -0.323145 -2.485387 -2.959803 -1.274870 0.872907 -4.315544 1.584775 0.112509
2006 0.947795 1.038141 0.566490 -0.273476 0.382666 1.284380 -1.429365 -3.452014 -1.414221 0.247583
11315 2.608115 0.820298 1.021647 -1.394256 -0.841841 -0.929011 -1.280457 -1.115480 -1.983025 -1.416145
27031 2.324632 1.859174 0.320070 0.684633 0.352536 -0.029744 1.589407 -0.862444 2.238876 -0.536775
6736 0.729301 1.019538 0.764857 0.738764 -2.169576 -2.797188 0.715491 -1.791805 0.309242 0.225180
695 1.729309 1.275755 -0.380226 -0.371480 -0.520475 -2.791176 1.210333 -3.038128 -0.361130 1.278115
50943 2.048800 1.725500 0.755463 2.402651 -2.350161 -0.558847 0.173455 -0.296460 0.546523 -0.887925
715 1.480873 2.469736 -0.616763 -0.274639 -0.391139 0.582962 -2.359817 -1.742967 1.330459 -0.115684
6330 1.742073 1.992736 0.629484 1.690482 0.646882 -1.802116 -0.549824 -1.083299 -1.227641 0.135647
3752 0.994706 2.113612 1.140549 0.108835 1.694990 -2.081673 -0.921295 -1.559076 -0.535277 0.582716
11284 -0.186954 1.019464 2.205386 -0.917591 0.127991 -1.049763 -0.401631 -2.036855 -0.200528 0.902899
7046 0.149157 1.864053 -0.670694 -0.226799 -1.030891 -0.609079 0.988562 -0.807154 -0.465148 -0.493947
65018 2.628710 0.909240 1.264824 -1.584801 -0.716307 -0.888876 -1.281785 -1.010662 -1.938646 -1.390997
2130 0.089781 1.000256 1.464348 -0.281547 -1.208840 -0.999944 1.563635 -1.223962 -1.776465 -0.733551
2313 0.430399 1.201384 1.835817 0.292677 -1.572013 -1.140485 1.843646 -1.266784 -1.976572 -1.485301
4204 1.210612 0.251148 2.366023 0.017098 -1.102276 -2.715937 -0.615836 -2.681557 0.059959 0.806766
4564 1.153128 1.313599 2.503072 -1.666836 0.696897 0.272333 -1.155621 -0.875798 0.455112 -2.114507
5133 1.892277 1.466532 -1.197600 0.584663 0.037689 -0.332639 -0.509711 -1.213563 1.030235 -0.644564
1859 -0.917972 2.863841 0.207459 -0.339553 -0.482433 -0.951970 -0.402234 -2.001852 -0.091111 1.130027
1296 5.031875 2.532516 1.207977 0.152228 -1.913252 1.637820 -1.363238 -0.945831 -1.031546 0.019796
3852 1.570930 1.760374 -0.768535 0.101268 -1.916806 -1.008071 0.162579 -1.108127 -0.811524 0.909257
6935 5.017773 2.539876 1.227225 0.191565 -1.864459 1.698109 -1.377682 -0.904167 -1.022935 -0.031500
238 0.588124 2.652538 -0.146719 -0.585471 -2.556014 -0.259696 1.030423 -0.447708 0.566021 -0.308949
4604 -0.446198 3.074911 -0.235946 2.298776 0.110285 -0.887297 -1.227780 -2.646419 0.033354 -2.061282
5664 1.300480 0.905157 0.496577 0.685131 0.216477 -1.665566 -0.756190 -0.304226 0.554760 -1.231809
5727 0.002753 2.173700 -0.215142 -1.341932 -1.714064 -0.357667 1.286013 -1.547479 -0.463234 0.419343
6271 0.052002 0.942941 1.471671 -0.370572 -1.268948 -1.018797 1.503910 -1.240314 -1.753473 -0.683696
6535 1.488441 0.085750 2.437059 0.167070 -1.212040 -2.863885 -0.559914 -2.695697 0.057177 0.468948
6513 2.298643 1.304198 1.815170 0.768019 -0.574471 0.225358 -1.121070 -1.533042 -2.789895 -2.179483
3785 -0.146130 1.381708 2.296896 -0.844015 -0.214103 -1.179157 -0.491409 -1.655243 0.173230 1.047165
1482 0.981046 2.230291 0.362838 1.287494 -0.993345 -2.367988 -0.253278 -0.186446 0.639376 -0.039610
8312 0.305537 1.955132 -0.136823 -0.649858 -1.502482 -0.276345 0.737172 -0.855681 -0.802056 0.537116
11330 2.747478 1.289192 -0.119947 -1.601649 1.143534 0.418891 0.475962 -3.363628 0.444137 -4.437427
23322 2.555755 1.938526 0.541846 0.193253 1.131022 -0.543078 0.758062 -1.337327 2.673445 -0.131988
9217 -0.607263 0.663919 0.764329 -0.514609 -0.035860 -1.048504 -0.166463 -2.879326 -1.591349 -0.786793
7252 0.987827 1.505326 -0.746414 0.934410 -0.428171 -2.362076 0.224874 -1.167682 0.658342 -0.211625
778 2.850405 0.611308 1.467867 -0.116818 0.077762 2.068713 0.075015 -2.165374 1.283998 -0.476216
2131 3.416543 2.572572 2.547335 -0.380469 -0.038572 -1.215157 -1.480886 -0.688749 2.926018 0.849645
3106 3.342307 0.683093 -0.864543 -0.435876 -0.709410 -0.794738 -1.251523 -2.211090 -1.376822 -1.002682
11186 0.487338 2.152120 -0.238312 0.300590 -1.476233 0.260251 1.220151 -0.591644 -0.215739 -0.224970
5897 4.078022 1.524304 -0.362556 -0.613207 -1.534059 -0.671272 -0.936450 -1.028173 2.013051 -0.956722
4519 1.253798 0.287274 2.102386 0.351390 0.059581 0.051772 -1.207119 -1.585080 0.900068 -2.574317
7097 2.964566 0.649359 -1.035591 -0.992218 -0.542863 -1.259044 -1.370460 -2.298462 -0.893117 -1.400865
57545 2.530093 1.895496 0.451614 0.177525 1.047941 -0.543422 0.774533 -1.267349 2.635584 -0.242305
1401 1.868713 1.326585 -1.052433 0.430089 0.082769 -0.492121 -0.710193 -1.060376 0.795417 -0.710257
121391 1.482317 3.068218 -0.126875 0.316609 -0.923995 -0.259611 -3.809992 -2.920849 -1.919571 -1.624878
3239 1.704320 4.326902 1.436916 1.110063 -0.550642 -0.538007 0.934780 0.106940 0.690630 1.269112
8074 4.167971 2.086313 1.154944 0.424687 -0.994006 -0.962094 1.209137 -0.138102 -0.217693 0.677554
2266 0.933454 1.949800 -0.669279 0.698523 -1.202329 0.934210 0.733248 -0.851789 0.179082 -0.279831
6326 -0.053016 1.322561 2.286759 -0.708433 -0.198943 -1.365029 -0.466497 -1.607001 0.175877 1.146820
23414 1.124407 1.478985 0.945167 1.084167 -2.010509 -2.745100 0.075661 -0.752265 0.569208 0.493258
344 0.849844 1.656467 2.239556 -0.089742 -0.588978 -2.981738 0.604491 -1.283286 2.986814 -2.223981
2138 1.242683 2.037507 0.820326 -1.169008 -0.070599 -2.077706 1.466728 -0.118905 -0.784224 -1.186386
2521 -0.589635 1.110847 0.891567 -1.091957 -0.314197 -1.205480 0.267427 -1.912919 -1.847697 -1.415087
6324 1.064913 2.171974 1.018137 1.330791 0.703384 -1.633110 -0.768273 -0.919546 -1.082850 0.699146
4538 1.327314 0.334628 2.252625 0.301938 -0.048340 0.043772 -1.151982 -1.547289 0.931582 -2.701068
7012 0.121237 2.955001 -1.721188 -1.221511 -1.114466 0.414203 0.158087 -2.368695 -0.590914 -1.061499
3973 0.096318 0.683244 1.328774 1.899576 -1.199008 -1.816846 1.042923 -2.963881 -0.306466 0.410992
51668 -0.678444 1.240023 0.865322 0.027270 -0.138642 -1.531884 -1.124630 -1.352333 -0.218114 -1.110189
4574 0.998925 1.217094 2.469796 -1.599761 0.560704 0.310151 -1.111266 -1.012498 0.681385 -2.212449
5649 2.799391 0.648573 2.797282 -1.932298 -0.750022 -1.708145 -0.453933 -2.403730 -0.130842 1.746958
5241 0.366878 1.636442 0.011572 0.431654 -1.163553 0.580523 1.189103 -0.968325 0.030287 0.363039
178 1.477036 2.163640 2.853964 1.068152 -0.808344 -0.271741 0.820890 -0.083432 -1.692381 -0.507963
2100 0.395101 1.557517 -0.011936 0.543227 -1.051630 0.477597 1.050733 -0.897841 0.057600 0.414473
3603 1.915176 1.661215 -1.272622 0.548929 -0.086382 -0.282178 -0.725800 -1.293959 1.033574 -0.522756
55806 1.589671 2.933904 -0.364660 0.377729 -0.731674 -0.226925 -3.632431 -2.615427 -1.514554 -1.606249
203068 2.118443 1.063311 4.976967 0.148987 -2.627437 0.179114 -0.452795 -1.244375 0.493517 -0.409962
79751 -0.049473 1.387473 2.201049 -0.933243 -0.187458 -1.141709 -0.566251 -1.676986 0.153413 1.117759
2115 0.201940 1.297064 1.059298 0.412386 -1.239101 -0.847149 1.698462 -1.592557 -1.894524 -0.477706
5631 -0.708408 1.467598 0.867186 -0.001710 -0.135769 -1.660895 -1.261283 -1.492881 -0.129761 -1.038539
5155 1.102258 1.371042 -0.236819 0.148907 -1.975626 -0.667910 0.703083 -1.044033 -0.673686 0.716046
6792 -0.101277 1.097728 2.192024 -0.601485 -0.347246 -1.368919 -0.630184 -1.553344 0.129643 0.949391
2990 0.090439 1.944477 1.092359 -1.229043 -1.329663 0.925954 0.974300 -0.518066 -0.672655 -2.275655
23334 -0.083319 1.403893 2.319900 -0.812293 -0.242944 -1.119799 -0.559843 -1.657126 0.050296 1.106794
59345 -0.669668 1.380812 0.870601 0.010366 0.062489 -1.669914 -1.191627 -1.495046 -0.094250 -1.149833
6662 0.776825 0.960941 0.838226 0.822022 -2.130014 -2.814603 0.698870 -1.680923 0.294950 0.060237
10939 1.068496 1.907362 1.701001 -0.479666 1.889239 -1.636980 -1.953957 -2.314016 -0.206277 0.294723
629 1.682452 0.682205 -0.631059 0.389457 -0.708314 0.953636 -0.635351 -2.393003 1.171942 0.267287
6392 0.416196 2.223564 -0.236607 -0.449948 -0.698256 0.448289 0.885044 -1.049782 -1.645472 -0.471093
8526 1.309030 0.628918 -0.704197 0.716105 -1.716314 -0.096013 -0.806837 -2.404233 1.011282 0.577803
1756 1.490863 0.922888 0.121530 0.924563 -0.002446 -1.811898 -0.685841 -0.500460 0.212895 -1.119882
2627 1.334299 1.980168 0.959109 1.222076 -1.108083 -2.376338 -0.439132 0.083555 0.712139 -0.156160
54790 0.507856 2.787462 -0.424027 -0.852724 -2.915577 -0.415839 0.574799 -0.659061 1.040296 -1.036867
4747 -0.707709 1.326338 0.937760 -0.019467 0.019741 -1.601310 -1.099601 -1.405644 -0.039668 -1.110011
5192 -0.140953 0.751172 3.168411 0.476347 -3.715551 -0.594079 -1.072043 -3.462726 0.726939 -0.805926
50939 2.710422 1.163347 0.567952 -0.999659 0.811243 1.502990 0.815698 -2.117077 0.467019 -0.090093
498 2.065854 -0.009235 2.744424 0.816149 1.206064 -0.364679 -1.576710 -3.280982 0.200212 -0.768472
23095 -0.601717 1.325587 0.932382 0.071059 0.017061 -1.745511 -1.207215 -1.443517 -0.128865 -1.222329
2248 0.892338 3.263835 0.770251 -0.544868 -1.191005 -0.818712 -0.053661 0.514321 -0.492336 0.214855
7100 1.916881 1.580139 -1.242331 0.502603 0.009705 -0.291870 -0.678097 -1.178505 0.928333 -0.654442
55343 -0.187725 2.147369 3.693864 -1.439836 -0.647661 -0.113931 1.529753 -1.522704 0.121833 0.294228
2118 0.293460 1.155185 1.205335 0.368390 -1.117130 -0.915864 1.634111 -1.458239 -1.958317 -0.594612
6305 -0.729779 1.389701 0.901031 -0.018338 -0.090566 -1.729362 -1.120194 -1.451760 -0.147717 -1.033574
4566 1.027509 1.229740 2.563000 -1.567678 0.507974 0.313146 -1.169801 -1.055024 0.584905 -2.277951
1355 0.406292 0.424173 1.612464 0.162274 -0.680405 -0.817215 -1.854173 -2.197799 1.000648 -2.588714
4191 -0.131605 1.317719 2.170034 -0.834478 -0.193133 -1.308687 -0.422265 -1.589389 0.154786 0.990209
4297 0.397133 1.357202 0.608771 0.179381 -2.970161 -0.156806 1.495595 -1.297596 0.502548 -0.516555
5602 -0.172131 1.433322 2.303451 -0.711449 -0.179867 -1.221925 -0.465730 -1.702147 0.116566 1.157892
2213 1.990569 1.365529 -1.120528 0.459290 0.016037 -0.295161 -0.554497 -1.192473 0.966990 -0.751707
2244 0.926178 2.066327 -0.609207 0.856287 -1.400545 0.988745 0.729036 -0.933299 0.081839 -0.384860
2632 1.346933 1.996160 2.862442 1.186591 -0.807696 -0.401320 0.861432 -0.158043 -1.644186 -0.495279
5896 4.114640 1.540999 -0.351804 -0.683174 -1.464597 -0.568685 -1.009378 -1.049054 1.984527 -0.891981
64699 1.670554 3.488496 0.763511 -0.612310 -0.621433 -1.418240 -0.396975 0.598411 -0.194406 0.046933
2099 0.345167 1.628395 -0.043844 0.547184 -1.182120 0.536577 1.164116 -1.029635 0.028436 0.329642
81846 -0.673742 1.312367 0.872048 0.089183 0.014574 -1.573452 -1.203701 -1.452620 -0.122287 -1.178224
3417 0.484003 2.823592 -0.383702 -0.758448 -3.118444 -0.420815 0.504776 -0.660472 0.869884 -1.162695
1959 -0.729033 1.252771 0.942820 0.088571 -0.037735 -1.540408 -1.230171 -1.441403 -0.176222 -1.185127
2651 1.346180 1.851866 0.783257 -1.144298 0.005915 -1.909062 1.656444 -0.380239 -0.908903 -1.083089
121512 -0.741426 1.343684 0.752261 0.026124 -0.176257 -1.659863 -1.186646 -1.494756 0.029936 -1.033131
51684 0.293319 1.903648 -0.292954 -0.662311 -1.467160 -0.416946 0.671789 -1.136566 -0.846763 0.711091
207 0.664390 2.142343 -0.888134 0.090860 -0.286427 0.001263 0.380047 -1.137807 -0.654379 0.824491
150094 -0.174183 1.342589 2.330935 -0.711121 -0.123342 -1.285565 -0.547606 -1.689591 0.199867 1.023787
57716 -0.772892 1.400767 0.836994 0.055169 0.013913 -1.643080 -1.116395 -1.524455 -0.087103 -1.044400
55755 2.184066 0.946393 1.322911 0.140778 -3.053405 0.030967 1.927803 -0.849440 1.083580 -2.056620
8419 1.237781 1.793062 0.683809 -1.028253 0.100577 -1.864796 1.574559 -0.446377 -1.078130 -1.184673
1524 1.237911 1.053873 -0.822580 0.440594 -0.704841 1.179389 -0.006946 -2.517870 1.118325 0.467845
8481 2.630343 2.053345 0.736666 0.209622 0.746968 -0.728317 0.264014 -1.004723 2.778226 0.248411
392255 0.124971 2.512050 -0.253041 -1.647888 -0.818596 -1.680385 2.194166 -1.583730 0.475615 -0.319053
1411 1.329446 1.690075 0.708118 -1.169646 0.007266 -1.934372 1.530273 -0.426487 -0.743161 -1.057445
6608 0.373502 1.935861 -0.360871 -0.687621 -1.313292 -0.390845 0.764861 -1.173845 -0.810668 0.657403
79867 2.472993 1.832993 0.513761 0.131664 1.120714 -0.636973 0.705895 -1.193230 2.496122 -0.166775
23321 -0.659860 1.293792 0.689093 -0.061542 0.000812 -1.643377 -1.139808 -1.604548 -0.075474 -1.056955
7389 3.375783 3.027861 0.228312 -3.379404 -0.705119 -0.461703 0.681425 -1.755511 0.972817 1.448214
9992 1.766269 2.004823 0.594830 1.746232 0.588164 -1.690633 -0.482972 -1.184695 -1.374979 0.202905
2214 1.905946 1.476884 -1.188399 0.449975 -0.024277 -0.184987 -0.653711 -1.147184 0.936469 -0.733956
375298 2.880249 1.164868 0.558077 -1.057966 0.687978 1.525403 0.710448 -2.172975 0.597929 0.098184
4536 1.180797 0.344575 2.300715 0.261702 -0.069444 0.040963 -1.263110 -1.665225 0.963938 -2.652117
7148 1.550084 2.919296 0.100930 -0.640088 -0.504982 0.862208 -2.876091 -1.598860 1.298452 -0.297372
10342 -0.183698 2.363132 0.119978 0.520443 -1.334731 -0.423121 0.806300 -0.430163 -0.413419 -0.302891
60558 -0.157876 1.340022 2.298178 -0.770078 -0.227436 -1.141809 -0.496078 -1.600622 0.190463 1.058173
958 3.937243 1.509417 -0.429871 -0.539468 -1.415845 -0.592147 -0.921105 -0.922087 1.887702 -0.848704
6833 2.217623 0.689798 0.562072 2.727095 -1.096739 -0.242028 0.421383 -1.362025 -0.192854 -0.661254
9573 0.074357 2.504224 -0.133150 -1.700106 -0.871454 -1.560120 2.221902 -1.621502 0.487773 -0.401116
23732 0.064259 1.233219 2.245924 -0.742632 -0.088402 -1.152424 -0.454725 -1.595935 0.087500 1.047095
79628 -0.696464 1.357605 0.899501 0.049178 -0.083580 -1.590962 -1.255355 -1.481071 -0.033721 -1.156492
2775 -0.054814 1.169252 2.274892 -0.711624 -0.341372 -1.269732 -0.499965 -1.667922 0.061844 1.047422
3704 -0.225558 1.347341 2.364686 -0.733598 -0.274089 -1.273837 -0.419665 -1.506324 0.278283 0.860204
10397 -0.801985 1.507302 0.905303 0.028631 -0.144137 -1.640335 -1.261261 -1.348872 -0.150262 -1.172981
5376 -0.667188 1.267149 0.933050 0.181086 -0.061858 -1.578539 -1.293878 -1.654869 -0.148213 -1.066360
55670 -0.102906 0.691430 3.222589 0.540590 -3.757559 -0.610030 -1.052931 -3.524362 0.762536 -0.759453
6908 1.061509 2.106087 1.647023 -0.989474 1.465647 -2.213007 -1.486212 -1.925442 -1.090652 0.359903
1019 0.598867 1.577091 0.228389 0.414659 -1.667138 -0.101669 1.166848 -0.536198 -0.715442 -0.138303
8792 0.438534 3.575400 0.111910 0.496659 -1.623885 2.105569 -2.055964 -1.898038 -0.667917 -1.632439
6812 -0.040636 1.300342 2.415428 -0.724184 -0.242213 -1.347582 -0.360687 -1.561959 0.171695 0.993688
3735 -0.581208 1.358415 0.794709 0.093081 0.038216 -1.638518 -1.201503 -1.374482 -0.119460 -1.148066
8565 -0.667171 1.426967 0.888815 0.092808 0.021633 -1.754029 -1.261887 -1.492469 -0.174681 -1.118441
79583 2.473138 1.842996 0.446562 0.113978 1.060596 -0.520675 0.769397 -1.274556 2.489202 -0.171909
8022 1.350077 1.276986 -0.346399 0.167281 -0.616231 -2.775177 1.202454 -1.935464 0.109728 0.536279
2979 2.794847 1.127647 0.505103 -1.056055 0.833990 1.446235 0.714668 -2.248415 0.488705 -0.133294
348980 -0.170823 1.370669 2.357891 -0.614973 -0.130426 -1.291697 -0.438181 -1.565564 0.222722 0.963888
2108 1.817586 0.240289 1.000234 1.835315 0.590462 0.318085 0.070144 -3.802115 -0.725704 -0.745355
5308 1.087676 1.497011 -0.353448 0.298016 0.119898 -2.989542 1.508048 -1.546608 -0.235953 -0.392314
10461 2.850056 1.233530 0.538668 -1.038922 0.730978 1.528352 0.775040 -2.181808 0.614815 -0.061319
387700 1.252803 1.858163 0.762960 -1.112763 0.065974 -1.954040 1.598502 -0.319797 -0.787074 -1.249743
2560 -0.163895 1.319877 2.268032 -0.807759 -0.224073 -1.240413 -0.545168 -1.696003 0.107474 1.013644
3737 -0.200733 1.224554 2.155966 -0.791588 -0.282845 -1.243738 -0.322161 -1.681671 0.070970 1.052164
54968 1.516316 -0.399904 1.656970 1.661734 0.450955 0.149795 -0.481548 -3.387926 -0.294736 -1.456434
90678 -0.644782 1.324792 0.938185 0.080761 0.076264 -1.599338 -1.098160 -1.376792 -0.108100 -1.030015
22880 -0.568592 1.305500 0.986368 0.082071 0.144054 -1.662440 -1.163032 -1.540133 -0.154275 -1.184948
1414 1.373973 1.720846 0.801885 -0.935129 0.079965 -1.920390 1.694556 -0.465871 -1.094360 -1.117424
6899 1.374540 1.971102 0.917019 1.609183 -2.177786 -1.629823 -0.062505 -0.016916 0.823404 -0.418512
2257 -0.136431 1.367197 2.343627 -0.698862 -0.175421 -1.285649 -0.312071 -1.763208 0.130772 1.071420
3560 1.966307 1.453361 -1.173163 0.525845 0.038570 -0.300462 -0.704600 -1.297255 0.889969 -0.544829
3284 -0.188043 1.287904 1.055301 2.080543 -1.096389 -0.703945 1.236583 -3.067767 -0.829826 0.305188
1420 1.320441 1.865299 0.697010 -0.882685 0.021114 -1.925167 1.701503 -0.415717 -1.000399 -1.197590
10133 -0.434570 1.006841 0.770914 -0.770731 0.505834 -1.879950 0.204508 -2.550550 -1.316032 -1.159747
57096 2.642764 0.993644 1.189835 -0.065013 0.834209 1.364689 0.261584 -2.174003 1.793008 -0.020841
9927 -0.721536 1.334758 0.929597 0.151253 -0.170030 -1.522919 -1.227854 -1.453962 -0.162562 -1.082373
54332 -0.670655 1.396749 0.924458 0.066968 -0.094595 -1.562380 -1.240675 -1.452756 -0.209348 -1.102503
8898 -0.702002 1.348870 0.912779 0.028901 -0.092259 -1.634785 -1.163795 -1.460456 -0.218756 -1.075387
2109 1.790625 0.167581 1.112543 1.844956 0.607933 0.234128 0.119911 -3.790958 -0.699116 -0.632485
57526 -0.076525 1.303248 2.305150 -0.709959 -0.193156 -1.196684 -0.414435 -1.558217 0.200945 1.015092
1082 0.284908 1.602975 0.701169 -0.295267 -1.533057 0.530728 1.053534 -0.357943 -0.864973 -0.968861
3000 2.701232 1.092021 0.918211 0.015339 0.837048 1.544099 0.303856 -2.160754 1.666302 -0.219995
10243 1.324220 2.129689 2.772459 -0.796648 -1.415889 -0.099746 -2.178820 -2.297837 0.648563 2.260773
7412 1.866089 1.504376 -1.190326 0.518545 -0.073275 -0.381987 -0.664554 -1.235891 0.999855 -0.580976
1134 1.264517 1.888170 0.426622 0.909051 1.799142 -0.809527 3.005584 -4.414292 1.031975 -0.910243
79947 2.845207 1.163486 0.536975 -1.066065 0.749523 1.457981 0.737480 -2.104915 0.588504 -0.004858
284111 -0.129323 1.290641 2.290714 -0.803466 -0.273384 -1.122491 -0.488940 -1.597827 0.102819 0.975783
1337 -0.648399 1.432835 0.950411 0.000093 0.086176 -1.532806 -1.252193 -1.339594 -0.095956 -1.031271
221496 1.279749 1.951702 0.697266 -1.002697 0.045655 -1.892762 1.730782 -0.353073 -0.884301 -1.000730
2906 -0.119156 1.341550 2.334976 -0.781037 -0.153044 -1.007591 -0.578967 -1.656804 0.145711 1.061094
4901 2.751243 1.170313 0.456681 -0.942364 0.714558 1.411109 0.748067 -2.106171 0.638070 0.074147
5194 -0.145426 0.780730 3.259508 0.487386 -3.791868 -0.632032 -1.079036 -3.538942 0.728567 -0.771988
23600 -0.255169 3.437495 3.174495 0.986529 2.040030 -0.546013 1.251511 -1.728665 -0.346174 -1.400739
2705 -0.616246 1.312954 0.858241 0.158383 -0.040510 -1.677469 -1.241046 -1.480817 -0.162700 -1.018041
25794 2.804150 1.218209 0.437166 -1.026453 0.823595 1.377790 0.723433 -2.134709 0.634242 0.090554
8820 1.031360 1.455044 -0.390222 -0.228328 -0.679830 -2.715329 1.169241 -1.823763 0.271660 0.606452
631 1.331479 1.845246 0.813183 -1.149049 -0.054245 -1.943596 1.660363 -0.447895 -1.088761 -1.074412
10594 2.928451 1.273734 0.513435 -1.116968 0.840330 1.506720 0.799344 -2.213291 0.644493 -0.029055
929 1.672037 1.365931 -1.560022 -0.532954 -0.200151 -1.313861 -0.716352 -1.764858 0.704856 -1.371473
2110 1.806360 0.127303 1.225969 1.938572 0.601706 0.306817 0.163962 -3.772444 -0.673812 -0.759879
1421 1.187817 1.879209 0.722726 -0.993675 -0.077035 -1.769126 1.711713 -0.394942 -1.004187 -1.117991
6772 3.543818 2.800664 -0.605683 0.690653 0.648841 1.080496 -2.125420 -1.584565 -0.345202 -1.890596
1418 1.332089 1.786597 0.699344 -1.013545 -0.043096 -1.833583 1.598866 -0.310357 -0.980281 -1.193603
1636 1.573675 2.247537 -1.549092 0.040869 -0.426648 -0.349875 -0.020406 -0.575760 0.550260 -1.116003
9516 -0.708457 1.387807 0.793452 0.078114 -0.048476 -1.574838 -1.121182 -1.391405 -0.133069 -1.084297
2215 1.940019 1.490672 -1.219350 0.434418 0.036395 -0.204817 -0.421071 -1.145450 0.976148 -0.719757
2056 1.555018 1.722061 -1.884370 -1.142744 -1.220580 -0.984524 -0.273535 -1.609996 0.980198 -1.432676
3982 1.382898 1.786888 0.785229 -1.032947 0.024496 -1.930573 1.597703 -0.391455 -1.049460 -1.147076
1969 1.322420 1.826848 0.649731 -1.080482 -0.065779 -1.931657 1.680251 -0.438314 -0.977912 -1.026879
5813 -0.998220 2.329695 0.815172 -0.568636 -1.002900 -0.597551 -0.475876 -1.960821 -0.156366 1.014616
8120 -0.215333 1.482055 2.235357 -0.709816 -0.060087 -1.296583 -0.377009 -1.678779 0.196734 1.138091
1788 0.375347 2.809199 -0.388749 -0.817193 -2.957569 -0.278874 0.447904 -0.678630 0.735820 -1.113461
23258 -0.129045 1.320024 2.319242 -0.712440 -0.079508 -1.257857 -0.397519 -1.618949 0.293769 1.061853
1412 1.264370 1.790965 0.725995 -0.904717 -0.019280 -1.812929 1.667647 -0.391122 -0.999023 -1.104695
84140 2.802218 1.225282 0.439722 -1.060337 0.854749 1.422421 0.840981 -2.178055 0.508501 0.009975
55526 -0.606853 1.450677 0.856924 0.066346 -0.056292 -1.771006 -1.215400 -1.344244 -0.234763 -1.272162
23094 1.329914 1.968501 0.760760 -1.042307 0.087721 -1.924070 1.759147 -0.404653 -1.030482 -1.051622
939 1.887621 1.394092 -1.151323 0.349339 0.205182 -0.388669 -0.594470 -1.242577 1.025055 -0.593439
149233 2.445432 0.708561 -1.299764 0.562558 -0.108931 -0.565654 -0.522444 -2.946911 -1.196466 -1.126770
6390 0.406120 2.507582 -0.420782 -0.279802 -0.379046 0.427350 1.015814 -1.027795 -1.520868 -0.608005
6584 2.508827 0.435704 -0.762821 1.088851 0.618345 -0.479984 -0.367005 -3.761844 -1.074533 -0.906332
4868 0.262311 1.052794 -0.459044 0.430591 -2.291249 -1.258300 -1.139286 -2.290714 0.514250 0.088598
7345 2.020121 1.333087 0.199257 -1.248261 -1.259593 -0.853039 -0.862713 -0.662464 -2.115065 -1.494360
1201 0.963154 1.555344 2.521796 -1.867920 0.754294 0.113028 -1.034982 -0.787191 0.389641 -1.740768
5449 1.374819 1.328116 -0.468844 0.298862 -0.648552 -2.889612 0.992527 -1.880665 0.186825 0.487971
1415 1.307406 1.892982 0.742734 -1.137501 0.102690 -1.894648 1.772279 -0.417588 -0.911849 -1.121783
23020 2.749239 1.217271 0.436557 -1.017828 0.652402 1.439694 0.759145 -2.111517 0.646279 0.069187
146862 1.268553 1.835709 0.663100 -1.081981 -0.020432 -1.939868 1.542510 -0.371757 -1.027150 -0.988175
10210 2.837228 1.257852 0.581138 -0.963946 0.802861 1.543597 0.708219 -2.146780 0.616052 0.014936
1417 1.369283 1.842570 0.682996 -1.129294 0.026267 -1.991523 1.564617 -0.354373 -0.838766 -1.161204
346007 2.748738 1.228873 0.554879 -0.971709 0.743529 1.570090 0.626686 -2.141469 0.574798 -0.051938
10516 0.918275 0.538278 -0.472786 0.279248 0.118608 0.850193 -0.837952 -2.571486 0.325959 0.145869
3299 1.419181 1.779458 0.812661 -1.105491 -0.096298 -1.841470 1.741786 -0.465100 -1.097567 -1.161096
6709 -0.128828 1.274351 2.230089 -0.727135 -0.208518 -1.220072 -0.329934 -1.624623 0.250604 1.105675
1419 1.382935 1.797477 0.714127 -1.121690 -0.019871 -1.874295 1.580845 -0.304447 -0.839198 -1.202420
85440 -0.131361 1.353494 2.179931 -0.699043 -0.190271 -1.215863 -0.361951 -1.565497 0.119098 1.093652
4047 1.391520 1.854606 0.661589 -1.080536 0.027132 -1.960948 1.582213 -0.496083 -1.132492 -1.009890
762 2.898903 1.208831 0.574865 -0.987603 0.844323 1.471977 0.722719 -2.081763 0.601059 -0.086569
5148 2.860852 1.187180 0.374153 -0.980402 0.838392 1.476480 0.651574 -2.270379 0.697389 -0.015013
9897 -1.031848 2.713761 2.834879 0.754652 1.084623 -0.219107 -0.195719 -2.171920 -0.964976 -1.550109
7042 1.124391 2.084777 -1.531934 0.186219 -0.505668 -0.513180 -0.258085 -0.755077 0.077668 -0.877812
3745 -0.113321 1.362058 2.364935 -0.734269 -0.142694 -1.237571 -0.528662 -1.574187 0.072141 1.051509
5995 2.860330 1.196460 0.572589 -0.992430 0.743209 1.518515 0.799568 -2.105655 0.707726 -0.065505
81857 -0.686502 1.283184 0.822474 0.066849 -0.197356 -1.473806 -1.342806 -1.475168 -0.034523 -1.004356
1406 2.752647 1.033888 0.980370 -0.139813 0.793745 1.501557 0.301075 -2.156423 1.729103 -0.190121
2700 1.322150 2.073236 0.734194 -0.952588 -0.005837 -2.068294 1.790690 -0.376504 -0.927805 -1.014417
79443 1.350082 1.898637 0.752071 -1.037832 -0.020169 -1.898032 1.573474 -0.436346 -1.149669 -1.162982
84823 0.316832 1.618553 1.781779 -1.002823 0.213192 0.031877 -0.547967 0.084489 -0.011726 -1.499150
55975 2.761830 1.215181 0.498616 -1.035167 0.782331 1.536529 0.684544 -2.231568 0.534311 -0.001478
1427 1.248615 1.846468 0.737826 -1.181765 -0.081407 -1.965174 1.565811 -0.410157 -0.995952 -1.046439
2492 0.616119 0.621624 1.248418 1.265465 -1.800193 -2.471147 1.226654 -2.616926 0.010896 0.266155
26121 2.796194 1.149734 0.432264 -0.914476 0.791126 1.460966 0.672180 -2.162409 0.630787 0.021283
4284 1.357958 1.857063 0.630939 -0.993414 -0.011246 -1.952652 1.669081 -0.375817 -0.974020 -1.051069
6334 -0.079011 1.292957 2.309827 -0.868798 -0.175005 -1.119496 -0.459010 -1.677837 0.159853 1.026884
23424 1.361488 1.818087 0.816537 -1.034142 -0.135421 -1.906072 1.794003 -0.276316 -0.875328 -1.185906
6102 2.718911 1.166156 0.533775 -1.014130 0.765865 1.483413 0.769966 -2.241860 0.615999 0.054198
5145 2.818074 1.144645 0.426646 -1.049461 0.733578 1.453346 0.677818 -2.234765 0.526295 -0.042285
64801 -0.130265 1.384731 2.304305 -0.807678 -0.265532 -1.187816 -0.429665 -1.570688 0.133828 1.088376
256471 0.960748 1.571638 2.485284 -2.015444 0.599849 0.179351 -1.021853 -0.826199 0.380318 -1.762323
7038 -0.049364 3.297743 0.165073 0.854730 -1.223067 -0.644568 0.001865 -0.193108 -0.789198 -0.207037
1509 0.922176 1.625537 2.445608 -1.881241 0.790518 0.198840 -1.133211 -0.981866 0.601134 -1.902985
1759 -0.156055 1.225634 2.288141 -0.663093 -0.180314 -1.126831 -0.332715 -1.760884 0.046275 1.050745
128866 1.516509 1.785986 0.726682 -1.070551 -0.028738 -1.939922 1.576283 -0.299379 -0.938071 -1.005685
126792 1.539144 2.892610 -0.056349 -0.572334 -0.588720 0.868358 -2.871530 -1.658284 1.165615 -0.306702
1378 1.902707 1.500430 -1.283056 0.393712 -0.003604 -0.219541 -0.481510 -1.162335 0.942496 -0.714080
5428 3.171027 1.087710 1.776135 -1.906778 -0.642329 -1.138829 2.028057 -0.520987 -0.219511 -2.170444
9210 0.725391 0.459001 1.196498 1.135383 -1.751984 -2.386511 1.104319 -2.330664 -0.079040 0.151935
4072 -1.365345 2.503877 0.687683 0.082572 -2.294812 1.197317 0.736400 -2.459555 0.375599 -1.540413
6023 1.470193 2.179096 0.999335 1.567914 -3.046609 -0.671554 -0.288371 0.163429 0.305946 -1.058751
2055 1.036267 1.530557 2.444722 -1.908325 0.751488 0.169417 -1.116941 -0.898275 0.262128 -1.786701
388939 2.770100 1.185160 0.464839 -0.957861 0.813534 1.413239 0.567838 -2.160980 0.569857 0.019743
9129 2.760791 1.269098 0.649661 -1.010545 0.791599 1.537206 0.703162 -2.011434 0.499124 -0.016914
57502 1.432068 0.140182 2.134073 0.178743 -1.333006 -2.768701 -0.479116 -2.558905 -0.059709 0.600570
51204 0.515332 0.302021 1.689583 0.173940 -0.824866 -0.754244 -1.797393 -2.135815 0.973052 -2.707771
116519 0.794062 1.604853 2.188286 -0.114939 -0.683983 -2.895076 0.533517 -1.199807 2.912998 -2.159959
4810 1.382250 1.918320 0.750841 -0.914844 -0.072563 -1.929204 1.697820 -0.309185 -0.989426 -1.156813
4537 1.457442 0.241520 2.265242 0.382497 0.017744 -0.047025 -1.127367 -1.510286 0.901570 -2.524464
1203 0.875831 1.717621 2.439520 -2.002845 0.918315 0.205323 -0.986508 -0.993790 0.390970 -1.897856
6101 2.839037 1.208968 0.497108 -1.022677 0.747531 1.437599 0.702613 -2.123597 0.664631 -0.066933
1144 1.272456 1.802210 0.454548 0.812480 1.690022 -0.716465 2.989764 -4.303072 1.027544 -0.899412
6597 -0.925259 2.525109 0.539880 -0.445780 -1.060745 -0.813418 -0.537720 -2.067518 -0.764535 0.946314
3651 2.379712 1.129048 0.424122 2.622484 -1.493271 -0.561457 0.595584 -1.112882 0.080942 -0.817126
1259 2.804832 1.122759 0.550067 -0.970031 0.640937 1.529100 0.812568 -2.068354 0.600995 -0.077537
3897 -0.598015 2.663410 2.628902 0.483172 1.624735 -0.242086 -0.634876 -2.055722 -1.179089 -0.886148
65125 -0.662959 2.519373 1.798414 1.610292 -0.693368 -0.497826 -0.870848 -1.962365 -1.777086 -0.027837
3552 1.545947 1.823714 -1.210166 0.716000 -0.253029 -0.978469 -0.869410 -0.871840 0.361738 -1.137399
1352 0.502775 0.456036 1.694719 0.044672 -0.811347 -0.768433 -1.782234 -2.075685 0.983587 -2.817814
3105 3.507411 0.529095 -0.424462 -0.818217 -0.907267 -1.012457 -1.415439 -2.382249 -1.440657 -0.948092
6100 3.013420 1.176618 0.566411 -1.057564 0.841819 1.437717 0.751764 -2.177268 0.522574 -0.074171
286262 1.348256 3.557154 0.949691 -0.708412 -0.856103 -1.388395 -0.637194 0.466328 -0.320109 0.277851
6657 0.268439 2.155010 -0.164500 -1.480199 -0.812649 -1.905080 2.009019 -1.637750 0.467787 0.013657
64241 0.695722 3.868945 0.262584 0.006601 0.110275 -0.301088 0.005166 0.380194 1.333350 -1.692703
81704 -1.105445 2.524459 0.858831 -0.516546 -1.106079 -0.798963 -0.371339 -2.110867 -0.765998 0.819367
25977 -0.131692 1.328809 2.399428 -0.819810 -0.160375 -1.169939 -0.531945 -1.582708 0.124975 0.958363
3420 2.796663 1.240428 0.420359 -0.991899 0.709210 1.535057 0.807475 -2.139857 0.508799 0.022889
6506 -0.109683 1.385090 2.359578 -0.771046 -0.188309 -1.271263 -0.614975 -1.590607 0.131632 0.985214
5350 1.523177 1.209677 0.357500 0.728168 0.154099 -1.561394 -1.038592 -0.289745 0.257742 -1.176436
10664 -1.088583 2.587060 0.721063 -0.496239 -0.958078 -0.743729 -0.572341 -2.081974 -0.498024 0.802561
2934 0.562812 2.022416 0.284837 -0.411743 -0.770508 0.931117 1.184398 -0.635515 -1.292905 -0.668484
186 1.410501 0.231155 2.165673 0.128886 -1.322038 -2.792965 -0.448785 -2.640667 -0.267175 0.602901
5154 1.101385 1.463054 -0.346121 0.181123 -1.963929 -0.660258 0.608183 -1.001757 -0.785537 0.604423
22930 0.349258 1.103334 0.891706 -0.824274 1.308029 -1.657290 0.852435 -2.004668 -0.893684 -1.663878
5626 1.291384 1.286816 -0.466042 0.061049 -0.578810 -2.668686 1.115232 -2.022695 0.098290 0.533371
55997 1.431190 3.137246 2.193332 2.259474 -1.175055 -1.852355 0.452094 -0.452432 1.295789 0.855424
5269 1.366129 3.505193 0.787081 -0.653274 -0.871265 -1.324500 -0.488927 0.473851 -0.332955 0.225364
7827 0.349779 0.943311 -0.408417 0.417757 -2.150508 -1.533989 -1.307694 -2.339887 0.591948 0.198004
10087 -1.067277 2.513906 0.786362 -0.376394 -1.067003 -0.710971 -0.454262 -2.210242 -0.633794 0.942580
6774 0.810448 1.907319 0.295573 1.185281 -2.026935 -0.300230 0.360996 -0.067226 0.215071 -0.390520
1815 0.996225 4.209380 -0.516372 -0.149024 1.790235 0.177212 1.171718 -2.037626 -0.359435 0.313193
9381 1.494093 3.622952 0.929951 -0.649053 -0.825343 -1.279581 -0.706349 0.456619 -0.376996 0.327543
2103 1.407482 3.574120 0.843981 -0.560667 -0.840966 -1.502652 -0.548972 0.438016 -0.416035 0.207444
9657 2.195909 1.848103 0.222266 0.728969 0.312041 0.256629 1.570224 -0.890364 1.995831 -0.484152
54982 0.987261 1.612004 2.403740 -1.976678 0.835484 0.157034 -1.057873 -0.956413 0.491594 -1.890975
775 1.443783 1.939058 0.586759 1.470131 0.998137 -1.752986 -0.499545 -1.249571 -1.088492 0.227621
1409 1.382709 1.961406 0.719099 -0.895134 0.110542 -2.004591 1.725533 -0.442847 -0.925656 -1.082611
53904 1.509083 3.675699 0.865957 -0.856855 -0.816041 -1.283357 -0.527866 0.486180 -0.344087 0.322625
161497 1.582494 3.617348 0.900155 -0.697442 -0.819353 -1.305469 -0.550481 0.512914 -0.307106 0.302657
259236 1.500749 3.610306 0.814380 -0.788647 -0.701835 -1.145705 -0.568272 0.464102 -0.330986 0.385728
55636 0.947018 2.437508 -0.132527 1.598652 -0.272923 -1.846853 1.885045 -2.704603 0.828305 1.083262
27286 0.490450 1.341882 1.001295 -1.036214 1.491522 -1.743027 1.155875 -1.919695 -0.868620 -1.793046
6197 1.509793 0.142533 2.275836 0.149168 -1.213685 -2.867541 -0.427127 -2.676548 -0.144182 0.591600
2652 1.451363 0.667932 4.800422 0.778417 -0.089205 1.078946 0.978971 -3.322108 1.304262 -0.307306
2034 0.231711 2.628691 -0.315854 -0.470821 -0.524889 0.453130 1.079824 -1.285051 -1.808215 -1.245294
7102 1.516962 0.152158 2.180487 0.081154 -1.113664 -2.819349 -0.424348 -2.633917 0.013368 0.557997
2811 1.449164 3.908362 -0.084398 0.117234 -0.587765 0.119786 0.034883 0.515356 1.192597 -1.434493
389856 1.502226 0.225899 2.388656 0.218442 -1.236182 -2.832992 -0.414016 -2.581341 -0.155527 0.645257
2664 1.393418 0.191311 2.331395 0.277402 -1.155305 -2.953620 -0.432758 -2.566138 -0.096323 0.540945
389207 1.413455 3.488894 0.792752 -0.589247 -0.698089 -1.277583 -0.556410 0.473233 -0.281030 0.384518
55690 -1.141051 2.580112 0.879353 -0.626894 -0.994592 -0.715769 -0.494835 -1.988353 -0.604504 0.713008
374462 1.570260 3.600068 0.895499 -0.661652 -0.785415 -1.219691 -0.487747 0.534847 -0.493206 0.202005
125336 1.389447 3.472343 0.814933 -0.752920 -0.832035 -1.406507 -0.550874 0.407478 -0.489734 0.264814
1258 2.818658 1.268500 0.437852 -0.991181 0.666655 1.671809 0.789455 -2.202394 0.572166 -0.024139
84061 1.474716 0.182736 2.209361 0.107424 -1.318282 -2.777966 -0.404366 -2.528923 -0.195233 0.659293
57492 -0.936793 2.652627 0.630309 -0.387684 -1.010551 -0.833435 -0.390283 -2.016343 -0.707137 0.971337
5311 1.521616 3.012704 3.731267 -0.245400 0.191148 2.902760 0.972599 -1.268569 0.157556 -1.683166
84627 1.475109 2.867970 -0.238556 -0.560277 -0.605780 0.684610 -2.806322 -1.711457 1.204753 -0.262216
768206 2.820669 1.173133 0.515689 -0.984893 0.751144 1.378879 0.714804 -2.124427 0.650150 0.004353
2703 1.334926 1.657829 0.710438 -1.131155 0.028615 -2.070667 1.681414 -0.512210 -0.978248 -1.195833
5828 -0.118373 0.762305 3.141478 0.470925 -3.717331 -0.619624 -1.073326 -3.443718 0.750848 -0.783964
80270 -0.510036 4.144029 2.425630 0.541634 1.620943 -0.403444 0.600427 -0.462642 0.084334 -1.713131
282996 1.442928 1.134328 0.427831 0.844835 0.065584 -1.535510 -0.907505 -0.321596 0.151031 -1.327022
130557 2.804547 1.181930 0.519021 -0.940348 0.852448 1.409195 0.756625 -2.150256 0.689056 -0.019411
5096 1.852285 0.271703 0.957562 1.965131 0.548176 0.208566 0.160204 -3.662686 -0.892950 -0.705903
26040 -0.990212 2.494440 0.734136 -0.509175 -1.011729 -0.769476 -0.461620 -1.996167 -0.691651 0.905896
26123 2.490406 1.974310 0.457754 0.070991 1.001613 -0.695830 0.595160 -1.221323 2.612014 0.068130
5538 0.947136 1.588287 2.539864 -1.870759 0.949183 0.212040 -1.021700 -0.998666 0.419632 -1.724374
23096 1.601017 0.080275 2.275738 0.052962 -1.374683 -2.868556 -0.463299 -2.604058 -0.105621 0.587481
220074 1.355351 3.552767 0.904715 -0.743728 -0.863771 -1.455250 -0.583263 0.480672 -0.340929 0.299385
919 2.292744 1.365348 -0.595602 0.875163 -0.680520 -0.911343 -0.781861 -0.735012 0.968667 -2.119091
2902 -1.107278 2.401992 0.861075 -0.501611 -1.106540 -0.701371 -0.521503 -2.200337 -0.595466 0.864474
89884 1.269719 1.403547 -0.432377 0.118738 -0.453044 -2.787973 1.195473 -1.885634 0.157625 0.470647
1763 3.048411 1.079754 1.426036 -1.578336 -1.575911 -0.331236 2.318666 -0.542088 0.054276 -2.354764
2036 -1.179542 2.514318 0.858960 -0.541849 -1.125708 -0.643678 -0.440312 -2.130199 -0.610440 0.793224
23345 0.464021 1.282407 2.019888 -1.297469 1.341638 -1.224352 -0.844316 -1.156131 -0.131468 -0.702853
261734 2.208823 1.840941 0.265415 0.667970 0.306520 0.195561 1.608704 -0.858125 1.971492 -0.509744
494513 1.527961 3.590309 0.822864 -0.584515 -0.767038 -1.384599 -0.777427 0.495673 -0.284756 0.302419
7112 1.612557 1.096086 0.433546 0.831469 0.221463 -1.468870 -1.150709 -0.375020 0.067460 -1.225003
5095 1.773485 0.180829 1.069369 1.956385 0.467120 0.203876 0.120689 -3.668086 -0.700500 -0.838904
440193 0.218169 2.684185 2.162286 -0.219068 2.061214 -1.387093 -1.269760 -1.832099 -0.690920 0.076398
9459 1.398724 0.169550 2.313800 0.275891 -1.194955 -2.914974 -0.393558 -2.636982 -0.057686 0.560148
1535 3.412282 3.060736 4.278000 -0.903962 0.536977 -0.185975 0.807767 0.514952 0.489164 -1.181417
153562 1.386335 3.735907 0.742145 -0.674139 -0.738551 -1.357420 -0.655364 0.466414 -0.282174 0.248308
3028 1.491617 0.148208 2.313626 0.261130 -1.226727 -2.880276 -0.554764 -2.679178 -0.166970 0.521003
2132 3.185805 2.486785 2.415095 -0.391241 0.068595 -1.217547 -1.324894 -0.730215 2.961920 0.772308
653361 3.327075 2.989259 4.211950 -0.862607 0.482208 -0.188936 0.822524 0.517414 0.490853 -1.172230
9533 -0.654642 1.970162 3.624589 0.664356 0.136585 0.782153 0.189000 -2.309590 -1.067819 -2.396624
10771 -1.073687 2.445616 0.760125 -0.393349 -1.215751 -0.736634 -0.405778 -2.050661 -0.618119 0.841225
24140 1.409845 0.172943 2.226961 0.094584 -1.230775 -2.909826 -0.481514 -2.608090 -0.089087 0.465274
5956 1.402052 0.644122 4.759851 0.743945 -0.083048 1.047858 0.945497 -3.211826 1.262365 -0.330321
222662 1.223648 3.540223 0.797894 -0.644318 -0.963543 -1.358327 -0.689852 0.454068 -0.296228 0.182669
6016 -0.669545 3.091558 -0.053123 0.658783 -1.648212 -0.627621 0.947613 -0.910993 -0.307872 -1.489577
54903 2.691575 1.437035 1.109658 0.506579 1.568205 0.119609 0.755193 -0.953466 1.534951 -0.862419
8291 1.447202 1.423331 0.937313 1.076366 1.234725 -1.165203 -0.374035 -0.652963 -0.251600 -1.895439
91624 1.579411 1.125027 0.479368 0.806944 0.137735 -1.515682 -1.153642 -0.313670 0.079206 -1.263623
1804 -0.601593 2.558209 0.476121 0.064757 -0.525035 -1.110161 -0.728925 -1.852074 -0.998823 1.039871
6891 3.977087 1.493109 -0.403085 -0.678286 -1.466561 -0.548546 -0.933263 -0.955549 1.765976 -0.833378
146183 1.291812 3.501593 0.935628 -0.523691 -0.756559 -1.231066 -0.711987 0.445024 -0.237744 0.351512
253827 1.593513 3.618295 0.896555 -0.786354 -0.844463 -1.433753 -0.664820 0.476719 -0.353129 0.347914
6708 1.150122 1.798561 -0.465495 -3.870093 -0.374750 -1.549548 1.008053 -3.281841 0.158296 -1.323742
11141 1.519879 0.122944 2.248492 0.037585 -1.293247 -2.754907 -0.420523 -2.525591 0.086174 0.559268
112476 2.247496 1.271014 1.734236 0.718325 -0.557969 0.088542 -1.123788 -1.386758 -2.663821 -2.157261
4558 0.996259 1.334583 2.374441 -1.786065 0.543094 0.133270 -1.074484 -0.820372 0.240924 -2.071816
5660 1.287090 1.928996 1.565186 -3.099611 -0.315518 0.372956 -0.314549 -0.917158 -0.323684 -2.857483
51422 1.451300 1.335200 1.954610 1.287423 -0.386551 -0.948848 -0.140068 0.335154 -0.738275 -0.893130
80311 1.492330 0.147435 2.294578 0.099677 -1.298974 -2.757714 -0.409294 -2.467031 -0.102568 0.587381
30062 0.144853 2.517890 -0.138132 -1.713111 -0.818959 -1.723505 2.069116 -1.543862 0.364931 -0.184599
7450 1.303725 3.819519 -0.084261 -0.007567 -0.595341 0.134928 -0.041949 0.543915 1.223095 -1.568927
10667 2.510287 0.581155 2.929177 0.678768 1.256158 -0.408094 -1.980316 -3.048026 0.241031 -0.146135
55800 1.736342 2.185708 0.677280 1.290598 1.035216 -2.094809 -0.704494 -1.154993 -0.836767 0.378884
2182 1.579710 0.145437 2.313952 0.148625 -1.300691 -2.839010 -0.499716 -2.555126 -0.141017 0.541366
220 0.308043 2.455262 -0.264823 -1.683121 -0.658660 -1.620156 2.119413 -1.579546 0.415208 -0.196020
2626 1.414621 2.096826 1.102277 1.252897 -1.176312 -2.372993 -0.534369 0.149069 0.471868 -0.185929
26022 0.152572 2.551677 -0.122040 -1.710114 -0.903496 -1.667896 2.196221 -1.502587 0.386368 -0.244665
4261 4.015206 1.517648 -0.449843 -0.486402 -1.598259 -0.437054 -0.897314 -1.076009 1.904429 -1.011179
5255 1.498848 2.051438 2.751388 1.123337 -0.621648 -0.321473 0.887272 -0.075203 -1.651873 -0.585980
646960 0.237170 2.342050 -0.212653 -1.745857 -0.618832 -1.622437 2.113016 -1.646669 0.438831 -0.304304
3798 -0.976879 2.698728 2.807723 0.931016 0.756818 -0.033795 -0.211743 -2.182446 -1.134948 -1.468649
123606 -1.046145 2.717244 2.896260 0.839224 0.774965 -0.080583 -0.251553 -2.337623 -1.174583 -1.551598
3054 1.486910 0.087396 2.334880 0.208932 -1.253323 -2.745059 -0.383707 -2.518195 -0.057046 0.601261
10084 1.444392 0.108783 2.312213 0.173297 -1.142311 -2.769135 -0.443161 -2.720376 -0.125449 0.595884
23562 1.442409 3.683534 0.929262 -0.647466 -0.779182 -1.197516 -0.442073 0.519779 -0.412830 0.310307
5518 -0.975507 2.454311 0.701292 -0.304834 -1.058799 -0.847512 -0.386142 -2.049029 -0.569721 0.955447
3949 0.465323 1.657472 2.444727 -0.323853 -1.007544 -2.735714 0.920418 -1.432634 3.033536 -2.033926
2120 0.500593 1.012754 0.060925 0.836102 -2.064777 -0.235352 1.224618 -1.120705 -0.232030 -0.624764
54880 0.041219 2.538124 -0.126171 -1.678802 -0.842735 -1.580111 2.232934 -1.619138 0.355409 -0.407169
84623 -1.071137 2.666810 0.761624 -0.401844 -1.106522 -0.853292 -0.581858 -2.197776 -0.517773 0.801275
83715 1.335308 3.575474 0.811128 -0.581914 -0.773664 -1.292472 -0.700869 0.451362 -0.294465 0.262761
50484 3.160127 1.064479 1.785205 -1.772451 -0.623742 -1.046989 2.065680 -0.463864 -0.329296 -2.232277
6440 -0.355393 3.159261 -1.421778 -1.536511 -1.166436 0.627077 0.292917 -3.122974 -0.699048 -1.033224
27089 1.573461 0.528144 2.165959 0.410729 -0.416527 0.078020 -1.283434 -1.321402 0.976387 -2.876047
23040 -0.889006 2.475994 0.694040 -0.408868 -0.984848 -0.797659 -0.506453 -2.064857 -0.787890 0.918880
6710 1.142429 1.874488 -0.474221 -3.789033 -0.371536 -1.598573 1.099968 -3.307704 0.257150 -1.282979
7084 3.216004 1.066835 1.739126 -1.841730 -0.565671 -1.100388 2.028451 -0.499000 -0.281330 -2.094362
203859 1.510048 1.420079 0.910770 1.158754 1.345528 -1.002167 -0.317990 -0.792950 -0.232421 -1.995962
7204 -1.115550 2.612389 0.684805 -0.385937 -1.087151 -0.911863 -0.599705 -2.134221 -0.485885 0.813388
5149 2.992923 0.900891 1.214420 0.138958 0.643085 1.712150 -0.250912 -2.140258 1.746657 -0.568602
1183 1.506897 0.121603 2.085997 0.137502 -1.230437 -2.876575 -0.457942 -2.622779 -0.177834 0.557114
5528 -0.962298 2.355824 0.712319 -0.551892 -1.165086 -0.893375 -0.383321 -2.097468 -0.651989 0.874333
285489 1.199282 1.856318 0.397260 0.895034 1.714261 -0.708032 2.873860 -4.247444 0.996028 -0.861685
5837 1.399768 2.031301 2.776644 1.077824 -0.654949 -0.336106 0.879688 -0.245092 -1.703979 -0.357099
867 -0.590104 3.240072 -0.101188 0.658907 -1.719206 -0.744777 1.036540 -0.924645 -0.523552 -1.615966
118813 -1.027890 2.553429 2.709221 0.762543 0.859699 -0.135672 -0.242101 -2.216483 -1.182817 -1.497415
3097 -1.087478 2.501631 0.769639 -0.514764 -0.996349 -0.849909 -0.453704 -2.127174 -0.671926 0.868384
5962 1.490662 3.583174 0.902377 -0.525916 -0.983393 -1.246405 -0.566252 0.537548 -0.273135 0.370374
2027 1.501975 2.179090 2.956432 1.144349 -0.650616 -0.206387 0.927861 -0.176657 -1.767080 -0.502291
88 1.576768 1.228488 0.451864 0.805062 0.224651 -1.465015 -1.031887 -0.191828 0.174029 -1.163507
64131 3.666030 0.691065 1.891728 0.730026 -1.001519 -0.642455 3.081336 -1.893932 -0.561197 -0.132466
9499 1.675342 1.513630 0.766911 0.769234 1.234201 -1.318674 0.196965 -0.422247 -0.404220 -2.101606
5913 1.258914 1.765069 0.482186 0.905120 1.679159 -0.786135 2.908514 -4.262305 0.963724 -0.842272
55777 -0.942065 2.353645 0.780967 -0.539363 -1.223660 -0.742864 -0.395094 -2.051676 -0.733424 0.917366
10102 2.458313 0.683357 2.880026 0.574657 1.272804 -0.441703 -2.025126 -2.969771 0.362305 -0.047483
5310 1.492375 2.981350 3.659144 -0.250330 0.246217 2.884740 0.910406 -1.313382 0.112240 -1.598101
11113 2.749431 0.951636 1.684684 0.037242 -2.496742 0.169185 1.785810 -0.813871 1.511878 -2.832513
7994 -1.029432 2.431063 0.723924 -0.488393 -1.068125 -0.649371 -0.402747 -1.992729 -0.603501 0.815591
29899 1.420884 3.623211 0.749261 -0.671634 -0.776293 -1.271183 -0.666157 0.439424 -0.236421 0.317803
6674 -0.521828 3.661941 0.623457 -0.748138 0.649031 0.588141 -0.350295 -2.694333 2.702305 -0.565865
11280 -0.827444 2.693378 1.829036 1.145058 -0.849984 -0.873387 -0.947472 -1.456784 -1.623426 -0.268376
9622 1.602938 -0.265511 0.400283 -1.194701 -1.784593 -0.604969 1.447614 -3.686853 0.563818 -2.890321
51168 1.479875 3.569109 0.755911 -0.716153 -0.722206 -1.285523 -0.672955 0.450824 -0.452688 0.211517
650 2.185202 4.799550 1.956485 1.031624 0.087844 0.037069 1.016366 0.105711 0.983080 0.915193
6654 -0.595119 2.897336 0.081306 0.609399 -1.641745 -0.562670 0.918718 -0.754772 -0.411200 -1.587321
857 -2.011726 3.661171 2.049888 0.481114 -0.278899 0.644781 -0.376443 -2.201461 0.397588 -1.450525
8910 2.172610 1.280651 1.623743 0.618535 -0.661121 0.118174 -1.082187 -1.373023 -2.665490 -2.103112
27245 -1.035316 2.524929 0.701775 -0.601588 -1.057291 -0.738261 -0.527966 -2.007885 -0.620133 0.842086
1013 -1.018074 2.431530 0.791222 -0.400248 -1.019135 -0.734643 -0.377837 -2.166880 -0.614175 0.968943
4308 2.717533 0.520744 1.861868 -0.775351 -0.482697 2.428724 0.597939 -2.708629 0.509614 -0.126122
1536 3.327210 2.999200 4.123519 -0.920433 0.513312 -0.183445 0.783543 0.495993 0.498458 -1.173525
2782 -0.970828 2.595964 0.692980 -0.631480 -1.052968 -0.682656 -0.612262 -2.005251 -0.536874 0.915642
374654 2.432442 1.891884 0.528490 0.122663 0.911427 -0.671764 0.658968 -1.203034 2.627308 -0.105234
1741 1.490556 0.061300 2.348521 0.348244 -1.065209 -2.827572 -0.421753 -2.689033 -0.077193 0.460233
790955 1.586586 0.568284 2.062586 0.164581 -0.373467 0.018441 -1.363609 -1.196214 0.991606 -2.826102
5063 1.510098 0.142132 2.211813 0.308104 -1.234018 -2.778808 -0.507899 -2.482471 -0.111445 0.561589
5091 1.845124 0.239140 1.036999 1.908774 0.627867 0.190202 0.115332 -3.647681 -0.780568 -0.689320
5139 2.226948 4.806119 1.991655 1.208181 0.065139 -0.083283 1.056387 0.142628 0.986721 0.876714
6335 -0.327275 2.591503 1.723637 1.115384 -0.121983 -1.140247 -0.901241 -1.110139 -1.470755 0.261216
8036 -0.581089 2.979641 0.093744 0.599380 -1.593373 -0.438880 1.078421 -0.871375 -0.458332 -1.598982
1594 1.322385 1.586624 -0.759909 1.708095 -1.001011 -0.572057 -1.454755 -1.324785 0.416439 -1.156658
51364 -0.517301 3.577667 0.615297 -0.761183 0.665376 0.591390 -0.357049 -2.668281 2.724635 -0.503687
283489 -0.936667 2.431587 0.729165 -0.507300 -1.103933 -0.736937 -0.429243 -1.968049 -0.658343 0.960362
2673 1.255636 1.827638 0.393120 0.892154 1.677270 -0.745562 2.901830 -4.234308 1.005325 -0.823327
55209 -1.079647 2.553697 0.720302 -0.368037 -1.114718 -0.809857 -0.487388 -2.076571 -0.631676 0.803370
2815 1.215756 3.803878 -0.020989 -0.215864 -0.431991 -0.472220 -0.083645 0.470350 1.421233 -1.601114
57459 -1.099951 2.565799 0.726059 -0.528165 -1.087824 -0.870207 -0.547193 -2.034830 -0.510792 0.856361
338917 0.214533 2.541554 -0.170827 -1.598705 -0.846630 -1.780047 2.130529 -1.495416 0.306169 -0.282962
10369 -0.990372 2.491089 0.775391 -0.408424 -1.005348 -0.781163 -0.522068 -1.968222 -0.532040 0.852764
3796 1.979255 1.065940 4.858872 0.172071 -2.536075 0.187078 -0.432667 -1.239651 0.439896 -0.400337
11078 1.504366 3.678186 0.990281 -0.703647 -0.822429 -1.267440 -0.623412 0.497392 -0.426771 0.353246
152816 1.610246 -0.237206 0.415465 -1.226941 -1.737193 -0.614025 1.513782 -3.673888 0.537726 -2.886681
1861 2.135634 1.375799 1.575722 0.716755 -0.587730 0.178174 -1.014685 -1.425804 -2.817467 -2.141557
256764 1.616944 -0.303376 0.415305 -1.253856 -1.784919 -0.615695 1.473936 -3.689772 0.491005 -2.896096
2073 0.997289 2.032142 0.783546 1.822915 0.812663 1.331375 -1.153336 -3.878066 2.107360 -0.461471
2071 1.005209 1.994033 0.759228 1.758623 0.756105 1.347362 -1.189858 -3.858874 2.120342 -0.450172
24137 1.209544 0.701830 1.754123 -0.938088 -1.423090 -2.154855 1.755486 -2.193201 0.199922 1.070996
7592 1.448106 0.219150 2.289665 0.190625 -1.207890 -2.898120 -0.452015 -2.510753 -0.051760 0.557249
10586 0.268984 2.392533 -0.089310 -1.698132 -0.760810 -1.595825 2.166517 -1.489460 0.402477 -0.328487
25978 -0.138211 0.697682 0.618186 -0.746624 0.428436 -1.560938 -0.573883 -2.336396 -1.211423 -1.567461
9215 1.370992 2.027646 0.957325 1.091093 0.937487 -0.646260 -0.871483 -0.674431 -1.265471 -2.347669
10165 -0.655447 0.896365 1.497086 -2.363773 -2.965832 -0.330290 0.263509 -4.040174 0.160074 -1.920266
9197 -0.936957 2.661485 2.798849 0.851227 0.970850 -0.102081 -0.159304 -2.285871 -1.087061 -1.482330
8600 0.244972 2.868999 -0.171715 0.594502 -2.108108 1.232369 -1.097009 -1.137767 -0.625099 -1.047357
55036 -0.486081 3.622751 0.601673 -0.784857 0.701047 0.623480 -0.351016 -2.683966 2.726936 -0.551877
155382 1.689356 1.889260 1.144930 -1.298537 0.193298 1.428074 -1.589833 -3.078362 -1.869564 0.557802
80208 -1.053663 2.713368 2.800360 0.807834 0.774411 -0.081497 -0.216579 -2.170237 -1.109067 -1.514594
3078 1.580886 0.650818 -0.626570 0.469156 -0.526514 0.930616 -0.655499 -2.418434 1.200603 0.071147
5191 -0.194646 0.650187 3.135873 0.530396 -3.640960 -0.586725 -1.046193 -3.419821 0.751183 -0.785834
5950 0.117907 2.591264 -0.243943 -1.698599 -0.913149 -1.693840 2.102297 -1.635359 0.330272 -0.256933
93650 1.633838 -0.239325 0.445703 -1.208084 -1.767743 -0.615121 1.553771 -3.686052 0.519020 -2.903976
8831 -1.127451 2.626197 0.641152 -0.467738 -1.253947 -0.893173 -0.550708 -2.129940 -0.501819 0.792633
11023 0.224981 2.534735 -0.139206 -1.681769 -0.761300 -1.554828 2.212629 -1.460683 0.467616 -0.229113
161582 -0.500512 3.597326 0.660652 -0.758869 0.677662 0.585133 -0.378047 -2.704893 2.742686 -0.555233
8292 1.250405 1.829936 0.416399 0.903313 1.711869 -0.757515 2.916347 -4.270278 1.015688 -0.824501
6804 1.765547 2.019636 1.190387 -1.442124 0.147890 1.461701 -1.587608 -2.972919 -1.798124 0.587911
163786 2.705858 1.018002 1.696300 -0.072226 -2.386678 0.089658 1.795951 -0.842220 1.456610 -2.767123
7299 2.644392 3.609178 0.911290 -0.751349 -0.251600 2.935328 -0.474163 -0.780828 0.631731 -2.636716
8575 2.068822 1.327904 1.753281 0.728009 -0.682945 0.214001 -1.021488 -1.388064 -2.759740 -2.161860
5824 -0.160367 0.714981 3.138687 0.475413 -3.629164 -0.593016 -1.066108 -3.446154 0.733027 -0.794292
545 2.238976 1.134766 0.563766 -0.925319 -2.026649 0.125134 2.555384 -0.901336 -0.338909 -1.777230
226 1.476183 2.035025 2.743229 0.970342 -0.675310 -0.209504 0.936503 -0.116987 -1.597319 -0.350478
7280 2.015183 0.996710 4.734426 0.083043 -2.507603 0.204006 -0.510375 -1.173295 0.403082 -0.351442
10075 1.126801 0.780453 1.845274 -0.934143 -1.453832 -2.094495 1.853003 -2.142155 0.257035 1.133890
7508 1.045656 1.986795 0.725370 1.755100 0.732742 1.410641 -1.181945 -3.801576 2.072203 -0.528673
7849 -0.046115 2.410415 -0.190834 1.088212 -1.061087 -1.165092 0.419400 -0.434027 -0.427122 -0.390452
259266 2.741392 1.020296 1.635863 -0.108643 -2.383944 0.095711 1.818997 -0.802083 1.481568 -2.788136
5859 2.722545 1.016334 1.632314 -0.131361 -2.376580 0.162887 1.891684 -0.782046 1.385852 -2.862591
55130 -0.530254 3.703631 0.611060 -0.740160 0.671740 0.571108 -0.363546 -2.738669 2.788194 -0.550943
26053 -0.942861 2.660856 0.692848 -0.435954 -1.076772 -0.647794 -0.465361 -2.048533 -0.614166 0.971894
56652 3.104404 1.111660 1.691293 -1.819072 -0.669576 -1.034966 2.007043 -0.503817 -0.216565 -2.183881
4208 -1.033058 2.589353 0.876542 -0.378795 -1.097606 -0.648230 -0.692524 -2.153646 -0.532555 0.996250
23141 2.751595 1.049649 1.671898 -0.163236 -2.477524 0.049749 1.838389 -0.664686 1.382252 -2.764385
369 -0.662589 3.088569 0.114374 0.667243 -1.781049 -0.665046 0.997016 -0.845142 -0.433628 -1.456650
6890 3.943658 1.605660 -0.366528 -0.635012 -1.408941 -0.639112 -0.919030 -0.859848 1.874448 -0.739900
10522 -0.990240 2.604887 0.804419 -0.374091 -1.102934 -0.694841 -0.708761 -2.087373 -0.655043 0.873542
10472 -1.064066 2.655299 0.698410 -0.409943 -1.137282 -0.930336 -0.557465 -2.159939 -0.667705 0.854288
55714 0.289076 2.521285 -0.266156 -1.544299 -0.731004 -1.620257 2.194319 -1.492775 0.295756 -0.130400
3149 0.233292 2.575069 -0.139401 -1.720446 -0.738804 -1.624535 2.075770 -1.480352 0.491997 -0.246626
9313 1.563200 -0.232299 0.405196 -1.234542 -1.751367 -0.596520 1.534285 -3.695029 0.510478 -2.929891
258 1.642838 -0.223676 0.419444 -1.206747 -1.754590 -0.620892 1.463375 -3.688585 0.566957 -2.935390
2992 1.348266 2.051173 2.791795 1.032081 -0.634721 -0.295622 0.808246 -0.129848 -1.636964 -0.411198
2752 1.731737 0.225045 0.919352 1.832825 0.578345 0.264779 0.157479 -3.597686 -0.753114 -0.712926
80224 1.433957 0.580639 2.222040 0.464734 -0.353465 0.010239 -1.353502 -1.272727 1.018645 -2.746574
5195 -0.173436 0.691747 3.057079 0.449628 -3.536580 -0.634166 -1.044672 -3.332043 0.688304 -0.786558
64220 0.312561 2.467232 -0.191761 -1.686446 -0.869934 -1.737721 2.018007 -1.453075 0.278910 -0.156071
4942 1.820859 0.149203 0.985494 1.979882 0.508928 0.294536 0.235646 -3.613114 -0.701928 -0.770694
1537 1.472212 0.491032 2.171693 0.165694 -0.397124 0.230305 -1.190450 -1.364710 0.969354 -2.852004
6872 2.135202 1.333039 1.648315 0.622341 -0.593162 0.169727 -1.057577 -1.375841 -2.627076 -2.116291
445 -0.606487 0.860826 1.496587 -2.387998 -2.871930 -0.327594 0.308591 -3.995792 0.143955 -1.872898
9662 2.680254 1.027898 1.596258 0.006331 -2.481370 0.091405 1.858088 -0.825198 1.459614 -2.799222
92749 -0.530912 3.646214 0.642320 -0.739779 0.626531 0.589547 -0.370972 -2.649798 2.743253 -0.523325
123041 1.580169 -0.240226 0.449378 -1.129206 -1.735872 -0.620883 1.519668 -3.696799 0.534711 -2.873024
335 0.243488 1.983794 0.684627 -0.071740 -1.134784 1.157001 1.134787 -0.506238 -0.266386 0.156008
5994 3.884945 1.352015 -0.418000 -0.592833 -1.494267 -0.433441 -0.845520 -0.997041 1.755043 -0.734519
4729 1.563368 0.506335 2.056909 0.348363 -0.262894 0.114262 -1.368299 -1.274690 0.945357 -2.751605
51324 -0.933706 2.672230 2.850781 0.869371 0.742047 -0.142818 -0.158215 -2.040823 -1.115261 -1.424686
774 2.150211 1.273903 1.724992 0.713106 -0.607740 0.074405 -1.085240 -1.399872 -2.682726 -2.167177
5193 -0.131864 0.704654 3.072357 0.474467 -3.593449 -0.577206 -1.027336 -3.305696 0.714482 -0.803929
123263 2.475938 0.736525 2.986147 0.604374 1.378338 -0.468946 -2.043919 -2.950234 0.247440 -0.008379
3800 1.913445 1.117453 4.763143 0.112747 -2.493458 0.208189 -0.458163 -1.200482 0.465074 -0.429532
3762 1.058033 1.710062 0.892464 1.982398 0.478121 -1.368320 -0.365774 -1.496751 -1.335918 0.530838
4644 1.330846 1.802615 2.652312 0.173505 -3.758422 -1.283396 -0.914497 -0.378924 -0.152558 -2.285114
8625 3.909740 1.543191 -0.481573 -0.515049 -1.377143 -0.579567 -1.004488 -1.031750 1.805273 -0.769688
763 1.731351 0.142415 0.935816 1.795233 0.394215 0.271929 -0.006986 -3.495017 -0.763930 -0.682886
7283 1.974568 1.050853 4.798818 0.132203 -2.532679 0.186282 -0.439593 -1.156277 0.476005 -0.433108
79587 2.492477 0.706677 2.879131 0.541563 1.380459 -0.464521 -2.031934 -2.978666 0.306210 -0.052383
1767 -0.524753 3.630644 0.659023 -0.755659 0.715378 0.609053 -0.404532 -2.678616 2.767745 -0.575456
2774 2.091030 1.361436 1.697536 0.650210 -0.593149 0.167610 -1.171788 -1.358395 -2.797571 -2.164294
5256 1.590531 1.976246 2.904572 1.295788 -0.751146 -0.367989 0.807695 -0.068736 -1.533915 -0.649526
6683 -1.067552 2.601581 2.928361 0.817894 0.684318 0.036345 -0.262624 -2.224989 -1.171702 -1.537279
4514 0.511346 0.033874 1.870018 -0.067141 0.067690 -0.310114 -1.460711 -2.491531 0.799259 -2.275692
10908 -1.024903 2.664969 2.803604 0.773824 0.769478 -0.053850 -0.324725 -2.252221 -1.212691 -1.356928
5213 1.463098 2.068377 2.822254 1.092705 -0.750929 -0.311929 0.930863 -0.201950 -1.702256 -0.430206
7284 2.528033 0.661231 2.959818 0.629929 1.304439 -0.404924 -1.998959 -3.087845 0.289904 -0.075414
1896 1.009169 2.859570 -0.607727 -0.165230 -0.984922 0.290951 1.873921 -2.293163 1.746517 1.142802
84300 1.341686 0.493598 2.196753 0.229774 -0.374749 0.156732 -1.285711 -1.415522 1.000671 -2.708491
79731 2.393597 0.641372 2.786081 0.492616 1.316395 -0.482098 -2.037724 -2.925931 0.300379 -0.066969
25821 2.460218 0.643510 2.950443 0.528636 1.234560 -0.443986 -2.071028 -2.921624 0.367074 -0.152403
4488 -0.404952 2.119263 0.482971 1.716390 -0.832477 -0.384943 1.901035 -1.807603 0.328597 -0.281731
5429 1.053335 2.066491 0.704282 1.765247 0.861126 1.371243 -1.170387 -3.750620 2.014252 -0.537106
119559 2.553506 0.594737 2.917016 0.629258 1.300689 -0.425735 -2.058253 -3.037657 0.263030 -0.032003
4137 -0.061729 0.746703 0.688424 -0.738866 0.420617 -1.470501 -0.461552 -2.141389 -1.296421 -1.456132
6448 0.189561 2.245182 0.987036 -1.939780 -1.008620 0.630945 0.817707 -1.208341 0.006389 -3.542618
57505 2.660281 0.649925 3.074010 0.557852 1.168083 -0.412124 -2.127590 -2.910049 0.299101 -0.044234
4669 0.189521 2.263640 1.108286 -2.056464 -1.022802 0.836832 0.906346 -1.204577 -0.011348 -3.311766
60681 1.339541 2.553610 0.485407 -0.810518 -1.997665 0.931393 -3.148838 -1.648205 0.607527 -0.549494
51124 2.682334 1.051270 1.620548 -0.045637 -2.507470 0.156001 1.842206 -0.813914 1.425848 -2.707088
25885 3.037059 2.807839 0.041657 -3.250567 -2.055525 1.869400 -0.739446 -1.766898 -0.450803 -0.774483
375611 1.383565 3.511803 0.942943 -0.772063 -0.827615 -1.381806 -0.475710 0.562968 -0.430648 0.212668
9056 1.771516 0.193762 0.989514 1.975726 0.483394 0.212088 0.152647 -3.456433 -0.692206 -0.801163
11222 2.481718 0.674316 2.927348 0.494317 1.315737 -0.470378 -2.076116 -2.958941 0.320867 -0.121275
55145 2.154892 1.296338 1.791506 0.620790 -0.601498 0.164428 -1.145583 -1.382232 -2.770724 -2.269198
6138 2.584027 -0.188106 0.749699 0.153162 0.687152 -2.416948 1.542534 -3.969910 0.610230 -1.995554
3712 1.838043 0.146640 1.021978 1.991718 0.472595 0.175655 0.089126 -3.430709 -0.691406 -0.871938
801 1.449325 2.235415 -0.195242 1.357746 0.386081 -1.679221 -0.297308 -1.282963 -1.884241 -0.009878
54757 1.604974 -0.225954 0.432940 -1.192324 -1.772169 -0.605758 1.473518 -3.663505 0.534379 -2.853378
2997 1.457445 2.126274 2.677573 1.122252 -0.619572 -0.178132 0.850736 -0.224388 -1.643585 -0.340931
478 2.199512 1.230636 1.746887 0.679477 -0.721304 0.132923 -1.092217 -1.459995 -2.732424 -2.122592
284403 2.723923 0.989175 1.684788 -0.120389 -2.469753 0.084842 1.744600 -0.817109 1.468197 -2.735716
4990 0.286825 2.537790 -0.157915 -1.667102 -0.678761 -1.630003 2.251323 -1.485605 0.371621 -0.230460
29980 2.691298 1.012982 1.725808 -0.078968 -2.489751 0.126709 1.714041 -0.845930 1.430101 -2.715350
60528 2.400139 0.606649 2.742545 0.616664 1.331657 -0.502270 -1.927771 -2.991468 0.237332 -0.069486
84706 1.220510 0.822545 3.164809 -1.974021 -2.227175 1.739495 -0.074035 -2.662741 -1.165573 -1.017617
1723 2.982630 2.810655 0.053815 -3.252298 -2.099834 1.870683 -0.784801 -1.775728 -0.449257 -0.757302
5224 1.328219 2.044156 2.759012 1.025914 -0.748581 -0.200004 0.827314 -0.165838 -1.655081 -0.524925
4709 1.492903 0.545329 2.100884 0.504901 -0.310296 -0.088264 -1.378448 -1.176351 0.977334 -2.682908
29078 1.542786 0.468131 2.224312 0.284282 -0.456453 0.113631 -1.317820 -1.388826 1.010960 -2.864298
2622 -0.482270 3.568703 0.667827 -0.760056 0.652917 0.601556 -0.403973 -2.613897 2.737185 -0.589000
6866 0.963644 2.352427 -0.001467 1.571490 -0.340136 -1.945384 1.807766 -2.645488 0.843911 1.167998
113189 1.466720 2.794825 -0.196753 -0.652045 -0.554430 0.806642 -2.778967 -1.619672 1.183213 -0.283716
2068 1.068352 2.028090 0.690929 1.764445 0.760877 1.367570 -1.289036 -3.737601 2.036494 -0.526169
2812 1.196077 3.861349 -0.109295 -0.254544 -0.470568 -0.484227 -0.033397 0.420528 1.436110 -1.623208
89765 -0.545365 3.631808 0.671016 -0.739158 0.618754 0.606504 -0.357358 -2.687948 2.742527 -0.630021
3694 1.585425 -0.249361 0.448422 -1.196231 -1.744403 -0.604751 1.534247 -3.720543 0.576850 -2.851963
123872 -0.538592 3.646025 0.688416 -0.757859 0.689135 0.643002 -0.377152 -2.690856 2.720916 -0.542296
63982 2.056519 1.328222 1.759621 0.553681 -0.671703 0.125951 -1.024534 -1.321623 -2.748718 -2.239817
57176 2.525562 0.795562 2.943994 0.487414 1.315636 -0.536125 -2.135074 -2.982584 0.348376 -0.050277
54902 1.538392 0.546092 2.022454 0.371907 -0.375779 0.041235 -1.300344 -1.143237 0.983459 -2.776471
126328 1.497643 0.528425 2.254735 0.238072 -0.324604 0.142554 -1.322077 -1.287174 0.967564 -2.795257
5781 -0.643126 3.236070 0.079276 0.775360 -1.527600 -0.502253 0.999495 -0.937469 -0.454113 -1.464494
8111 1.609676 -0.287400 0.414135 -1.189584 -1.759735 -0.582057 1.545564 -3.663862 0.577295 -2.900073
10309 -0.527793 3.625974 0.675359 -0.784188 0.669438 0.585607 -0.347207 -2.721430 2.730769 -0.543956
11285 1.497450 2.841187 -0.246276 -0.667496 -0.630206 0.828248 -2.743355 -1.644930 1.186691 -0.309619
83451 1.795361 2.006210 1.145948 -1.447924 0.179811 1.451743 -1.637643 -2.946014 -1.825542 0.556983
124454 2.438841 0.717933 2.809501 0.464479 1.400906 -0.516489 -2.094806 -2.904463 0.254178 -0.076411
5744 2.149889 4.676183 1.951896 1.093484 0.033777 0.126894 0.993406 0.143659 0.892588 0.852637
5190 -0.138059 0.723197 3.094149 0.435903 -3.594625 -0.595915 -1.013537 -3.316298 0.762868 -0.755041
93210 0.809398 1.211899 2.187918 -2.066387 0.766323 -0.724415 1.746376 -3.134419 2.468462 -0.277929
286077 1.540489 -0.292117 0.402702 -1.235227 -1.738593 -0.586223 1.498266 -3.649305 0.588172 -2.914481
23111 -0.991247 2.719272 2.930560 0.913137 0.829129 -0.059141 -0.218541 -2.013544 -1.109933 -1.525805
79648 2.775586 1.041823 1.687218 -0.155988 -2.408245 0.110331 1.743622 -0.816042 1.516302 -2.840079
2072 1.048587 2.037966 0.669498 1.740717 0.783112 1.329597 -1.345963 -3.706235 2.055552 -0.493511
2688 1.499202 1.278865 -0.442853 0.181623 -0.597603 -2.738074 1.103262 -1.882194 0.123184 0.655475
1968 1.088648 0.713576 1.778280 -1.022069 -1.410050 -2.169932 1.716148 -2.138206 0.153298 0.965002
6697 2.139090 1.296107 1.733924 0.484617 -0.801347 0.198975 -1.041718 -1.300570 -2.769932 -2.279618
6340 -0.124317 2.225111 1.630115 2.201218 -0.610903 0.509606 -0.348635 -2.767365 -1.717736 0.327759
9131 2.433286 0.604922 2.929219 0.669451 1.224852 -0.443056 -1.997237 -2.973972 0.243617 -0.132677
1062 2.617604 0.932729 1.628973 -0.069630 -2.485795 0.207208 1.754986 -0.857795 1.434123 -2.753283
3984 1.806035 1.996328 1.054844 -1.446991 0.197903 1.412975 -1.660327 -2.829757 -1.740761 0.578637
11340 2.072644 2.769409 -0.069275 -1.068385 -0.582467 -1.251893 -0.972801 -3.596807 1.558819 2.686176
10878 1.578731 0.686216 -0.705386 0.340868 -0.638153 0.841078 -0.766946 -2.328146 1.132955 0.195592
265 1.614851 -0.262959 0.380782 -1.204743 -1.720896 -0.622609 1.475616 -3.678753 0.575693 -2.916040
4715 1.562455 0.589272 2.263124 0.209393 -0.339038 0.088863 -1.362511 -1.238127 1.021629 -2.829805
55863 1.478826 0.550268 2.033717 0.361912 -0.304128 -0.007376 -1.386137 -1.195546 0.961207 -2.720772
51091 2.055046 2.780093 -0.087052 -1.050727 -0.602749 -1.275041 -0.956677 -3.573778 1.560620 2.677736
9031 1.722788 1.944631 1.107892 -1.323481 0.209134 1.386603 -1.533057 -3.023958 -1.845400 0.550169
51300 1.503762 0.503057 2.132525 0.407017 -0.328637 0.105625 -1.284798 -1.337569 1.110463 -2.749067
10262 2.985593 2.785316 0.085610 -3.246681 -2.144808 1.867987 -0.741904 -1.772658 -0.483646 -0.630784
6853 1.058933 0.710600 1.731793 -0.988679 -1.310142 -2.101613 1.564967 -2.057094 0.170187 1.002163
658 2.143067 4.728352 1.906648 1.055745 0.082429 0.075226 1.048828 0.081996 0.925833 0.937238
84062 4.200784 0.960395 0.015356 0.138086 -0.430482 0.110035 1.568299 -2.687937 -2.240843 -2.652442
9509 1.503053 2.927665 -0.167524 -0.696346 -0.688045 1.006737 -2.697543 -1.622019 1.213576 -0.249522
64135 1.298927 1.411161 -0.755016 1.865308 -0.735427 -1.104859 -0.646114 -1.475501 0.647464 -1.450343
60675 1.007675 2.648809 -0.138692 1.587812 -0.322947 -2.008774 1.883298 -2.619362 0.873997 1.166195
644096 1.535096 0.437998 2.221646 0.465364 -0.429359 0.012149 -1.273106 -1.278753 1.055209 -2.821481
25828 2.449242 0.638988 2.765591 0.534669 1.324065 -0.558424 -1.945817 -2.964454 0.184847 0.012602
943 1.603140 1.299202 -1.480378 0.711513 -1.399771 -0.053012 0.889383 -1.602165 0.112646 -1.597854
54768 -0.530146 3.632822 0.613419 -0.690746 0.656864 0.555899 -0.353364 -2.760157 2.714171 -0.561517
9401 -0.297409 2.140496 0.735556 1.786031 -1.045862 -0.291017 1.862858 -1.630570 0.219373 -0.148626
1738 1.598647 -0.106203 1.756010 -1.246222 -1.790367 -1.022405 -2.136263 -2.514949 1.148416 -2.224304
57570 2.559789 0.690363 2.822997 0.615049 1.361840 -0.508281 -2.009264 -3.042358 0.291173 0.030433
28976 1.531963 0.525789 2.167696 0.276545 -0.365726 0.146702 -1.325617 -1.230208 1.003506 -2.732277
7547 1.162857 3.136770 1.636122 1.762541 -1.355717 -1.209506 0.672661 -0.322440 0.856384 1.254532
84879 2.710982 0.992207 1.694698 -0.058258 -2.456297 0.099106 1.810347 -0.853953 1.403497 -2.816562
4841 1.139210 0.809226 1.858369 -0.993120 -1.502813 -2.036979 1.763650 -2.110674 0.275130 1.134890
6310 0.576344 2.304270 1.473549 -0.552499 1.781887 -1.828897 -1.389940 -1.908964 -0.120292 0.285934
23503 -0.920580 2.597888 2.748773 0.829965 0.828512 -0.099295 -0.256598 -2.143185 -1.229620 -1.281979
55869 0.241342 1.748905 -1.026396 0.751023 -0.191072 0.194769 0.933835 -4.803440 -0.416646 -3.451530
80222 2.406517 0.733813 2.899802 0.509578 1.388633 -0.496465 -2.047749 -2.972631 0.299768 -0.086863
2253 0.809828 2.462214 -0.108803 1.494121 -0.434539 -1.921786 1.803363 -2.592118 0.802122 1.036081
1371 3.255489 2.902351 0.245510 -3.297825 -0.669863 -0.423052 0.662908 -1.637300 0.959050 1.437824
55650 0.847099 1.206512 2.146368 -2.088174 0.740292 -0.655712 1.816412 -3.237468 2.576607 -0.259018
378884 1.042552 1.598273 2.531269 -1.887725 0.634882 0.188973 -1.120233 -0.851778 0.395878 -1.928152
79083 1.383011 1.852271 2.770531 0.250419 -3.868372 -1.330708 -0.865154 -0.355893 -0.238471 -2.288195
284098 0.904845 1.177654 2.086784 -2.057939 0.747024 -0.705696 1.769612 -3.179752 2.506852 -0.294945
90624 1.448359 0.507841 2.196748 0.331722 -0.279350 0.111605 -1.260712 -1.279583 0.974167 -2.824556
6307 2.711479 1.007445 1.594538 -0.086281 -2.421655 0.160655 1.705896 -0.779855 1.482196 -2.756930
