20280 10
81137 0.833713 0.122468 0.113186 0.993214 -0.776330 1.571938 0.363080 -0.672769 -0.911808 0.130384
156 0.738464 0.185589 0.422730 0.836795 -0.758223 1.557167 0.340870 -0.643772 -1.093734 0.320672
170394 1.105328 0.170869 -0.490460 0.967434 1.307648 -0.464658 0.570247 -0.774968 -1.196717 -0.436989
147646 1.341969 -0.169188 0.555182 1.008985 -0.759370 1.443062 0.398431 -0.821613 -0.685877 0.807337
147700 0.939259 -0.287016 0.241604 1.154039 -0.468835 1.414981 0.549728 -0.864889 -1.017968 0.382905
26716 1.219036 0.533311 0.515756 0.344752 -0.976006 1.421292 0.306975 -0.578124 -0.883783 1.020215
285877 0.802950 -0.037927 0.238886 1.091147 -0.819470 1.592151 0.335565 -0.741206 -1.184487 0.144671
100505711 0.987668 -0.112360 -0.009223 0.971888 -0.765754 1.585201 0.518859 -0.589982 -1.002544 0.453303
91977 0.633840 0.180157 0.218201 1.137514 -0.803520 1.464436 0.440317 -1.098189 -1.201477 -0.320838
729173 0.950677 0.251838 0.217442 0.755094 -1.030704 1.762887 0.237796 -0.466095 -1.264022 0.655395
3493 1.426739 0.942447 -0.068921 0.228079 0.360443 -0.173703 0.588425 -1.356869 -1.212323 -1.037492
2812 1.243156 0.513880 -0.354267 0.679802 1.140212 -0.573537 0.527144 -0.949772 -1.236590 -0.727192
284187 1.403331 0.904351 -0.274545 0.329360 0.525681 -0.233925 0.654298 -1.233133 -1.245762 -1.102630
152206 0.483115 0.693824 0.015449 0.686585 -1.072444 1.745314 0.140898 -0.579907 -1.553425 0.089238
402779 1.458617 0.223230 0.708687 0.707585 -0.899349 1.510575 0.559431 -0.906989 -0.773173 0.869481
83451 0.633181 0.133360 0.306270 0.988743 -0.881139 1.606545 0.129562 -0.744948 -1.332404 0.254150
441869 1.191189 0.218045 -0.541670 0.945920 1.070893 -0.355827 0.474885 -0.881835 -1.304118 -0.861763
7037 1.261348 0.542353 -0.439328 0.644514 1.044378 -0.476975 0.591770 -0.939006 -1.169933 -0.815882
114827 0.524758 0.348267 0.163232 0.950684 -1.128334 1.629131 0.276209 -0.871148 -1.504173 0.048067
57863 1.349356 0.271931 0.230221 0.708578 -0.854363 1.608630 0.358052 -0.382201 -0.554106 0.773073
1995 0.742356 0.532999 -0.451026 1.093448 1.535299 -0.426588 0.288497 -1.043514 -1.250936 -0.189173
90850 0.723660 -0.046515 -0.348649 1.050104 -0.372988 1.444905 0.708253 -0.225542 -0.913488 -0.225194
2740 1.295323 -0.024915 0.292035 0.559965 0.104506 0.976676 0.982566 -1.363336 -1.083330 -0.062393
81603 1.008330 -0.012501 -0.277745 1.143429 1.562689 -0.320340 0.582468 -0.410116 -1.165784 -0.090495
93611 1.378137 0.826726 -0.351347 0.435740 0.834942 -0.539924 0.629613 -1.053503 -1.125444 -0.943815
285708 1.350605 0.048454 0.672980 0.689423 -0.714833 1.210682 0.484923 -0.868690 -0.711265 0.932652
83849 0.988069 -0.060352 0.311493 1.412825 -0.658607 1.524539 0.774202 -0.991403 -0.759930 -0.070647
127534 1.354093 -0.241423 0.221166 1.022016 -0.801327 1.664121 0.316656 -0.749773 -1.064479 0.677792
55547 1.377347 0.598089 -0.111406 0.325429 0.837915 -0.402293 0.590722 -1.109631 -1.125705 -0.724957
6556 1.296779 -0.902962 0.061241 1.293117 0.775725 0.564777 0.404168 -0.120243 -1.143455 -0.534225
146894 0.587529 0.318030 0.337687 0.862440 -0.667440 1.705608 -0.136564 -0.766400 -1.683863 -0.166866
440836 1.044274 0.388471 -0.547768 1.038745 1.240031 -0.529282 0.628366 -0.560387 -1.070701 -0.753111
6337 1.465304 0.494393 -0.345678 0.301125 0.886960 -0.600434 0.522902 -0.855337 -1.278939 -0.732890
144348 0.878995 0.920698 0.641101 -0.026562 -0.868798 1.093230 0.432679 -0.534939 -1.007648 1.144781
146433 1.064823 -0.040125 -0.343359 1.182371 1.564897 -0.385300 0.460133 -0.629502 -1.494450 -0.263266
7475 1.092788 0.748974 0.748145 0.301718 -0.924224 1.506081 0.503149 -0.628502 -0.978070 0.959508
100509639 1.307445 0.044751 -0.029986 1.159816 -0.573396 1.493532 0.864936 -0.862409 -0.392397 0.260926
64405 0.968715 0.495595 0.341780 0.548495 -0.952008 1.748932 0.373451 -0.514244 -1.221100 0.578752
388692 1.108090 -0.061044 -0.261794 1.105614 1.436263 -0.333998 0.647562 -0.689236 -1.075400 -0.146042
90668 1.496684 0.963879 -0.015299 0.243092 0.466860 -0.194801 0.733081 -1.310405 -1.114656 -1.032874
104 1.047001 0.131590 -0.483283 1.007464 1.414337 -0.499403 0.515862 -0.643865 -1.289481 -0.324483
254050 0.516779 0.674897 -0.365396 0.457667 -0.905717 1.603292 0.127704 -0.241021 -1.597387 0.071607
59285 1.078511 0.343236 0.232388 0.628678 -0.769298 1.694253 0.397870 -0.310673 -0.882814 0.734437
161882 0.804539 -0.152871 -0.369451 1.121068 1.501196 -0.159983 0.562640 -0.395546 -1.387857 0.110547
29085 0.744083 -0.107409 -0.397411 1.279628 1.471854 -0.159116 0.504863 -0.478030 -1.470508 -0.118054
219409 0.986460 0.304551 -0.275549 1.148726 -0.648645 1.863105 0.277460 -0.284397 -0.576186 0.414869
2778 1.418758 0.775580 -0.329342 0.439884 0.790681 -0.430815 0.519303 -1.120364 -1.272711 -1.013404
284365 0.713524 -0.278948 -0.077391 1.450892 -0.396387 1.346800 0.623088 -1.060961 -1.269474 -0.352039
146177 1.571916 -0.049975 0.069325 1.165021 -0.764377 1.058208 0.759898 -1.248160 -0.116247 0.322035
636 1.264995 -0.133223 0.130168 1.334679 -0.520770 1.318600 0.984036 -0.584514 -0.172903 0.160078
142680 0.534986 0.225135 -0.085185 0.886218 -0.892840 1.670681 0.187846 -0.276560 -1.408863 0.178354
51477 1.446099 1.023922 -0.120788 0.300945 0.398859 -0.399610 0.675830 -1.244739 -1.154955 -1.154117
100132005 1.515765 -0.007421 0.463781 1.115999 -0.755459 1.535379 0.461493 -0.891924 -0.464798 0.811098
441263 0.362825 0.299697 -0.275363 0.722394 -0.687886 1.441312 0.261764 -0.189297 -1.538176 -0.255690
9736 0.866227 1.205300 0.938498 0.766452 0.235764 -1.537296 0.529003 0.235087 -0.556726 1.113677
256646 0.727013 -0.047243 -0.440254 0.985089 -0.623426 1.652253 0.447506 -0.391241 -1.440628 0.146846
353135 0.977777 0.778316 0.750901 0.149507 -0.935937 1.265487 0.340668 -0.608765 -1.081189 1.137776
388906 0.363994 0.656206 -0.289113 0.618784 -0.958547 1.661009 0.132079 -0.400608 -1.709017 0.126887
114804 1.392813 0.615247 0.850196 0.419994 -0.799168 1.340596 0.404104 -0.662739 -0.599337 1.097047
191585 1.667283 -0.100205 0.331616 1.067357 -0.690542 1.639099 0.523066 -0.823698 -0.590886 0.673999
117285 1.087506 0.099636 -0.464996 0.666060 -0.717582 1.787286 0.292819 -0.149410 -1.202667 0.610497
644997 0.664175 -0.433851 -0.114071 1.534690 -0.387735 1.248722 0.833138 -0.811544 -1.234279 -0.430157
140732 0.711617 0.443426 -0.903009 0.547378 -0.708817 1.676394 0.298799 -0.117150 -1.672798 -0.099932
1757 1.211904 0.319179 -0.461075 0.843225 1.201300 -0.483112 0.558180 -0.930387 -1.233937 -0.596494
112939 1.015519 0.166215 -0.555966 0.991123 1.442580 -0.258382 0.531901 -0.518264 -1.434472 -0.433533
84808 1.124855 -0.243604 -0.562666 1.152258 1.239508 0.007526 0.389419 -0.687724 -1.424469 -0.452535
91608 1.006512 -0.093718 -0.449160 1.243816 1.612246 -0.220353 0.731526 -0.659709 -1.285052 0.045107
26470 0.670843 -0.146421 -0.430180 1.377191 1.521113 0.032331 0.517123 -0.571394 -1.497741 0.016596
27092 0.550054 0.155502 0.053692 1.043333 -0.316565 1.675975 0.411631 -0.800301 -1.356092 0.173078
2902 1.055028 0.202261 -0.746164 0.948067 1.146046 -0.131196 0.410133 -0.640640 -1.501293 -0.837573
80028 0.570256 0.343860 -0.374661 0.804342 -0.664895 1.639766 0.373130 -0.451520 -1.393878 -0.116354
255654 0.968846 0.299281 -0.936311 0.976673 -0.465931 1.197110 0.427147 -0.852485 -1.672395 -1.256637
816 0.260969 0.437260 -0.119570 0.874222 -0.214279 1.560917 0.175224 -0.734686 -1.876715 -0.369438
8220 1.434361 0.790502 -0.237597 0.240980 0.422411 -0.051853 0.589534 -1.257381 -1.359442 -1.069675
8463 1.396943 0.923304 -0.214520 0.331010 0.857936 -0.377410 0.585142 -1.189024 -1.199773 -0.844119
26584 1.097944 -0.312221 -0.428531 1.295311 1.230006 0.222747 0.537333 -0.762926 -1.430935 -0.469978
79906 1.227330 0.733731 -0.373116 0.501254 0.826744 -0.355111 0.525079 -1.040361 -1.321406 -1.015343
4320 1.621493 0.185351 -0.439215 0.829455 0.638700 0.684091 0.406349 -0.916468 -1.285128 -1.280152
84269 1.296231 0.189317 -0.550324 1.011252 1.495196 -0.388097 0.575135 -0.763973 -1.471322 -0.589988
151354 0.905270 -0.080469 -0.530822 1.278385 1.463199 -0.477512 0.453050 -0.587059 -1.414302 -0.186976
57449 0.885716 -0.054461 -0.426588 1.278566 1.497791 -0.226621 0.512060 -0.365952 -1.203943 -0.149689
3360 0.627459 0.296781 -0.441496 0.985596 -0.490352 1.565952 0.279479 -0.666324 -1.730083 -0.731051
136227 1.311634 -0.065185 -0.524867 1.136333 1.308705 -0.238439 0.568882 -0.843104 -1.262549 -0.479727
7148 1.436397 1.199781 0.024703 0.092992 0.519394 0.028308 0.279862 -1.093925 -1.232341 -1.145180
100505478 1.611743 -0.158688 0.360976 1.242993 -0.364297 1.162518 0.918900 -1.160072 -0.208114 0.539894
6559 1.025857 -0.078656 -0.382327 1.206252 1.456902 -0.238940 0.394701 -0.558374 -1.429914 -0.389463
202051 0.992546 0.140926 0.159702 1.041443 -0.673621 1.540586 0.540567 -0.526365 -0.544360 0.346612
166012 0.995246 0.113919 -0.782266 1.293343 1.313878 -0.421199 0.443308 -0.708387 -1.302552 -0.596355
116984 1.248915 0.979355 -0.352615 0.538703 0.396252 -0.320447 0.745727 -1.236650 -1.100918 -1.269953
553 0.717787 0.452432 -0.815788 0.815410 -0.615402 1.968610 0.236232 -0.146827 -1.657091 0.008008
124565 1.141383 0.455984 -0.425532 0.836805 0.942144 -0.480166 0.688982 -0.630432 -1.030288 -1.087371
375790 1.144954 -0.142352 -0.441659 1.234079 1.375043 -0.308989 0.465291 -0.777761 -1.310737 -0.350376
100316868 1.463787 -0.203881 0.184577 1.307368 -0.532300 1.230745 0.525105 -0.916922 -0.115433 0.501363
2837 0.490041 0.145963 -0.370667 1.138797 -0.700697 1.628295 0.122977 -0.177504 -1.425645 -0.476309
57010 1.119501 -0.275308 0.444633 1.197145 -0.343820 1.298145 0.794969 -1.116743 -0.921596 0.113310
124783 1.018367 0.066877 -0.235644 0.855708 -0.815420 1.790334 0.476815 -0.400281 -1.254596 0.401182
1364 1.373629 0.281786 0.584340 -0.164656 -1.352544 1.216637 0.031597 -0.308143 -1.612259 0.488448
339168 1.060111 0.059547 -0.291371 0.988152 -0.601536 1.843070 0.554559 -0.379720 -1.072647 0.312797
201191 1.162614 -0.620896 0.253567 1.124943 0.072596 1.092059 0.644491 -0.946337 -0.970238 0.518701
8516 0.899167 -0.013915 -0.927635 1.501275 0.813148 -0.066567 0.432606 -0.500182 -1.080050 -1.115712
9169 0.729089 1.123873 0.891533 1.143209 0.370944 -1.258163 0.577970 0.418648 -0.476346 1.276911
2529 1.171615 0.095337 -0.337057 1.115580 1.575363 -0.360415 0.492860 -0.693104 -1.302981 -0.264575
90332 0.646351 -0.091707 -0.204804 0.992605 -0.282327 1.723087 0.327333 -0.340248 -1.593996 0.188474
388591 1.005364 0.000197 -0.513955 1.112451 1.133227 0.113454 0.646054 -0.946635 -1.457190 -0.579421
64714 0.915252 -0.125248 -0.537493 1.360615 1.544267 -0.331754 0.533212 -0.451135 -1.422232 -0.186253
30000 0.921648 0.193990 -0.479972 1.212350 1.551044 -0.421353 0.545507 -0.568164 -1.176298 -0.259010
4294 0.782907 -0.093616 -0.362240 1.288847 0.168218 1.297757 0.600745 -0.890018 -1.645925 -0.783551
9260 1.172035 0.529613 -0.525185 0.831865 1.409057 -0.495471 0.443707 -0.419476 -1.278203 -0.819138
26013 1.045004 0.057385 -0.604730 1.060944 1.434908 -0.265590 0.557193 -0.395354 -1.453639 -0.398764
100506553 1.397748 1.176803 0.136884 -0.004570 0.015816 -0.093112 0.837652 -1.409755 -1.129317 -0.891798
338588 1.274930 0.455537 0.387559 0.544507 -1.131619 1.863292 0.352118 -0.592515 -1.301081 0.864734
100287081 1.567204 1.142372 0.096796 0.015850 0.178248 -0.097176 0.893878 -1.390174 -1.186086 -0.982222
124538 1.423158 0.387047 0.083281 0.587014 -0.972583 1.751519 0.291949 -0.295625 -0.776472 0.832695
9293 1.646165 0.020017 0.510922 1.168770 -0.575168 1.496259 0.585378 -0.762252 -0.262146 0.822803
30818 0.947456 0.136031 -0.607609 1.072397 1.394115 -0.227553 0.512605 -0.590253 -1.551143 -0.498706
2200 1.624637 1.833584 0.206885 0.769301 1.024543 0.945577 -1.465138 0.482150 -1.105140 0.286921
10640 1.163058 0.576483 0.104282 1.087435 -0.189247 0.018446 0.362128 1.755142 -0.591672 1.319395
4728 0.382264 1.514832 0.377621 0.300669 -0.273374 -2.009921 0.616175 0.438774 -1.677679 0.219773
147166 0.625243 0.565726 -0.015982 0.594854 -1.128736 1.747415 0.287682 -0.198470 -1.392161 0.491554
57455 1.601578 1.019630 -0.220794 0.310526 0.663771 -0.278151 0.786850 -1.296342 -1.253366 -1.072496
9757 1.041894 0.521365 -0.243289 0.744299 0.982453 -0.506607 0.801714 -0.747947 -1.276124 -0.983414
56975 1.694784 0.897882 0.177679 0.049611 0.031821 0.127431 0.639116 -1.435556 -1.385456 -1.177367
8934 0.994797 -0.165068 -0.529011 1.380434 1.452776 -0.289640 0.623257 -0.469559 -1.340601 -0.324353
1277 1.689184 0.847100 -0.298552 0.501457 1.663112 0.516685 -0.352671 -0.416121 -1.425953 -0.844323
7343 0.901990 0.044249 -0.571434 1.318804 1.485650 -0.310106 0.668068 -0.519247 -1.377816 -0.370886
55020 1.060543 0.004744 -0.424904 0.671263 0.726099 0.365911 0.677724 -0.859828 -1.450007 -0.633070
7328 1.418663 1.088913 -0.253244 0.310694 0.732211 -0.577514 0.741307 -0.931345 -0.946578 -1.014011
6487 0.492390 0.935319 -0.126807 0.290860 -1.111999 1.602454 0.227973 -0.360406 -1.528126 0.249594
93408 1.170564 -0.460514 -0.152034 1.191988 1.473788 0.072340 0.755948 -0.583485 -1.358280 0.185707
55554 1.348245 0.543047 -0.535841 0.469796 1.122385 -0.612353 0.703638 -1.003020 -1.094886 -0.383716
55729 0.943079 1.191420 0.905044 0.692121 0.122642 -1.772473 0.532394 0.209095 -0.833394 1.153455
79685 0.788251 0.086394 -0.310895 1.159644 1.441178 -0.323833 0.719255 -0.116443 -0.829674 0.037365
23053 1.225820 0.359275 -0.266382 0.750065 1.301389 -0.671527 0.646392 -0.717309 -1.266034 -0.552150
55209 0.611051 0.061766 0.362472 0.939772 -0.514036 1.485350 0.763317 0.007908 -0.811066 0.457257
256158 1.230743 -0.009883 -0.634664 1.077007 0.941085 0.146595 0.427929 -0.757141 -1.453063 -1.032825
4820 0.523447 1.451311 0.750720 1.340736 0.465293 -1.099618 0.839124 0.354386 -0.233526 0.832638
283135 0.614612 0.731825 -0.029572 0.432575 -1.143492 1.717138 0.402158 -0.108473 -1.398893 0.481273
100288679 1.300415 0.172155 -0.447433 0.738114 1.425779 -0.490522 0.698017 -0.892666 -1.249248 0.054826
89882 1.407626 -0.570995 -0.149261 0.887217 0.910910 0.409834 1.142391 -0.880586 -0.829477 0.481635
176 1.465299 0.306946 0.586908 0.859931 -0.836829 1.616547 0.453088 -0.637114 -0.499860 0.853522
7920 1.061010 0.293370 -0.469828 1.041444 1.498004 -0.593978 0.713736 -0.657531 -1.204988 -0.213856
6915 1.357994 1.206680 0.022595 0.029468 0.138861 -0.139463 0.671355 -1.302540 -1.285399 -1.014913
56666 0.339750 0.164887 -0.178539 1.299345 -0.494635 1.375806 0.349459 -0.817675 -1.528059 -0.728008
283933 0.919782 0.802236 0.441053 0.296714 -0.798577 1.524010 0.452218 -0.614192 -0.987149 0.788715
84069 1.510491 0.887983 -0.398711 0.269025 0.704093 -0.357423 0.514366 -0.982748 -1.378397 -1.133327
80127 1.002753 0.178407 -0.481840 1.037194 1.364712 -0.529126 0.559280 -0.580307 -1.272213 -0.434563
81693 1.076180 -0.047499 -0.546693 1.042219 1.252860 -0.249411 0.370915 -0.760402 -1.724560 -0.600563
100128126 1.468292 0.282014 0.601146 0.579504 -0.966542 1.649625 0.432811 -0.408683 -0.836135 0.897275
146880 1.169175 0.199714 -0.512075 1.139856 1.342411 -0.643000 0.552865 -0.848984 -1.235688 -0.528381
441151 1.310253 1.270989 0.113403 0.133669 0.327358 -0.072326 0.769818 -1.626425 -1.074074 -0.728055
9399 1.231509 -0.237466 0.659702 1.142263 -0.632134 1.489098 0.460128 -1.113672 -1.069911 0.450927
347088 1.129523 0.310709 -0.363123 1.012973 1.621967 -0.507795 0.607386 -0.752544 -1.332722 -0.278504
401237 1.491402 0.272078 -0.237983 0.782736 1.323209 -0.535314 0.551991 -0.992401 -1.220630 -0.563883
79917 1.324914 -0.251058 0.234674 1.225292 -0.751718 1.496239 0.916938 -0.934858 -0.814418 0.140222
149647 1.510435 0.656506 -0.110357 0.192979 -0.533021 1.270276 1.090312 -1.186569 -1.199066 -0.631368
136371 0.476981 0.395096 -0.464970 0.930694 -0.760413 1.789142 0.136079 -0.230135 -1.726858 -0.089733
23589 0.948997 -0.433412 0.213551 1.247342 -0.441040 1.546733 0.489921 -0.682835 -1.227559 0.335175
100506858 1.361356 0.295143 -0.127309 1.107220 -0.676523 1.920024 0.396557 -0.404852 -0.477567 0.643558
10086 0.704101 -0.095904 -0.131119 1.083577 -0.611115 1.781110 0.332456 -0.517068 -1.591838 0.361666
29924 0.974458 0.357929 -0.071801 0.662863 1.473770 -0.290548 0.706487 -0.421577 -1.724318 -0.525875
84226 1.128829 0.313648 -1.230439 0.666407 -0.655310 1.893415 0.664864 -0.096079 -1.456127 0.246397
846 1.641906 0.904839 -0.324399 0.428952 0.867280 -0.395003 0.623135 -1.177138 -1.376813 -1.159757
151887 1.803170 1.697680 0.447879 0.748571 0.995253 1.108769 -1.435066 0.301174 -1.143639 0.232651
25957 0.605298 1.447539 0.420127 1.700634 0.268021 -0.826371 0.983374 0.345366 0.210220 0.854246
60506 1.502402 0.331685 -0.505120 0.736387 0.753298 -0.002923 0.474387 -0.954387 -1.470496 -1.329986
83861 0.753384 0.037197 0.314788 0.993403 -0.756438 1.715038 0.361644 -0.833091 -1.559201 0.311433
29997 0.394003 0.595536 -0.522181 1.244772 1.420122 -0.657439 0.532981 -0.701702 -1.220837 -0.296401
124590 0.545904 0.479749 -0.277762 0.894836 -0.986247 1.823959 0.114456 -0.545842 -1.699098 -0.115375
266727 1.211752 -0.607213 0.313622 1.493573 0.234279 1.153449 1.001735 -1.086707 -0.923445 0.093127
83723 0.976586 0.362344 -0.565045 1.154716 1.669115 -0.376898 0.591982 -0.965088 -1.450820 -0.108026
6853 0.248564 0.585339 -0.250013 1.689978 -0.212863 1.424682 0.566871 -1.365160 -0.865514 -0.574344
9389 0.728641 0.110929 -0.761090 0.603046 -0.327020 1.632978 0.418284 0.042260 -1.769821 0.061188
400027 0.874574 0.093598 -0.551001 1.427603 1.351020 -0.342018 0.872310 -0.677207 -0.743428 -0.114003
131566 1.446935 0.560374 -0.448134 0.652068 1.363765 -0.530161 0.443194 -0.764181 -1.264232 -0.704581
9782 0.394757 0.639301 -0.239945 1.268934 0.282970 -0.056206 0.309988 1.031445 -0.479804 1.056501
22839 0.739927 0.851931 0.861480 0.504642 -0.045481 -1.691031 0.524487 -0.141477 -1.117677 1.147952
56776 1.110777 0.092090 -0.477207 1.160985 1.576356 -0.496806 0.612198 -0.640663 -1.352031 -0.158687
56413 0.940223 0.019909 -0.568409 1.368341 1.496856 -0.398209 0.553186 -0.447494 -1.336145 -0.454857
396 0.560208 0.603014 0.860043 0.563517 0.416205 0.075324 0.908281 1.118793 -1.848738 -0.474858
10058 1.852444 1.050962 0.119981 0.126827 0.347037 -0.031970 0.803407 -1.494979 -1.228358 -1.097693
55764 0.595220 0.354376 -0.067506 1.021633 -0.963454 1.855168 0.094347 -0.455599 -1.392252 0.443810
10241 1.417318 0.263706 0.587432 0.612704 -0.879726 1.616145 0.333700 -0.551120 -0.842230 0.999643
92736 1.442061 1.131345 -0.015457 0.137538 0.084480 -0.269811 0.628246 -1.306255 -1.262088 -1.171151
1822 1.028386 0.210780 0.384234 0.555745 -0.339454 0.979427 1.238441 -0.891710 -0.795620 -0.320921
100128998 1.720519 0.999108 0.073549 0.047761 -0.096579 0.245662 0.549053 -1.497623 -1.473342 -1.206122
100506621 1.760781 1.633330 0.529326 0.817632 0.980674 1.140827 -1.537265 -0.022991 -1.124999 0.303337
5725 1.304203 0.298233 -0.100316 0.025223 0.421895 0.025840 1.324674 0.135236 -0.896052 -0.619676
83468 1.705577 1.881122 0.049442 0.778354 0.958299 1.053110 -1.565637 0.265692 -1.116050 0.270464
1634 1.772647 1.510717 0.560032 0.814058 1.021025 1.116411 -1.445697 -0.006417 -1.187981 0.133879
79803 1.275441 1.297636 -0.118254 0.128563 0.066505 -0.111486 0.672561 -1.311707 -1.403008 -1.260253
6336 1.735847 -0.019026 0.003841 0.983648 -0.936191 1.799823 0.310572 -0.458055 -0.653033 0.733324
84172 0.424810 0.694788 0.140797 0.674607 -0.707541 -1.648760 1.102278 0.178839 -1.493055 1.642315
115703 0.918981 -0.243094 -0.095865 1.254262 1.619523 0.168215 0.931578 -0.452565 -1.494090 0.124795
7840 0.844911 1.018566 0.700874 0.550320 -0.011056 -1.704206 0.589177 -0.164124 -0.781632 1.165585
81629 0.624574 0.424183 -0.552123 0.761905 -0.938428 1.833999 0.364612 -0.186729 -1.571030 0.251747
57486 0.851658 0.926952 0.863714 0.569551 0.094949 -1.688415 0.376535 -0.130944 -0.961310 1.101070
54972 0.976754 0.200692 -1.077674 1.001535 0.453992 0.764765 0.571890 -0.663387 -1.426068 -1.108820
3166 1.147706 -0.293306 -0.287482 1.377618 1.611596 0.194623 0.597043 -0.673626 -1.432058 -0.016570
10097 1.166719 0.788081 0.629536 0.823140 0.141622 -0.626764 0.410275 1.575118 -0.681292 1.205338
60489 1.125529 -0.581483 0.018169 1.305186 1.340579 0.149201 0.589299 -0.515472 -1.132028 0.190344
23181 0.849476 1.060935 0.979988 0.617900 -0.056977 -1.762319 0.564468 0.033951 -0.948628 1.160898
255061 1.606386 1.325655 0.212840 -0.056393 0.075195 0.014639 1.006306 -1.550980 -1.176223 -0.844741
90338 0.863581 0.855316 0.901771 0.584820 -0.089685 -1.888420 0.635931 -0.161036 -1.030345 1.117428
8817 1.280516 0.650217 -0.640178 0.862376 1.123930 -0.686598 0.521110 -0.680520 -1.123448 -1.006156
7756 0.529245 1.415003 0.571707 1.320752 0.198093 -1.517096 0.768763 1.014656 -0.675095 0.871807
150094 0.860745 -0.000272 -0.372883 1.471829 1.597723 -0.109257 0.373686 -0.162635 -1.366472 -0.617919
284186 0.805989 0.596345 -0.431167 0.144927 -0.609450 1.189821 0.426228 -0.788408 -2.001210 -0.576902
100129792 0.789868 1.061172 0.824932 0.635242 0.028968 -1.839009 0.570928 -0.117782 -1.009801 1.171309
283585 1.341462 0.938535 0.520235 0.251095 -0.464663 0.934468 0.278048 -1.013776 -0.861247 2.007163
91304 1.185036 0.741844 0.511962 -0.008941 0.446003 0.042674 1.374666 0.457310 -0.965742 -0.656893
23263 1.008622 0.161050 0.024538 1.048312 -0.674659 1.582841 0.555278 -0.474131 -0.473164 0.726186
6300 0.738682 -0.111688 -0.406921 1.044868 -0.082482 1.792745 0.494964 -0.270835 -1.470283 0.235237
8484 0.306558 0.727770 0.003275 0.651153 -1.114043 1.535460 0.029136 -0.535499 -1.787040 -0.238480
43 1.063970 -0.028522 -0.955171 1.465681 1.208569 -0.185423 0.375072 -0.521924 -1.484697 -0.953869
140738 1.449948 1.212211 0.285639 0.070253 0.016865 -0.050792 0.739145 -1.515541 -1.364196 -1.101883
53916 0.900240 0.186136 -0.276640 0.448606 -0.733242 1.469165 0.458974 0.087276 -1.175200 0.109505
149685 1.511166 0.004253 0.189302 1.116618 -0.317598 1.286879 1.197081 -1.169581 -0.399262 0.015129
284100 0.666364 0.524199 0.074662 0.650949 -1.009251 1.843097 0.251255 -0.609115 -1.738243 0.463152
80274 0.848569 -0.014184 -0.750715 1.510791 1.256395 -0.310800 0.588201 -0.574442 -1.233724 -0.551770
23275 0.717752 0.124120 0.194734 1.326856 -0.743109 1.624682 0.593627 -0.965684 -1.098937 -0.248280
54940 0.517942 1.022214 0.738265 0.391552 -0.277440 -1.363715 0.127917 0.439547 -1.238289 1.405720
1654 1.156064 0.363269 0.361482 1.187554 0.280165 -0.079395 0.445589 1.898335 -0.820597 1.110647
8831 0.747406 -0.746782 -0.105238 1.267142 0.299019 1.094315 0.647779 -0.553665 -1.404411 0.313578
399693 1.696119 1.042458 -0.325683 0.354044 0.182378 -0.036351 0.854762 -1.254828 -1.181554 -1.469017
8621 0.957892 0.807958 0.913769 0.499089 -0.077465 -1.601572 0.539341 0.112549 -0.923029 1.242011
340107 1.406001 1.178832 0.008430 -0.004383 -0.025490 -0.129755 0.803597 -1.489938 -1.264548 -0.917060
55720 0.182079 0.854143 -0.001322 0.755611 -0.224677 -1.837027 0.913279 0.638499 -1.997803 1.422268
4034 1.066323 -0.574477 0.400115 0.992797 1.220042 0.386353 0.793607 -0.471044 -1.530256 0.080192
974 1.716148 0.978593 0.412640 0.478591 -0.096089 -0.127111 0.625002 -1.630475 -0.596397 -1.173758
154150 1.130133 0.125085 0.308852 0.878652 -1.070132 1.780866 0.467400 -0.651070 -1.197547 0.833003
100289509 1.821427 -0.164009 0.273430 0.939571 -0.182688 0.928710 1.437121 -1.374531 -0.527696 -0.011969
6939 1.157367 0.090925 -0.331749 1.153059 1.628269 -0.503172 0.625221 -0.784277 -1.360368 -0.188182
9948 1.118592 0.634427 0.402064 0.617641 0.294700 0.032560 0.671270 1.868505 -0.999655 0.296594
149373 1.188415 0.172898 0.500833 1.040841 -1.075570 1.915088 0.357942 -0.687201 -1.140589 0.712842
79939 0.778483 0.727549 0.876940 0.492914 -0.055562 -1.695521 0.468164 -0.284423 -1.113970 1.042080
10959 0.690314 0.963083 -0.148064 1.249353 -0.003690 0.066137 0.236708 2.064483 -0.987123 0.969817
387 0.706054 1.193063 0.150674 1.076908 -0.136364 0.005331 0.174611 2.113234 -0.969132 0.506281
864 0.937228 0.129605 -0.463426 1.284502 1.612539 -0.503180 0.631342 -0.581876 -1.435281 -0.357324
155185 0.901297 0.320752 -0.592473 1.066378 -0.246401 1.151848 0.259123 -0.868643 -1.888061 -1.493357
6623 1.612346 1.103947 0.135733 -0.041737 0.074387 -0.035173 0.714256 -1.604172 -1.325266 -0.871074
1742 1.112090 -0.035539 -0.429252 1.230014 1.579248 -0.413470 0.650827 -0.557490 -1.293222 -0.104712
25959 1.427776 1.205889 -0.142531 0.289867 0.492529 -0.241668 0.730845 -1.190304 -1.270722 -1.288943
202915 1.181006 0.440380 -0.597963 0.392300 0.682800 -0.161988 0.394291 -0.836176 -1.841446 -1.036831
5228 0.875630 0.810879 0.899669 0.495329 0.038151 -1.742803 0.430180 -0.135599 -1.001454 1.047532
374955 1.573635 1.169695 0.079624 -0.068696 0.007030 -0.030122 0.875940 -1.399046 -1.492092 -1.086547
2207 2.339264 0.289632 1.285335 1.351697 -0.383979 0.278546 -0.554020 0.912546 -0.605731 -1.095611
285231 0.779358 1.051653 0.958116 0.525778 -0.002428 -1.869284 0.540387 -0.077965 -1.188966 1.146046
65061 1.460443 -0.276800 0.491293 1.509000 -0.431815 1.405684 0.845114 -1.068871 -0.493121 0.334932
92591 0.987555 0.206625 0.432893 1.038377 -1.126966 1.854173 0.321566 -0.739249 -1.249161 0.435987
1585 1.107044 -0.203963 -0.154205 1.238445 1.639784 -0.241937 0.662197 -0.322804 -1.213624 0.037605
375 0.679788 0.640817 -0.326131 0.645678 0.699147 -0.217672 0.510366 1.148383 -0.697719 -0.020058
84552 1.701729 1.241463 -0.118674 0.141594 0.235654 -0.162266 0.698722 -1.226576 -1.297101 -1.392710
50999 0.452251 -0.179989 -0.324343 1.891646 -0.460323 1.081654 0.541381 0.273778 0.045168 -0.153180
116985 1.124680 -0.253210 0.116884 1.167604 1.402565 -0.425906 0.783821 -0.254636 -1.205316 -0.333434
158067 1.585439 0.632701 0.656138 0.623756 -0.995456 1.469775 0.336742 -0.686671 -0.321661 0.961595
83866 0.808257 0.664582 -0.859730 0.584985 -0.974207 1.862752 0.416611 -0.054370 -1.426318 0.368298
55973 1.238416 -0.028373 -0.290260 0.767713 -0.564741 1.583771 0.757022 -0.213874 -0.791695 0.282851
401312 1.317505 0.493343 0.429858 0.614013 -0.986943 1.691509 0.274128 -0.424588 -0.710879 0.895103
343990 1.098196 0.223655 -0.813065 1.354080 0.346929 0.044302 0.768221 -0.699963 -1.201956 -1.640372
389763 1.279477 -0.003948 0.007528 1.098332 -0.834974 1.726128 0.580508 -0.825839 -0.891726 0.704679
4184 1.616506 -0.373682 -0.463894 0.964405 -1.160668 1.341377 1.235082 -1.217334 -1.164362 0.880839
100505600 2.139220 -0.021400 0.558998 0.634403 -0.626023 1.519154 0.593075 -0.748459 -0.623613 1.137994
8383 1.774514 -0.001650 0.542869 0.957093 -0.457475 1.261939 0.465968 -0.920706 -0.301289 1.155114
100505515 1.541437 -0.322879 0.283507 0.944898 -0.820648 1.619340 0.654065 -0.850183 -1.075310 0.666222
79661 0.990683 -0.393856 -0.530368 1.618444 0.579463 0.116318 0.759026 -0.976947 -1.468059 -1.212789
54482 0.979902 1.507705 -0.114514 1.334512 -0.415859 -1.103515 1.178007 0.594320 0.124775 1.280077
79874 0.759288 -0.482153 0.578065 0.864913 0.253269 1.239952 0.735640 -0.502679 -1.650578 0.147634
8780 0.692198 0.760087 0.993642 0.544642 0.076677 -1.467083 0.283912 0.054640 -1.084182 1.172191
389199 1.348451 0.036395 -0.387789 1.429050 -0.253764 1.616070 0.994750 -0.421753 -0.341712 -0.412926
100289333 0.741687 1.061781 0.977824 0.500903 -0.086757 -1.769674 0.449417 -0.267384 -1.141608 1.082535
119504 0.728419 1.177564 0.712112 0.407167 -0.196218 -1.770004 0.370090 -0.049923 -1.028943 0.950134
6929 1.478963 0.073834 -0.302927 0.853350 1.035058 0.510523 0.582132 -1.016196 -1.571482 -0.942174
4735 0.907387 1.243385 0.485785 1.036726 0.125999 -0.685504 0.422954 1.888111 -1.014838 1.433607
339666 1.536602 0.005248 0.496440 1.307784 -0.586152 1.581977 0.727959 -1.008654 -0.422291 0.459451
83479 0.797748 0.975711 0.859012 0.442650 -0.063767 -1.641856 0.549520 -0.210188 -1.103870 1.267388
7305 2.465706 0.404465 1.448243 1.330718 -0.282849 0.435668 -0.538149 0.752474 -0.592602 -1.122727
730139 1.057327 0.158403 -0.407043 1.252725 -0.592435 1.848335 0.680687 -0.399326 -0.856692 -0.270037
9922 1.536969 -0.038186 -0.161610 0.896514 1.276038 0.012709 0.542339 -0.930474 -1.490320 -0.736818
80097 0.497158 1.054335 0.617120 0.490709 -0.082714 -1.848847 0.429078 -0.115730 -1.289563 0.794393
158314 1.267955 -0.062610 -0.439719 1.090636 1.654122 -0.430495 0.756570 -0.598658 -1.456691 -0.021050
2831 0.866767 0.249962 -1.184194 1.403281 -0.070331 0.756318 0.309463 -0.632341 -1.300694 -1.560295
100287911 1.979296 0.663310 0.223380 0.253134 -0.211500 0.368974 0.948262 -1.469364 -1.117273 -1.263835
745 1.694476 1.130444 -0.046981 -0.013598 0.209332 -0.042695 0.998687 -1.540624 -1.323468 -0.920012
64116 0.994348 0.081357 -0.306264 1.325625 1.572284 -0.550250 0.574725 -0.584688 -1.164241 -0.246967
23264 0.844939 0.818904 0.635949 0.226600 -0.017853 -1.492330 0.708256 -0.527164 -1.120585 1.309408
6528 0.617722 0.172569 -0.426333 0.831020 -0.679747 1.744322 0.300679 -0.323093 -1.782065 0.018907
253943 0.882183 0.250308 0.457625 1.677935 -0.023295 -0.208717 -0.031179 1.706550 -0.850046 1.487330
5868 0.936769 0.550728 0.433748 1.316333 0.154654 0.001974 0.188242 1.894447 -0.872217 1.252545
64924 0.667020 0.961447 -0.034916 0.816605 -0.625138 0.104985 0.209261 1.412389 -0.822863 1.651315
199990 1.130925 0.346750 -0.590178 0.852097 1.133872 -0.159400 0.491606 -0.556823 -1.457163 -0.963550
5143 0.842945 0.848482 0.798414 0.429905 -0.049911 -1.692821 0.444145 -0.202442 -1.008233 1.056108
148066 0.851158 0.238502 -1.210390 0.859075 -0.688525 1.511120 0.581151 -0.569095 -2.000662 -0.652457
136853 1.016036 0.016994 -0.367784 1.160666 1.684545 -0.431840 0.671188 -0.465665 -1.437398 0.026447
6182 0.076283 1.232232 -0.805853 0.736513 -0.784043 -0.831660 1.063018 0.901944 -2.226661 -0.441144
51333 0.889860 -0.054202 -0.665463 1.455081 1.460481 -0.516237 0.621109 -0.449981 -1.438380 -0.469467
7694 0.043541 1.106617 -0.234207 0.319171 -1.267208 1.078775 0.429585 -0.861556 -1.512555 0.221086
10443 0.865378 1.774203 0.867800 1.250651 0.034096 -1.516068 0.867464 0.430177 -0.139564 0.808997
1292 1.628572 1.611918 0.255738 0.552346 1.163979 1.168094 -1.115578 0.593425 -1.570416 -0.252840
147949 0.993517 1.074116 0.469118 0.356288 -0.227064 0.597030 0.182309 -1.147197 -0.981918 2.249881
26740 1.392100 1.195080 0.336879 -0.498839 -0.423078 0.916982 0.882003 -1.157680 -1.309509 -0.190283
57830 0.470569 0.789825 -0.189843 0.390646 -1.183496 1.553089 0.021986 -0.397375 -1.759325 0.021333
5271 1.718075 -0.061090 0.488888 0.829680 -1.005106 1.541287 0.323030 -0.275448 -0.597522 0.953190
5286 0.905053 1.209458 0.836783 1.141037 0.263291 -1.137390 0.406670 1.039570 -0.555443 1.337447
51311 2.527508 0.204600 1.443772 1.416016 -0.402660 0.271263 -0.553320 0.666562 -0.502650 -0.966767
3996 0.794741 0.236381 -0.157785 0.829509 -0.448400 1.758715 0.393696 -0.320263 -1.130671 0.301800
51496 1.085282 0.169064 0.118600 1.268754 -0.047880 -0.068706 0.649024 1.539565 -0.655613 1.536889
79982 0.766098 0.807499 0.824838 2.221966 -0.027558 -0.220557 0.198631 0.760740 0.104595 1.494231
1009 1.819079 1.784546 -0.043686 0.803350 0.893528 1.035701 -1.516274 0.447111 -1.065643 0.035355
387601 0.585609 0.788726 0.327003 0.244747 -1.036591 1.475609 0.252132 -0.579189 -1.552329 0.600266
8301 1.089419 0.650178 0.541477 0.990855 0.057390 0.165711 0.223669 1.884869 -0.746077 1.035129
84103 1.811673 -0.374333 -0.086985 0.890296 -0.506384 1.045606 1.322062 -1.139570 -0.657370 0.658138
647107 1.253468 0.913114 0.063598 -0.186365 -0.206238 0.405923 0.657789 -1.349824 -0.930520 1.416332
5862 0.803749 1.054282 -0.370893 0.316991 0.250622 -0.356340 0.527350 -0.476422 -0.412078 -0.771882
7175 0.711848 1.127371 0.093415 1.682630 0.583186 -0.296390 1.108452 0.777717 -0.069798 1.386860
1278 1.778223 1.746951 0.107914 0.693947 0.958221 1.161582 -1.559946 0.448548 -1.415213 0.074515
1289 1.632418 1.731379 -0.064768 0.594376 1.142109 1.082213 -1.364865 0.481815 -1.481679 -0.165405
79798 1.394234 0.945085 -0.172549 0.285993 0.905228 -0.681238 0.617763 -1.041947 -1.321197 -0.867865
51073 -0.044656 1.189534 -0.542563 0.752428 -0.240029 -0.589742 1.140948 1.088095 -2.382499 -0.325399
5605 0.339189 0.988768 0.456429 0.592246 0.243436 -0.152258 0.977792 0.999478 -2.112234 -0.875756
6183 0.097016 1.376387 -0.836813 1.032400 -0.720082 -0.785725 0.821919 1.296201 -1.928152 -0.485785
100508009 1.453078 1.271639 -0.333695 0.381369 0.408138 -0.492013 0.709691 -1.222826 -1.196314 -1.337643
339263 1.425186 1.346486 -0.108256 0.091945 0.322483 -0.317578 0.720939 -1.347753 -1.198939 -1.025209
84070 1.415229 -0.284035 0.371694 1.347580 -0.411761 1.198910 1.010253 -1.360313 -0.684633 -0.045691
5901 0.018072 1.256277 -1.088880 1.825694 -0.713384 -1.197869 0.642157 1.455662 -1.578776 0.662277
2783 0.471649 1.084559 0.650867 0.746627 0.010815 -0.185540 0.771527 1.302920 -1.853092 -1.102973
4076 0.824847 0.727675 -0.080665 0.984575 -0.071104 -0.084337 0.668002 1.849956 -1.042162 1.246434
6665 1.293646 -0.387535 -0.283212 1.111895 1.551706 -0.146139 0.547628 -0.426033 -1.327101 0.080166
9537 0.847948 0.851320 -0.149067 0.274804 -1.137449 1.853130 0.265490 -0.196360 -1.617058 0.292085
100130264 1.598130 -0.117778 0.429325 1.384382 -0.335785 1.344284 1.106300 -1.145325 -0.297644 0.535599
160 0.437748 0.281985 0.815103 0.327820 0.963124 -0.947801 0.737263 0.023711 -1.804933 0.746754
100133790 1.446160 0.727301 0.116047 -0.372400 -0.235721 0.461652 0.691723 -1.341969 -1.482289 -0.317775
163702 0.625782 0.558286 0.111286 0.886775 -0.999030 2.050292 0.066284 -0.550757 -1.835036 0.135253
5818 1.297452 -0.509836 -0.376672 1.144250 0.571369 0.471794 0.895572 -0.670464 -1.113548 -0.697664
57125 0.604853 -0.249976 -0.234281 1.198576 0.871244 1.180634 0.389252 -0.600267 -1.751602 -0.172379
23190 0.765829 1.043698 0.448810 1.370009 0.511482 0.051487 0.729325 1.292672 -0.432484 1.519893
80161 1.047339 -0.093934 -0.052349 1.666182 -0.312901 1.375625 1.122331 -0.958139 -0.580905 -0.499193
81794 1.072519 -0.095071 -0.145384 1.217908 1.768796 -0.090550 0.694166 -0.468468 -1.323616 0.138488
100303728 1.281483 0.618719 -0.709567 0.897718 1.198976 -0.631756 0.716082 -0.918639 -1.102635 -0.770292
2665 0.449791 1.229453 -0.163260 1.196624 -0.208349 -0.097853 0.333619 2.031257 -1.211098 1.035889
928 1.320719 -0.623017 0.342855 1.214172 -0.357508 1.295105 0.674959 -0.922846 -0.977871 0.558868
55771 1.416301 0.116343 -0.192120 0.688626 -0.053192 -2.501818 0.884727 0.086020 -1.198851 0.917943
170302 1.572812 1.021619 0.053681 -0.038525 0.064131 -0.133621 0.646253 -1.321244 -1.294426 -0.995793
199 2.370585 -0.009117 1.557093 0.972044 -0.779776 1.216937 -0.103577 0.143457 -0.327791 -0.273519
80122 2.091924 0.255719 -0.413692 0.992242 -1.530446 1.191235 0.198152 -1.200479 -0.111550 0.324183
388552 1.241462 0.015993 -0.473385 1.217308 1.498604 -0.064031 0.678442 -0.709142 -1.525150 -0.576751
645191 0.559418 0.719836 -0.665742 0.675478 -0.596155 1.745440 0.065132 -0.512926 -2.069138 -0.498350
10743 0.802803 0.073313 0.060753 1.252097 -0.068929 1.324268 0.530868 -1.145375 -1.400850 -0.924850
57111 1.986959 0.333319 0.097615 -0.419017 -0.966864 -0.783663 -0.691336 0.025367 -2.124435 0.074361
51705 1.840226 0.742637 1.226172 1.233321 0.866798 0.734281 -1.505000 -0.419437 -0.808748 0.696458
729262 0.610415 -0.517561 -0.289761 1.402446 1.174661 0.575863 0.627307 -0.371624 -1.717132 -0.077523
729177 1.182007 0.306159 -0.524313 1.088968 1.546689 -0.574294 0.492336 -0.771937 -1.408894 -0.439074
84267 0.829635 0.850485 0.857556 0.604107 -0.013869 -1.884112 0.467025 -0.136792 -1.181030 1.139410
170960 0.714418 0.905273 0.806406 0.672712 -0.193977 -1.780284 0.520104 -0.272699 -1.017860 1.242401
8899 0.529546 0.932406 0.324393 1.399873 0.272584 -0.209579 0.688391 1.263826 -0.513503 1.251243
23617 0.635692 0.048852 -0.751397 1.072531 -0.822001 1.666228 0.554875 -0.845212 -2.021385 -0.119046
142689 1.653913 -0.047803 0.264543 1.336469 -0.306111 1.300055 0.856192 -1.050828 -0.067340 0.571935
64231 2.707776 0.440614 1.460985 1.196326 -0.289092 0.401029 -0.504003 0.639809 -0.320167 -0.754302
4542 2.290992 0.151515 1.745902 1.415618 -0.215812 0.008797 -0.094595 0.586093 -0.684992 -1.167140
7001 0.703607 0.869106 0.901294 0.552387 0.017213 -1.769913 0.551239 -0.162524 -1.135453 0.897943
6991 1.104432 0.527328 0.029381 1.405158 -0.413521 1.129338 1.305335 -1.016226 0.320799 0.443055
284939 0.513027 0.671884 -0.202775 0.692989 -1.082210 1.857179 0.190016 -0.278231 -1.619411 0.226708
54799 0.839225 0.815669 0.845098 1.009313 0.039410 -1.578416 0.850657 0.087811 -0.603830 1.255952
121643 0.607165 0.223970 -0.137866 1.377954 -0.736908 1.608494 0.470042 -0.871870 -1.515301 -0.839393
5833 0.764315 0.061700 -0.284964 1.036660 1.568961 -0.556237 0.642298 -0.340558 -1.808968 -0.157608
6165 -0.458718 1.992841 0.397909 1.153712 0.085764 -2.035121 0.106809 -0.463940 -1.667182 1.001241
8498 1.120532 -0.033951 -0.408602 1.132979 1.669861 -0.277522 0.485520 -0.437492 -1.430313 -0.023472
27332 0.980227 1.377975 0.704667 1.248707 0.024928 -1.291051 0.857503 0.721705 -0.212116 1.268768
81542 0.797132 1.027182 -0.253632 1.279811 -0.396080 -0.129763 0.156163 2.047650 -0.862585 1.192996
11316 0.265271 1.413332 -0.013773 0.850279 -0.197447 -0.549118 0.644047 1.374859 -1.890970 -1.002749
3817 1.182828 -0.073730 0.139073 1.000278 -0.777817 1.595660 0.408586 -0.701792 -0.889515 0.453111
284805 1.280704 0.148028 0.671076 0.953855 -0.590537 1.414801 0.769089 -1.143249 -0.663674 0.602272
100133612 0.367932 0.680143 -0.403818 0.709930 -0.803817 1.622298 0.148544 -0.700501 -2.104787 -0.474611
1303 1.932457 1.735808 -0.147501 0.703558 0.994778 0.944772 -1.503877 0.674199 -1.202245 0.045781
5309 0.749061 -0.395358 -0.862504 1.728582 0.851836 0.294906 0.641124 -0.511438 -1.560361 -0.963678
2969 1.281998 0.562850 0.310536 0.538624 0.019495 -0.080411 0.903492 1.601831 -0.792608 1.306077
54754 1.193925 -0.348718 -0.378498 0.933664 1.425662 0.497093 0.587629 -0.753192 -1.628078 0.171812
22849 1.287304 -0.216562 -0.287200 1.146871 1.708613 -0.359651 0.689135 -0.426456 -1.289069 0.157029
348808 0.667393 1.081122 0.105169 0.111888 -1.236824 1.495071 0.362868 -0.569915 -1.448197 0.893414
84334 0.815103 1.022768 0.749630 0.425889 -0.175060 -1.796033 0.451295 -0.159341 -1.133985 1.154732
647589 0.638474 0.370710 0.147873 0.893611 -0.848801 1.867350 0.364631 -0.652924 -1.742417 -0.155964
440423 0.849899 0.851531 0.856514 0.702196 -0.063314 -1.792409 0.734907 0.123238 -0.903023 1.090508
100507156 1.081438 0.729971 0.284336 0.360705 -1.103555 1.750184 0.349961 -0.299387 -1.117635 0.795198
2193 0.222272 1.142871 -0.737390 0.734079 -0.233865 -0.440339 1.406227 1.326082 -1.997262 -0.095820
27153 1.459856 0.783638 -0.529781 0.635270 0.433656 0.192254 0.638115 -0.988328 -1.527486 -1.669927
9622 0.483988 -0.013694 -0.225762 0.744818 0.323912 1.228639 0.508970 -0.500170 -1.298081 0.244812
142678 1.442281 1.308782 -0.161782 0.279688 0.093101 -0.125315 0.970223 -1.282300 -1.002863 -1.299446
51719 1.026605 0.585580 0.524807 1.201879 -0.003107 0.116893 0.336994 1.864347 -0.850328 1.282136
5726 1.421312 0.513622 0.910213 0.220091 -1.066280 1.420799 0.599286 -0.728441 -1.134831 0.974182
1281 1.932778 1.726958 0.203969 0.755186 0.871008 1.376181 -1.580843 0.481019 -1.323596 0.079974
3689 2.300218 0.483605 1.480029 1.267450 -0.296476 0.164842 -0.100355 0.737028 -0.539236 -1.332996
6547 0.798771 0.243287 -0.316049 1.558493 -0.629368 1.785884 0.570208 -0.504682 -0.715547 -0.596276
9138 0.839726 0.456103 1.452746 0.382658 -0.001344 -1.403718 0.665149 -0.023007 -1.198466 0.402051
4335 1.600249 1.179333 -0.294271 0.294585 0.323768 -0.253773 0.732023 -1.294981 -1.279363 -1.434667
1660 0.736060 0.449445 0.041305 1.157798 0.365376 -0.195369 0.947862 1.323381 -0.801075 1.434014
283579 0.910142 0.231936 -0.723219 0.869259 -0.596638 1.871333 0.570798 0.078109 -1.234624 0.288253
7534 0.701918 0.849808 0.035777 1.344932 0.123898 -0.029091 0.261586 2.106525 -1.045015 1.001684
2658 1.614659 0.202214 -0.460538 0.788336 1.131492 -0.015255 0.685790 -1.037731 -1.391935 -0.831079
1629 0.991582 0.983029 0.811146 0.511295 -0.130154 -1.677700 0.523150 0.175829 -0.864378 1.208609
340178 1.523410 -0.191721 -0.112099 1.280983 -0.561956 1.425396 0.943457 -0.627932 -0.223576 0.590639
93444 1.051480 -0.144561 0.397183 1.133069 -0.651288 1.734162 0.645204 -1.180477 -1.536510 0.215372
257106 2.240222 0.462964 1.003373 0.847151 0.629664 -0.595836 0.599351 -0.362606 -0.348336 -1.325068
4000 1.200770 0.010903 -0.157760 0.990524 1.717052 -0.244064 0.321813 -0.107633 -1.534813 -0.353147
55194 1.673345 0.083346 -0.558982 0.913150 0.826926 0.551233 0.506100 -1.081848 -1.612624 -1.216194
474358 1.582611 -0.224588 0.431525 0.901642 -0.958154 1.661006 0.467652 -0.652751 -1.024548 0.758088
6203 -1.051814 1.244862 -0.476723 1.811932 -0.655191 0.757030 0.340628 -0.604748 -1.176736 -0.499804
4924 0.637998 1.229027 0.898262 0.468434 0.331664 0.265402 0.729525 1.300184 -1.728675 -0.736722
54800 0.655856 0.782019 1.040463 0.739273 -0.063741 -1.616004 0.398335 -0.019102 -0.930314 1.081370
1290 1.686775 1.623232 -0.057795 0.798054 0.883343 1.135083 -1.538852 0.591788 -1.259870 0.011751
9126 0.584479 0.629303 -0.414685 1.886935 0.520507 -0.360135 0.920773 0.716277 -0.180981 1.442252
26539 1.687837 0.860888 0.154779 -0.182867 -0.299826 0.458175 0.856513 -1.473718 -1.534016 -0.846682
10574 -0.098438 1.464057 -1.052249 1.183999 -0.755553 -0.850329 1.185324 1.216022 -1.991243 0.412943
2191 1.784541 1.724178 -0.128297 0.914388 0.971142 1.193160 -1.588002 0.548600 -1.325564 -0.317073
28639 1.870362 0.775832 1.749318 2.441523 0.014163 -0.408530 -0.291215 -0.819586 0.012487 -1.090593
6581 0.806355 0.899294 0.758015 0.416761 -0.001383 -1.660019 0.479553 -0.255825 -1.142584 1.220971
414245 1.184395 0.906926 0.645926 0.299673 -1.088658 1.569559 0.379197 -0.441183 -0.857122 1.124407
4150 0.661281 0.477804 0.108310 0.553849 1.351273 -0.287804 0.991335 0.312914 -1.640726 -0.399999
399876 1.639258 0.250298 0.901381 0.743828 -0.813278 1.492455 0.356108 -0.846835 -0.677330 0.795579
4170 0.993606 0.471821 0.370689 1.055065 0.584877 -0.194396 0.139376 1.708912 -0.767014 0.106278
6678 1.724526 1.779233 0.180568 1.079389 0.885204 1.046847 -1.547894 0.662950 -0.750142 0.339444
257218 1.152567 1.005874 -0.176046 1.765530 -0.478003 -0.603540 0.965858 0.508255 0.404751 1.525864
23245 1.094930 1.088130 -0.092688 0.157144 0.033566 0.171752 0.324814 -1.140644 -0.995109 2.130161
55500 1.236397 0.869634 -0.103685 1.662925 -0.360765 -0.590531 0.619137 1.018973 0.496635 0.788494
80216 0.848449 0.958254 0.901881 0.514979 -0.052097 -1.821354 0.621073 -0.084083 -1.191345 1.245942
23215 0.234312 1.189418 0.265885 1.894817 0.884201 -0.102904 0.960872 0.604290 -0.185395 1.063290
55957 1.215380 0.225783 -0.471511 0.950631 1.236220 -0.362129 0.705188 -0.772234 -1.418340 -0.702728
10288 2.441656 0.045496 1.522831 1.377736 -0.218453 0.337633 -0.395455 0.946496 -0.876816 -1.107928
4921 1.639725 1.808823 0.294775 0.913426 1.043688 1.008739 -1.539091 0.221334 -0.955642 0.399973
4638 1.536545 0.394892 -0.020188 1.018999 -0.191213 1.894594 -0.035113 -0.194774 -0.202103 0.582684
5663 0.943011 0.847903 0.491990 0.773721 -0.302785 0.177660 0.443477 1.877507 -0.855091 0.845159
10859 2.246065 0.215334 1.504421 1.527029 -0.168838 0.333520 -0.185543 0.631774 -0.701309 -1.342060
10963 0.870222 0.736238 -0.339518 0.796512 0.078730 -0.162036 1.040537 2.076361 -1.357361 0.608624
394261 0.826925 0.251279 -0.642599 1.328974 -0.443549 1.789574 0.484912 -0.098724 -0.722137 -0.420794
5652 1.998601 0.494492 0.318902 -0.532154 -0.880813 -0.819724 -0.684819 -0.108059 -2.308032 -0.017224
22924 1.005816 0.118739 -0.309065 1.166688 1.672432 -0.432922 0.744162 -0.683411 -1.575347 -0.103683
57551 0.870389 0.822223 0.897016 0.688823 0.386677 -1.188346 0.614380 0.031786 -0.569355 1.256741
23126 0.850967 1.126870 0.955250 0.640257 0.009777 -1.646567 0.742767 0.182667 -0.872646 1.163573
79023 0.587487 1.019629 -1.326303 1.560173 -1.494838 -1.218369 0.559531 1.024890 -0.991069 0.902692
5034 0.804893 1.248561 0.157120 0.759078 0.123617 0.147749 0.617789 2.080715 -1.275146 -0.313086
22931 0.407809 1.320643 0.803847 1.936945 0.017310 -1.084950 -0.045343 1.225051 -0.547454 1.028381
10772 0.535153 0.587526 -0.233052 2.010407 -0.095271 -0.748127 0.648761 1.045438 -0.399780 1.443161
421 0.670810 0.107009 -0.374808 0.918678 1.486831 0.190935 0.605398 -0.702828 -1.809879 0.044056
963 2.504536 0.622910 1.540129 1.727952 -0.069495 0.078980 -0.097856 0.443164 -0.043141 -1.188959
55142 0.771404 0.829271 0.681602 0.599043 -0.119479 -1.878853 0.562300 -0.202811 -1.226058 1.283840
29927 0.809439 0.826813 0.284045 0.733748 0.208445 0.203482 0.752395 1.973496 -1.209119 0.276327
139629 0.606987 0.496750 -0.331174 0.691467 -1.072441 1.759812 0.270296 -0.419772 -1.729877 0.061285
3483 1.134389 -0.351871 -0.277383 1.435829 1.375551 -0.238336 0.538321 -0.918444 -1.517038 -0.351339
7010 1.790773 0.122996 1.083732 1.087389 0.094156 1.945390 -0.230350 -0.790772 -0.756636 0.732470
30008 1.395294 1.834908 0.151831 0.537953 1.078463 1.024784 -1.088102 0.476585 -1.273099 -0.178078
54729 0.563006 -0.084920 -0.238537 1.690183 -0.640722 1.320223 0.592057 -0.580510 -0.705919 -0.595856
64844 0.567346 0.890461 0.782545 1.618747 -0.309282 -0.468700 0.224039 1.186460 -0.492843 1.536387
284119 1.577955 1.537371 0.286206 0.382277 1.031440 0.545885 -1.118901 0.736083 -1.194027 0.036522
81856 0.741606 0.989658 0.961556 0.722396 -0.109858 -1.952014 0.624155 -0.094160 -1.171102 1.211065
80004 1.928654 0.379974 0.021570 -0.595890 -0.832387 -0.702684 -0.584168 -0.029591 -2.252985 0.039539
147906 1.241446 0.809545 -0.440445 0.615462 1.087989 -0.423525 0.409786 -1.023159 -1.007645 -0.720243
5239 1.423001 1.140755 0.390568 -0.017724 0.399226 0.656002 -0.147138 -0.822815 -0.923501 1.990091
54469 0.619414 1.522684 0.924441 1.462370 0.397773 -1.545641 0.189326 0.800989 -0.478729 0.709272
1842 1.870095 1.763536 0.710254 0.799539 0.860317 1.051818 -1.678788 -0.073235 -1.154358 0.595776
348180 1.527325 0.709234 -0.434864 0.456301 0.886909 -0.291976 0.615406 -0.970445 -1.388674 -1.100849
496 0.901171 -0.060956 -0.878769 1.098732 -0.875510 1.037316 -0.130238 -0.798335 -1.806575 -1.205539
25912 0.363711 1.571992 -0.168979 1.150231 -0.452555 -0.057370 0.428008 2.110734 -1.223548 0.805223
699 1.684406 -0.294773 -1.794480 1.506271 -0.601682 -1.433046 1.073945 0.799730 -1.381155 0.549668
7323 0.418241 1.120677 0.864961 1.546398 0.156437 -1.476689 -0.023558 1.195750 -0.969910 1.106127
55793 0.715065 0.924963 0.830380 0.438596 -0.056562 -1.685628 0.513124 -0.377393 -1.173601 1.203439
7916 0.246128 0.700835 0.755868 0.591629 0.530861 -0.059819 1.413042 0.530293 -2.128338 -0.338106
929 2.513851 0.279950 1.446850 1.341174 -0.192668 0.412036 -0.725827 0.975733 -0.742564 -0.906209
100507630 1.656693 1.204650 0.109750 -0.103711 0.142805 -0.148937 0.789582 -1.403502 -1.143179 -0.858240
55631 0.664939 0.470541 0.529315 1.032413 -0.063327 -1.675615 0.217421 0.129829 -0.955376 1.646743
2260 0.779735 0.853136 0.874931 0.423903 -0.034253 -1.606806 0.580753 -0.307417 -1.199581 1.205222
7545 1.149150 0.277051 -0.838763 1.232991 0.631682 -0.230490 0.188101 -0.636174 -1.365437 -1.538635
4085 1.201667 0.188511 -1.821406 1.630994 -0.507224 -1.216104 0.765584 1.151235 -1.060508 0.664537
440602 1.214478 0.244969 0.522339 0.825177 -0.972214 1.810674 0.364916 -0.564653 -1.039776 0.747895
1520 2.330184 0.687896 1.468533 1.426300 -0.526323 0.046079 -0.318190 0.855657 -0.158769 -0.948407
55388 1.525765 -0.173285 -1.965560 1.553090 -0.792049 -1.426674 1.268389 0.763212 -1.516989 0.569625
65993 0.121780 1.269003 -0.503484 0.600824 -0.851905 -0.833524 1.169113 0.720715 -2.279129 -0.598254
57555 0.536744 0.310442 -0.341910 0.856796 -0.115814 1.802303 0.245092 -0.055367 -1.415592 -0.011346
6616 0.262515 1.747676 -0.780192 1.518210 0.436480 0.612509 -0.662824 -1.897493 -1.100620 0.460738
57636 1.527251 0.678691 -0.411146 0.586300 0.870404 0.057197 0.761610 -1.002996 -1.287086 -1.200681
51253 -0.011754 1.182211 -0.886329 1.059698 -0.614225 -0.824719 0.760657 1.279175 -1.979107 -0.161956
7072 1.067291 1.189642 0.059863 1.406384 -0.551207 -0.674904 1.298001 0.418157 0.371385 1.110857
5861 0.310725 0.942388 0.201229 1.841281 -0.222477 -0.110230 -0.290742 1.868536 -0.893212 0.789726
493754 0.809957 0.834603 0.792498 0.325152 0.050519 -1.557471 0.525016 -0.550541 -1.045293 1.085581
283601 0.437819 0.525055 -0.091628 0.806505 -0.925051 1.821244 0.157167 -0.597195 -1.920234 -0.066417
3832 1.564423 -0.201883 -1.848785 1.663924 -0.552260 -1.412232 1.218916 0.928344 -1.298001 0.699442
58508 0.523996 1.082015 0.832642 1.839596 0.806305 -0.173216 0.915345 0.545513 -0.127374 1.191667
646482 1.885051 -0.086860 0.646701 1.119048 -0.714847 1.480091 0.481692 -0.833267 -0.374201 0.958012
9341 0.859837 0.940808 0.376005 1.102434 -0.072508 0.164818 -0.097409 2.123948 -1.033234 0.994084
399664 1.117563 0.412950 -0.717017 1.122148 1.159372 -0.421623 0.567784 -0.508196 -1.041442 -0.967052
3910 1.723136 1.689427 0.422286 0.956366 0.977463 1.061410 -1.637376 0.462851 -1.178342 0.415881
3055 2.410470 0.215234 1.448131 1.222838 -0.481608 0.206766 -0.250423 0.699690 -0.612880 -1.114478
25836 0.543351 1.008046 0.631897 1.822555 0.561982 -0.115939 1.024890 0.471710 -0.073348 1.420833
51433 1.056763 0.869521 0.102050 0.642608 0.143269 -0.194657 1.054726 1.720247 -0.884320 0.964970
800 1.753169 1.604639 0.139042 0.736649 1.008242 0.485966 -1.364158 0.696783 -0.687643 0.677529
3308 0.842365 0.484649 -0.042125 1.146081 -0.189653 -0.278114 0.585914 1.883033 -1.102503 1.275574
988 0.354442 0.368683 0.015689 0.776376 -0.039821 0.213673 0.372833 0.950857 -1.165173 1.868798
3326 0.376206 1.088674 -0.308408 1.048624 0.236391 -0.248109 0.682598 1.829121 -1.365763 0.954902
5434 0.514326 1.229855 -0.215890 0.543406 0.067385 -0.290165 0.893143 1.541202 -1.700217 -0.534142
57731 1.471407 0.992289 -0.381448 0.465922 0.763213 -0.114640 0.778900 -1.177871 -1.288940 -1.172937
2618 0.560177 0.888188 -0.666864 0.759912 -0.811458 -0.658191 1.335530 1.343531 -1.490823 1.511229
10606 0.096315 1.067437 -1.209293 1.377287 -0.803964 -1.049957 0.981332 1.083559 -1.683828 1.155832
55754 1.058373 0.686215 0.470957 1.372029 -0.191707 0.031960 0.010580 1.969723 -0.697333 1.132666
83659 2.426424 1.026147 -0.849817 1.185113 -1.978118 -0.036513 -0.317990 -1.707961 -0.070413 -0.076943
5378 0.882217 1.469114 -0.561090 1.367505 -0.731658 -0.613926 1.540865 0.453315 0.157729 1.277571
27303 1.658234 1.819654 0.614483 0.796014 0.752195 0.693926 -1.475617 -0.013443 -0.627102 1.076870
8434 0.899409 1.341815 0.407454 -0.008837 0.187272 0.247400 -0.641724 -0.011480 -0.664742 1.422546
2128 1.116173 0.166271 -0.433092 1.249373 1.487778 -0.330509 0.449633 -0.821555 -1.564781 -0.675231
59283 1.572132 0.642296 -0.376133 0.433105 -0.333853 0.657069 1.036534 -1.025466 -0.873201 -1.261211
196528 0.841879 1.408542 0.765272 1.257912 0.201205 -1.656356 0.452393 0.704949 -0.448433 1.058635
100129845 0.980350 0.464158 -0.041146 0.480215 -0.925160 1.952131 0.449504 -0.243011 -1.637261 0.444669
7407 0.290212 0.629492 -0.077979 0.493663 -0.222710 -0.178321 1.631622 0.892785 -2.032809 -0.272909
83983 1.171012 -0.082890 -0.962191 1.386977 1.024307 -0.254350 0.624071 -0.676783 -1.189723 -0.799400
2873 0.222290 1.186725 -0.349729 0.753774 -0.352605 -0.572073 1.227545 1.046845 -1.987036 -0.837890
283849 0.444207 0.319068 -0.139221 1.326190 -0.829326 1.795672 0.249577 -0.675091 -1.561583 -0.416781
283298 1.845859 1.786704 0.669608 0.833466 1.041654 1.219854 -1.598854 -0.130973 -1.232313 0.580065
138804 0.592768 0.962621 0.065982 0.419207 -1.253504 1.777987 0.251809 -0.550594 -1.748984 0.122963
8402 0.577550 1.638466 -0.319525 0.416325 -0.610116 -0.260267 0.910200 1.552464 -1.540366 -0.517950
6667 1.154620 0.466282 0.613148 0.868025 0.228775 0.130529 0.652978 1.648782 -0.814065 1.267364
84787 0.795800 -0.127336 -0.295882 1.054569 1.526820 -0.076082 0.707354 -0.605398 -1.829805 0.132252
219972 2.704626 0.427871 1.408047 1.410396 -0.238468 0.401901 -0.517588 0.666590 -0.292152 -0.963279
56893 0.792940 0.736670 0.785905 0.289937 -0.128642 -1.623543 0.695127 -0.151588 -1.337167 1.008929
1295 1.882972 1.774434 -0.124404 0.693553 1.030846 0.983290 -1.519720 0.586661 -1.250648 0.065861
282763 1.598110 0.550914 0.600507 0.721425 -0.786129 1.619265 0.183673 -0.532372 -0.483181 1.259662
3854 2.406835 -0.259119 -0.847358 0.472827 -0.251901 -0.326992 -1.507513 0.198724 -2.017345 0.162090
126328 0.017966 1.920452 -0.796437 1.000847 -0.763364 -0.861230 0.379987 0.842896 -1.647106 -0.848985
113130 1.551502 -0.184879 -1.912967 1.428537 -0.740570 -1.353348 1.342604 0.855690 -1.620697 0.206629
10320 2.108591 0.554718 1.606303 2.017603 0.136762 -0.378722 0.187771 -0.025170 0.230609 -0.887798
1314 1.323608 0.513550 0.502689 0.736629 0.165225 0.007880 0.792386 1.813752 -0.901641 1.138208
27125 0.637185 0.735501 1.178131 1.681036 0.311549 -0.893980 0.151892 0.987997 -0.604178 1.303886
80218 0.516538 0.678451 -0.164518 1.763109 -0.206647 -0.345540 0.140894 1.828988 -1.027343 1.499014
22803 0.525001 0.857075 -0.030600 1.171272 -0.140246 0.088334 0.523973 1.867338 -1.085751 1.136160
100506002 0.788624 0.105747 0.098331 1.126406 1.567969 -0.533033 0.947834 -0.535642 -1.540401 -0.237195
161142 1.952469 -0.019160 0.502496 0.593383 -0.770420 1.451576 0.651081 -0.859431 -0.739389 1.073085
285191 1.541977 -0.185719 0.312243 1.212986 -0.093956 1.066476 1.147964 -1.271601 -0.860259 -0.779624
149773 0.897139 0.009540 0.324323 1.182902 -0.351173 1.740412 0.423212 -0.937597 -1.500546 -0.448774
339768 0.570821 0.386485 0.215643 0.917357 -0.693035 1.587484 0.248255 -1.023155 -1.967690 -0.635033
79369 0.633650 -0.103852 -0.884364 0.950429 0.096513 1.528890 0.436057 -0.147895 -1.841309 -0.092922
1495 1.261194 0.710625 0.476221 0.468185 0.108646 0.020181 0.321329 1.824078 -1.000324 1.004595
493869 1.683929 1.815673 -0.165302 0.677583 0.898978 0.717459 -1.513613 0.724583 -1.067117 0.337398
513 -0.102060 1.483502 -0.000701 0.638996 -0.269066 -0.609860 0.746103 0.560771 -2.253417 -0.951604
64151 1.594763 -0.277754 -1.819999 1.578222 -0.570228 -1.641205 1.190184 0.724766 -1.527257 0.522025
57534 1.715832 1.242440 -0.349142 1.105333 0.706903 0.218862 0.914805 0.411414 0.787260 1.126671
100132832 0.832439 1.066423 0.964905 0.516616 0.063592 -1.719188 0.854856 -0.011565 -0.978410 0.920369
92609 -0.028292 1.118422 -0.966386 0.974325 -0.528696 -0.644808 1.113346 1.066905 -2.243575 -0.402773
29106 0.221029 1.556286 -1.007068 1.575048 0.296372 0.290693 -1.020003 -1.952270 -1.452658 0.490295
633 1.794738 1.724848 0.198844 0.823782 1.271040 1.255863 -1.459752 0.403665 -1.551401 -0.199750
283303 0.451527 0.741385 0.199793 0.516351 -0.864263 1.408430 0.439969 -1.128138 -2.006497 -0.413496
100302691 1.845851 0.265468 0.598674 0.590515 -0.162847 0.978404 1.016151 -1.754494 -1.174304 -0.687065
1291 1.504149 1.606787 0.183603 0.394424 1.196109 1.181044 -0.914492 0.699607 -1.544000 -0.173994
5710 0.668592 1.236009 -0.725049 0.030923 -0.189664 -0.475632 0.771400 -0.300575 -0.766395 -0.765762
914 1.960181 0.723197 1.858931 2.564650 -0.201239 -0.404240 -0.450455 -0.729541 -0.048177 -1.063203
79149 1.143639 0.154158 -0.729001 1.195309 -0.100073 1.117025 0.859293 -0.495884 -0.840932 -1.162828
51512 1.271591 -0.552637 -1.023685 1.104011 0.641963 -1.644185 1.018196 -0.084625 -1.350808 0.383271
125 1.753526 0.965916 1.331041 0.938081 0.723985 0.609286 -1.643020 -0.853270 -1.246357 0.534837
266917 1.293564 0.336497 0.503490 0.583944 -0.903158 1.684937 0.343415 -0.580783 -1.090880 1.038525
11167 1.816370 1.868756 -0.007279 0.683338 1.002005 0.799515 -1.455863 0.642612 -0.945069 0.423317
57092 0.350323 1.112684 0.264575 1.588934 -0.040139 -0.116343 -0.012278 1.630912 -0.888899 1.410290
55249 0.636812 0.748492 0.761880 0.275909 0.047046 -1.527342 0.658502 -0.283032 -1.306358 0.904818
2194 1.506720 1.008042 -0.648249 0.404807 0.499642 -0.416203 0.696802 -0.936912 -1.227589 -1.344130
55651 -0.186854 1.744146 -1.159834 1.074315 -0.774513 -1.000872 0.918770 0.755645 -1.886680 -0.085356
6093 0.942976 0.680198 -0.250130 0.378178 0.279667 -0.043266 0.852090 -0.637130 -0.527848 -0.755159
2905 0.786856 0.834317 0.064915 0.401428 -1.238594 1.842017 0.352552 -0.347773 -1.565526 0.496776
400512 1.127684 0.470684 -0.346618 0.724262 -0.810399 2.075094 0.430659 -0.070609 -1.246560 0.606363
546 0.868212 1.324053 0.283365 1.502245 0.587905 -0.265059 0.934318 0.472959 0.190933 1.349565
23499 0.847438 1.145822 0.961767 0.490981 0.120900 -1.644946 0.426506 -0.126386 -0.918667 1.044479
1999 2.090314 0.251091 0.191040 -0.261699 -0.813965 -1.059967 -0.723683 -0.182666 -1.873825 -0.022363
732253 1.814319 -0.241180 0.394172 1.205893 -0.603491 1.591467 0.563288 -1.070440 -0.671921 0.905184
10261 2.667468 0.343869 1.402050 1.524561 -0.519143 0.264086 -0.493619 0.876523 -0.415272 -1.016210
51324 0.643346 1.022712 0.829421 0.332982 -0.200927 -1.527599 0.461313 -0.192861 -1.229861 1.136160
79664 1.300574 1.018786 0.028689 0.847459 -0.475891 -0.395984 1.033842 1.320119 -0.354049 1.657041
29775 1.093577 -0.460440 -0.393948 1.353902 1.149009 0.084559 0.726933 -0.647503 -1.361775 -0.439799
128346 2.611062 0.319637 1.561636 1.454104 -0.264620 0.155469 -0.231922 0.479660 -0.372249 -1.114968
5159 1.694708 1.629825 0.456115 0.855829 1.342017 1.265778 -1.339973 0.195006 -1.472673 -0.124887
55366 1.483730 1.267247 -0.352707 0.411476 0.371359 -0.301729 0.747952 -0.970481 -1.105844 -1.481882
6833 1.901744 0.889245 0.221726 0.168991 -0.222725 0.568042 0.437185 -1.633174 -1.337157 -1.232137
26341 1.425479 0.924327 -0.087312 0.040477 0.163963 0.221956 0.258470 -1.257527 -1.028526 2.069975
56992 1.663072 -0.235487 -1.857849 1.442765 -0.618501 -1.402847 1.229179 0.707111 -1.341497 0.646383
4706 -0.144901 1.606007 -0.959213 1.655060 -1.732292 -1.133107 0.425180 0.839343 -1.566873 0.258709
890 1.561112 -0.154342 -1.886342 1.478314 -0.499231 -1.504927 1.064057 0.734614 -1.440254 0.551357
113091 0.466597 0.201260 0.062945 1.078684 -0.768023 1.626424 0.282312 -0.970558 -1.888961 -0.298550
23241 0.234494 0.701773 0.087603 0.355643 -0.913254 1.421419 0.309048 -0.183271 -1.732353 -0.081382
283335 1.011175 -0.053500 -0.504493 1.284499 1.590179 -0.282713 0.722953 -0.626061 -1.662077 -0.148673
23072 0.918836 0.531153 -0.470431 0.402069 -0.668667 1.844829 0.299657 -0.480473 -1.893332 0.115030
1141 0.880522 0.883434 -0.823663 0.357582 0.481003 0.885018 0.485913 -1.118442 -1.907201 -0.823318
221122 1.841629 0.333995 0.527218 0.534124 -0.063672 1.108054 1.391932 -1.599602 -0.818799 -0.118837
55215 1.690859 -0.205624 -1.802955 1.528705 -0.755720 -1.428324 1.365221 0.847581 -1.324429 0.587932
4054 0.831647 0.028984 -0.430838 1.239727 1.665605 -0.050611 0.499774 -0.502832 -1.437811 -0.091868
64854 0.759089 0.826172 -1.040577 0.224202 -0.969117 1.575301 0.515460 -0.188742 -1.688502 0.156235
23350 0.418532 1.102555 0.232982 2.042108 0.354700 -1.346219 0.802459 0.709021 -0.318567 1.096582
80233 1.153211 1.024050 -0.120400 0.009848 0.200912 -0.310272 0.939268 -0.883029 -1.216680 -0.941473
7707 0.940305 0.978960 0.497837 1.671872 -0.129683 -0.248287 0.971877 0.558659 0.352022 1.241031
29992 2.388973 -0.065321 1.392203 1.371045 -0.467933 0.285981 -0.478133 0.882355 -0.828453 -1.014614
1385 1.204646 0.875231 0.471440 1.187257 -0.091998 0.041777 0.817981 1.377294 -0.103476 1.320965
8539 1.000614 0.573194 -0.135410 1.112334 -0.256921 -0.038859 0.624532 1.898128 -0.979058 1.554278
80006 0.865197 0.845913 0.073965 1.984921 -0.896853 -0.646668 0.220603 0.867335 0.084539 1.462211
6651 0.574291 1.143879 0.484456 1.749475 0.667400 -0.064780 1.162594 0.606263 0.041907 0.858408
8192 0.021194 1.679289 -0.653669 0.820996 -0.478913 -0.889731 0.842203 1.002378 -2.248440 -0.742029
245812 1.041483 0.293773 -0.446851 1.066807 1.680919 -0.624375 0.798416 -0.665970 -1.389774 -0.114432
2357 2.387205 -0.312719 1.131542 1.565889 -0.277031 0.150889 -0.690217 0.965624 -0.842135 -0.910389
8773 1.165392 0.963663 0.453517 0.886474 -0.263937 0.086768 0.338165 1.919788 -0.675253 1.013251
11325 0.899988 0.739130 0.540238 0.896186 0.159572 -0.048146 0.941441 1.675964 -0.948482 1.247976
84859 1.068089 1.386427 0.962225 1.065942 -0.135355 -1.211953 0.777994 0.514904 -0.063478 1.034518
83540 1.700001 -0.186877 -1.906125 1.473390 -0.516457 -1.454116 1.129595 0.594057 -1.229659 0.770766
8607 0.266375 1.199921 -1.248814 0.904627 -1.032730 -0.968580 1.478493 1.054701 -1.930623 0.692413
7373 1.786994 1.626498 0.776097 0.878504 1.029316 0.940504 -1.540639 -0.338682 -0.976087 0.628176
5048 1.053965 0.671212 0.654253 1.274293 -0.124120 0.018308 0.652852 1.554409 -0.346741 1.197212
54845 2.011507 0.470298 0.032956 -0.552597 -0.985637 -0.699506 -0.548533 0.063965 -1.976810 0.096961
10558 0.935124 1.038513 0.145202 1.085220 -0.418545 0.067164 0.325350 2.078241 -0.867396 1.207368
80709 1.973215 0.050531 0.484722 0.589561 0.303820 0.255470 1.038008 -1.113562 -0.718487 -0.950318
7272 1.788998 -0.335627 -1.862361 1.647474 -0.629313 -1.568146 1.087230 0.802388 -1.336704 0.796527
649 0.885163 0.070522 -0.273686 0.850667 0.979686 1.739673 0.089963 0.174593 -1.566411 -0.070184
201595 1.051215 1.081852 -0.212666 0.495366 0.710781 -0.884052 0.696612 -0.822614 -0.632527 -0.792635
11189 0.731436 -0.344171 -0.156285 1.245873 1.405097 0.660938 0.570836 -0.692883 -1.720902 0.321787
84171 1.195771 0.698917 0.766752 0.359404 -0.982626 1.486781 0.567535 -0.376236 -0.866877 1.181061
7058 1.982834 1.616887 -0.091736 0.810073 1.017204 1.259926 -1.560990 0.403881 -1.403366 -0.148411
165140 0.448524 0.366577 0.205313 1.031119 -0.978937 1.762537 0.096298 -0.576472 -1.762114 -0.291449
2124 2.598206 0.575650 1.447652 1.749949 -0.011478 0.070968 0.059112 0.458057 0.138905 -1.042604
100287098 1.525915 0.667397 -0.356863 0.696570 1.138170 -0.478051 0.687391 -1.137162 -1.372947 -0.975957
57104 0.546042 -0.179347 1.001961 0.839853 0.505901 1.041087 0.764174 -0.397949 -1.475294 -0.060074
100287808 1.211055 0.893791 -1.070630 1.009678 0.502357 -0.093375 0.408807 -0.612883 -1.037648 -1.703404
219681 2.531934 1.195634 -0.867249 0.941282 -1.929771 0.137795 -0.176259 -1.579545 -0.010900 0.105178
11178 1.293340 -0.023532 -0.634429 1.208343 0.495653 1.166678 0.577063 -0.920526 -1.650484 -1.172960
29999 1.650400 -0.401500 0.292547 0.778141 -0.757888 1.461590 0.822613 -0.943609 -1.242357 0.891618
171024 2.440768 1.659084 0.682055 0.668368 1.249366 0.826392 -1.056349 -0.662704 -0.478916 0.905746
11339 1.729028 0.123795 -1.994186 1.353736 -0.839514 -1.417717 1.130357 0.964972 -1.276634 0.595174
11004 1.642480 -0.271835 -1.827379 1.425896 -0.670745 -1.441741 1.269680 0.791605 -1.606732 0.289217
6645 0.876597 0.308465 -1.116117 1.581415 1.041733 -0.046055 0.289914 -0.254935 -0.949104 -1.135286
128861 1.516913 -0.449011 -0.352236 0.962287 -0.898020 1.470993 0.932064 -0.897957 -1.228698 0.798921
23363 0.865956 0.077724 -1.335048 1.580922 0.376164 0.470408 0.281372 -0.505394 -1.289689 -1.316096
701 1.718052 -0.222100 -1.903689 1.499332 -0.700829 -1.482653 1.265388 0.870297 -1.493034 0.575958
5702 0.388805 1.198372 -0.585808 1.117208 -0.246501 -0.498181 0.770202 1.959187 -1.550787 -0.103524
6742 -0.028955 1.461144 -0.993676 1.641775 -0.909205 -1.113886 0.427542 0.934419 -1.072953 0.517755
10432 1.198015 0.293845 0.329421 0.369915 0.381311 -0.148648 1.290346 1.505098 -1.185443 0.409270
9726 0.827533 0.134230 0.110044 1.109062 1.722020 -0.521386 0.915535 -0.397916 -1.783798 -0.152182
2237 1.285130 0.055705 -1.716034 1.553359 -0.664638 -1.198079 1.323096 1.344147 -1.401986 0.335788
144124 1.954387 0.220963 0.777317 0.722120 -0.926704 1.695902 0.344745 -0.652973 -0.720394 1.045927
51338 2.596011 0.669574 1.465571 1.356358 -0.353250 0.750734 -0.726815 0.612851 -0.275118 -0.828347
26224 0.528422 1.096426 0.957674 1.196835 0.165652 -1.550224 0.151010 0.435134 -0.624207 0.904947
10856 0.093892 1.232862 -1.098763 0.751823 -0.774381 -0.774470 1.264821 0.842481 -2.112456 -0.211816
4154 1.322926 0.673049 0.766672 0.957605 0.210955 -0.459253 0.445983 1.470735 -0.429484 1.128957
1070 0.913218 1.313938 -0.591801 1.481157 -1.497458 -0.768380 0.649906 0.892293 -0.112154 1.382668
4590 0.740949 0.363085 -0.724150 0.639876 0.075278 1.390301 0.108726 -0.435568 -1.964675 -0.798223
170506 0.512571 0.955317 0.710856 1.257104 0.336662 -1.413859 0.624346 0.238361 -0.694157 1.368787
79740 2.461601 1.146672 -0.938525 1.061528 -1.920685 -0.020927 -0.292457 -1.572878 -0.010264 0.279633
5870 1.426624 0.413181 0.307374 0.792682 0.223015 -0.122392 0.694162 1.701032 -0.657523 1.032193
5118 1.691548 1.850627 0.238753 0.650091 0.968684 1.267038 -1.436059 0.351462 -1.545234 -0.168730
6426 0.846150 0.988265 -0.336237 1.090062 -0.070600 -0.288133 1.087372 1.777092 -0.846086 1.276819
80003 1.706970 0.549825 0.687604 0.559520 -0.660854 1.407155 0.306085 -0.617297 -0.394712 1.295643
11222 0.046727 1.397415 -1.195677 1.672426 -1.099881 -0.924051 0.501017 1.050649 -1.296226 1.348965
493753 0.559588 1.683299 -0.285915 1.302053 -1.074780 -0.413284 0.896080 0.336205 0.289265 0.710580
4830 -0.078212 1.322009 -1.114969 1.248384 -1.073944 -0.990748 0.870282 1.036411 -1.872753 0.239526
10575 -0.155714 1.743688 -1.183953 1.782867 -0.563574 -1.100193 0.773477 1.083728 -1.389553 1.216753
64895 0.555119 0.218585 0.634545 1.067220 -0.875643 0.658811 0.670368 0.170906 -0.223692 1.347981
84146 0.674873 0.178667 0.460706 1.770051 0.033152 -0.133781 0.342710 1.085698 -0.515479 1.665668
147081 1.613092 1.232685 0.061036 0.046274 0.067319 -0.037661 0.803175 -1.301449 -1.263183 -1.247808
1956 1.517216 -0.046291 0.502550 1.110788 -0.405222 1.203594 0.435628 -0.800744 -0.130437 0.916447
10155 0.154173 0.701906 0.072779 0.737384 0.086322 -0.357266 1.685506 0.790596 -2.157728 -0.506604
401505 -0.141801 1.362591 -1.120247 1.707670 -1.427429 -1.122284 0.390380 0.758389 -1.313684 0.516419
146845 2.587006 1.174446 -0.967198 0.981781 -1.998824 -0.066174 -0.215194 -1.626597 -0.112806 0.114082
9908 0.761684 0.530470 0.332343 1.554198 -0.017466 -0.116087 0.360532 1.926609 -0.995301 1.413047
25804 0.428634 1.463161 -0.983378 0.809966 -0.261369 -0.787788 0.768627 1.588300 -1.732553 -0.301058
100131941 0.821463 0.688348 1.013518 -0.357745 -0.669620 0.080398 0.971861 -0.773668 -1.202404 1.065655
23187 0.812385 0.670751 -0.417842 0.622026 -0.290429 2.087036 0.108499 -0.042600 -1.550270 0.241960
3101 2.125776 -0.378067 1.349953 1.360376 -0.565932 0.177091 -0.555306 0.848798 -1.158483 -1.001344
91316 1.054413 -0.533890 0.331549 2.262624 1.418864 0.458283 0.466349 -0.781758 -0.626148 -0.321269
51617 0.204637 1.750180 -0.680614 1.770661 0.450141 0.714208 -0.745236 -2.150306 -1.330143 0.440826
3702 1.724103 0.819515 1.762811 2.375450 -0.243566 -0.713331 -0.382559 -0.784998 0.095871 -0.780778
708 -0.185332 1.492788 -1.103399 1.396569 -0.768721 -0.732669 0.682263 1.289682 -1.731136 0.676467
134492 0.233916 1.700950 -1.128959 1.859235 -1.116232 -0.838802 0.207354 0.987487 -0.570674 0.891970
6692 1.748864 0.375818 0.352156 -0.464049 -0.935794 -0.701289 -0.446901 0.167455 -2.187581 -0.317277
9810 0.061758 0.844817 0.979645 1.010990 0.032689 -0.107285 1.348753 0.745212 -1.925395 -0.805774
388942 1.248907 -0.227324 -0.001190 1.720117 -0.521264 1.368309 1.050529 -1.099382 -0.331480 0.236184
5714 0.167157 1.393747 -0.710265 1.244947 -0.668196 -0.791591 0.610051 1.468078 -1.692318 -0.647572
134147 0.742652 0.920187 0.767287 0.468656 0.021081 -1.839506 0.516450 -0.342447 -1.254385 1.169022
28998 0.207671 1.119452 -0.855645 1.818933 -1.580647 -1.146966 0.106023 1.132236 -1.115320 0.820417
5589 0.156569 1.202289 0.869778 0.712276 0.193383 0.051161 0.915953 1.040684 -2.070989 -0.644487
2551 0.886139 0.318282 0.338501 2.069029 -0.166345 -0.369108 0.262774 0.888991 -0.085076 1.673255
57223 1.261717 1.019142 0.166671 1.314024 -0.690679 -0.283368 1.096937 1.070880 0.289717 0.879331
51412 0.235676 1.535301 -0.697113 1.442656 0.611059 0.627056 -0.472958 -2.085356 -1.459075 0.205458
9509 1.845481 1.606769 0.021824 0.905372 1.080363 1.343721 -1.604823 0.526058 -1.614784 -0.206262
60684 1.016456 1.314474 0.192259 1.346270 -0.787741 -0.200739 0.466797 1.291803 -0.012059 1.446486
9146 0.386541 0.745436 1.132953 0.820680 0.112000 -0.184513 1.308753 0.775467 -1.842567 -0.796877
5654 1.852559 1.744647 0.042289 0.763524 0.952296 1.070067 -1.614710 0.460247 -1.296656 0.004065
10326 2.190042 -0.808693 0.950253 0.848888 -0.507515 0.946060 0.319909 -0.089143 -0.482887 0.349583
2057 0.930570 -0.113102 0.573032 0.979977 -0.739253 1.667284 0.310575 -0.679528 -1.373150 0.385716
23524 0.287773 1.337656 0.838731 1.323863 0.795317 -0.138507 1.216939 0.347656 -0.290035 0.619903
148345 0.363851 0.090559 -0.244207 1.355115 -0.675369 1.417319 0.383201 -0.962576 -1.575755 -0.529073
55322 1.241474 0.447621 0.106399 0.922789 -0.286541 -0.098902 0.659398 1.872902 -0.904127 1.462017
2803 0.730305 1.259393 1.000381 1.284564 0.184644 -1.808197 0.211473 0.615534 -0.778511 1.215411
1736 -0.151067 0.853337 -0.961526 1.517362 -0.395234 -0.837942 1.460966 0.860745 -1.697162 1.177798
27189 0.799931 -0.568227 -0.144843 1.098121 0.859879 1.096396 0.623349 -0.448234 -1.805591 0.176057
22974 1.626605 -0.249767 -1.839368 1.402080 -0.683079 -1.441313 1.131870 0.894225 -1.601452 0.327137
116840 1.243004 0.587281 -0.113137 0.613371 1.362834 -0.580673 0.881693 -0.858364 -1.288417 -0.538270
7384 0.101497 1.548709 -0.378204 0.675026 -0.710019 -0.542854 0.580439 1.108979 -1.931879 -0.812448
113655 0.671343 -0.117902 -0.581067 1.377363 1.107022 -0.408585 0.621439 -0.385961 -1.441462 -0.669256
145483 0.726057 1.088797 0.812059 0.541485 -0.057708 -1.836453 0.430935 -0.282176 -1.167336 1.211259
5396 1.927228 1.755657 0.022595 0.948195 0.889467 1.273655 -1.648499 0.469143 -1.225025 -0.108317
23341 1.008235 0.178403 0.344408 0.944785 -0.812900 1.494716 0.631617 -0.643284 -0.702605 0.500250
10437 2.237750 0.429100 1.266465 1.317307 -0.431429 0.327023 -0.403126 0.899470 -0.626168 -1.314621
388662 0.564386 0.449922 -0.588639 0.793689 -0.853700 1.831788 0.310912 -0.410936 -1.893862 -0.056903
6429 0.723815 1.331916 1.086947 1.316294 0.331499 -1.678692 0.669652 0.737787 -0.751401 1.057337
23397 1.620958 -0.248757 -1.912005 1.371954 -0.667526 -1.334450 1.374201 0.764980 -1.679750 0.288862
80867 0.766954 0.916050 0.720224 0.358571 0.003727 -1.723775 0.594384 -0.365410 -1.401509 1.371565
64333 2.166481 0.351567 1.998305 1.756002 -0.048070 0.034064 0.395449 0.000150 -0.299606 -1.153146
9208 0.728210 0.987796 1.109441 0.949324 0.224323 -1.811387 0.127053 0.445857 -0.950311 0.816868
54829 2.035036 1.712262 0.153030 0.724317 1.005659 1.260689 -1.601465 0.144492 -1.393286 0.211458
57369 1.395817 -0.230343 0.632445 1.326216 -0.377683 1.345307 0.783431 -1.461724 -0.890999 0.049220
11187 2.019117 -0.007023 -0.119633 -0.471259 -0.526181 -0.465068 -0.583961 0.191982 -2.546873 -0.011272
54714 1.483301 -0.219765 0.229676 1.171935 -0.356466 1.543558 0.698892 -0.927256 -0.712118 0.465190
1436 2.485455 0.635674 1.698931 1.255798 -0.126917 0.510855 -0.429191 0.627131 -0.525272 -0.978164
79345 1.378978 0.829103 0.603082 0.231514 -1.011241 1.569524 0.413849 -0.453618 -0.900510 1.211712
5788 2.279350 0.579265 1.527203 1.945796 -0.003643 -0.156421 -0.217161 0.306261 0.124163 -0.907183
84000 1.512670 -0.697533 -0.198334 1.039086 1.072350 0.247600 0.881586 -0.978835 -1.248082 0.227694
5329 1.607006 0.345887 0.492852 1.220357 0.510470 -0.265955 -1.025672 1.217572 -1.125180 -1.052026
891 1.523515 -0.040598 -1.959712 1.634702 -0.804292 -1.662808 0.865009 0.826615 -1.438781 0.500102
905 0.597146 0.632969 0.677869 2.266373 0.136669 -0.388186 0.811506 0.347334 0.095382 1.424817
25879 -0.015707 0.816681 -0.897085 1.859366 -0.924751 -1.094403 0.395044 0.752393 -1.230449 1.530921
10635 1.597871 -0.107626 -1.868480 1.680137 -0.683775 -1.515349 1.080110 0.808149 -1.136242 0.857118
3587 2.346711 0.581129 1.725955 1.737154 0.096847 0.058244 -0.255009 0.455277 -0.311472 -1.208648
158798 2.553769 1.150576 -0.866444 1.097806 -2.069769 0.105959 -0.227785 -1.589446 -0.010619 0.145544
57405 1.727495 -0.103215 -2.042697 1.517271 -0.735409 -1.552994 1.060801 0.815161 -1.403253 0.447976
1072 0.633146 1.053563 0.046915 0.824929 0.040133 0.055733 0.710469 1.866125 -1.481671 -0.699769
126402 0.860863 0.047819 -0.938804 1.149903 -0.636022 1.329520 0.726205 -1.092199 -2.005313 -0.857267
1536 2.646194 0.246584 1.348826 1.394656 -0.506610 0.332133 -0.386757 0.842483 -0.356525 -0.986271
4688 2.385859 -0.036088 1.244399 1.344673 -0.278765 0.180694 -0.431269 0.969934 -0.697634 -1.035027
1366 2.117861 0.356250 0.223108 -0.468799 -0.933516 -0.814414 -0.628533 -0.046340 -2.112862 -0.053452
64376 0.658489 0.528655 0.738219 2.328433 -0.301527 -0.419090 0.282467 0.554684 0.169231 1.288206
51649 -0.009711 1.256389 -0.747740 1.638770 -1.697185 -0.979413 0.551657 1.182071 -1.450814 0.517286
29944 1.259827 0.078799 -0.657246 1.193586 1.222857 0.042880 0.487371 -0.975371 -1.516001 -0.869128
389458 1.075161 0.036136 -0.572039 1.210622 1.488799 -0.406498 0.784048 -0.666613 -1.419762 -0.241051
9857 0.787287 1.009065 0.672730 1.915642 0.519258 -0.285109 1.136755 0.542032 0.103800 1.407353
2810 1.938795 0.024521 -0.442534 0.028174 -0.454348 -0.457405 -1.263932 0.345760 -2.306548 -0.042327
9652 1.158392 1.089062 0.100842 1.223082 -0.317702 -0.469081 0.568421 1.220808 -0.141521 1.678644
6632 0.013597 0.916634 -1.387437 1.943939 -0.819041 -1.317923 0.651828 0.862300 -1.309473 0.693981
10944 0.104271 1.017476 -0.399853 0.814046 -0.659496 -0.364368 -0.339657 0.424380 -0.824936 1.607417
5686 0.225735 1.468445 -0.854730 1.520358 -1.588102 -0.985757 0.499774 1.390621 -1.329133 0.332137
991 1.500600 -0.165885 -1.910231 1.392586 -0.519158 -1.436428 1.148913 1.027577 -1.849756 0.224007
9837 1.545285 -0.086914 -1.776579 1.528938 -0.781467 -1.515096 1.310596 0.806960 -1.345726 0.771707
100506238 0.880001 1.093149 0.254484 0.098736 -0.210929 0.521414 0.269324 -0.913792 -1.191769 2.062377
8911 1.406010 0.537601 -0.511333 0.873280 1.156814 -0.382520 0.628765 -1.085309 -1.487669 -1.017586
26532 1.445457 0.366918 0.749899 0.401781 -1.112522 1.596889 0.382668 -0.489042 -1.211899 1.190750
124460 2.127106 0.517880 1.817058 1.716366 0.063672 -0.089908 0.127978 0.069016 -0.261354 -1.170646
55075 0.764935 0.958026 0.886810 0.440854 -0.029377 -1.715362 0.415482 -0.441574 -1.251722 1.211209
26508 1.015216 0.091099 -0.424941 1.232508 0.290341 0.732393 0.499216 -1.079129 -1.482471 -1.382713
55759 0.131026 1.108140 -1.205734 1.176098 -1.129390 -0.968988 1.179865 0.680275 -1.563842 1.428198
1996 0.504570 1.749354 -0.880865 1.604358 0.424667 0.516047 -0.770275 -2.066850 -0.927419 0.536572
55183 0.588419 0.666639 -0.094766 1.926518 0.522503 -0.445394 1.049549 0.474567 -0.096271 1.345040
10535 0.889832 0.598888 -1.772406 1.073615 -0.817516 -1.287509 1.244918 1.001663 -1.644594 -0.095621
6391 0.670817 1.489788 -0.336866 0.634260 -0.548512 -0.016959 0.486923 1.966916 -1.129702 0.635365
1293 1.823346 1.764470 0.094265 0.990900 1.042128 1.137557 -1.531389 0.587612 -1.128228 -0.093807
915 1.813097 0.807113 1.915694 2.457479 -0.338889 -0.662323 -0.509471 -0.991321 -0.208008 -1.130397
2210 2.672922 0.379637 1.391456 1.467789 -0.630031 0.357167 -0.760689 0.783468 -0.578709 -1.198193
9701 0.684382 1.095459 1.099730 0.598754 0.040316 -1.723048 0.633366 0.132383 -1.206909 1.076892
7940 2.510545 0.060800 1.665169 1.498116 -0.419034 0.269579 -0.346620 0.616026 -0.699152 -1.151235
100128003 0.444906 0.768270 -0.553289 0.799647 -0.845902 1.935683 0.301357 -0.267059 -1.893278 -0.211190
55573 0.923130 0.427888 0.362658 1.210327 0.307276 0.118608 0.328486 1.787470 -0.895298 1.072894
1386 0.899059 0.488592 0.501937 1.689145 0.018046 -0.190425 0.183476 1.120010 -0.305596 1.661664
3937 2.454295 0.559116 1.685402 1.741201 -0.160019 -0.085200 -0.242446 0.360814 -0.055021 -1.009664
983 1.691909 -0.119046 -1.927559 1.666896 -0.632634 -1.588989 1.026388 0.874476 -1.300849 0.544131
58494 1.683447 1.638134 0.847829 0.981678 0.815526 0.942670 -1.523122 -0.611969 -0.730074 0.794259
2023 0.589427 0.967278 -0.523363 0.955834 0.118264 -0.019109 0.546900 2.092777 -1.416397 0.136846
6120 1.073116 1.220107 -0.717801 1.315724 -1.325649 -0.736548 0.823593 1.322250 -0.440401 1.585457
3273 1.125968 -0.022803 1.815867 1.402646 -0.109024 -0.117949 -0.513829 -2.009853 -2.081796 0.740067
399949 2.448949 1.058928 -0.916968 1.120885 -2.115309 0.172283 -0.258007 -1.699748 -0.157232 0.101952
462 1.641585 -0.195464 2.063710 1.465817 -0.124442 -0.560120 -0.732786 -1.901439 -2.097789 0.888389
163778 1.063264 -0.035215 -0.369615 0.610805 -1.058737 1.626659 -0.338233 -0.128823 -1.545027 0.699217
9892 0.468161 1.790152 -0.792012 1.529038 0.358789 0.496254 -0.961025 -2.065285 -1.146660 0.697914
6059 0.038911 0.999495 -0.964659 1.837355 -0.616096 -0.941048 0.970295 0.891686 -1.338708 1.892731
4849 0.248932 0.786459 0.964487 0.753998 0.450389 0.013650 1.164298 0.816942 -2.025586 -0.578040
29974 1.106483 -0.242987 1.016454 0.980630 -0.721002 -0.643322 -0.737982 -1.747139 -2.338194 0.450068
81627 1.373101 1.091426 0.042552 1.293032 -1.270649 -0.439629 1.084196 0.841752 0.401335 1.054401
25937 1.966765 1.578125 0.145227 0.658296 0.761730 0.189588 -1.543355 0.809901 -0.725032 0.789646
84186 0.967030 1.560325 0.762030 1.041318 0.099398 -1.512780 0.372605 0.543814 -0.249220 1.020016
55814 0.912659 0.980900 0.300875 2.045161 0.291570 -0.374323 0.910236 0.535463 0.284409 1.535261
23615 1.473318 -0.155410 -0.233935 1.528535 -0.097886 1.072966 1.462821 -0.817885 -0.411661 -0.816285
84630 0.942247 0.155735 0.406464 1.043891 -0.364133 1.618575 0.494417 -1.211933 -1.090928 0.657298
57468 0.364228 1.413684 -0.301416 1.853391 0.565404 1.159591 -0.179588 -1.981000 -0.691058 0.473903
339324 0.602553 0.676154 0.308789 1.967007 -1.338874 -0.608649 1.075934 -0.345103 0.006288 1.580374
50943 1.482253 0.865061 -0.397987 0.481514 1.079775 -0.491592 0.633905 -1.076531 -1.345634 -0.849041
79924 0.622875 -0.153843 -0.620237 1.460916 0.544151 1.102293 0.249752 -0.638534 -2.059366 -1.007724
24137 1.760417 -0.352745 -1.944967 1.377891 -0.714366 -1.445230 1.149005 0.653061 -1.600929 0.465247
64223 0.123942 1.212690 -0.167147 0.425907 -0.438826 -0.552705 1.205655 0.660516 -2.549143 -0.834969
2901 0.581483 -0.222897 -0.422204 0.856974 0.852833 1.283992 0.716217 -0.348669 -1.834929 0.317478
79171 0.089497 0.956115 0.391448 0.790940 -0.155861 -0.015614 1.320395 0.904504 -2.057420 -0.839219
51368 0.196691 1.669397 0.153451 0.439401 -0.889295 -0.695341 0.671213 0.606759 -1.775489 -1.051708
9833 1.730660 -0.353236 -1.832108 1.589641 -0.612023 -1.569909 0.986579 0.818501 -1.446380 0.425538
10249 0.958123 0.284977 1.534742 1.125803 0.024300 0.188446 -0.902929 -1.868039 -2.179975 0.627896
123876 1.110208 0.043612 1.372502 1.383666 -0.171642 -0.363796 -1.005886 -1.896615 -1.830203 0.784046
51079 0.050736 2.069261 -0.630498 1.044204 -0.893848 -1.104614 0.435588 0.845209 -1.758232 -0.863019
29058 0.606675 1.706927 -0.078433 0.826936 -0.543245 -0.142952 0.320503 1.968343 -1.029606 0.750746
8639 1.866701 1.046885 1.218749 0.944406 1.084027 0.711682 -1.388554 -0.551425 -1.057621 0.618109
254956 2.445373 1.171526 -0.921935 1.213622 -1.902037 0.118654 -0.213956 -1.815920 0.002889 0.047671
1727 1.055919 0.923624 0.382188 0.194105 0.563368 0.359385 0.899046 1.504460 -1.398739 -0.301001
9787 1.770661 -0.222478 -1.845403 1.536848 -0.735341 -1.634549 1.019454 0.887083 -1.425967 0.485376
118487 0.204300 1.657331 -0.838050 1.511423 -2.012905 -1.190226 0.396986 1.049291 -1.290441 0.143371
114569 2.054402 0.265590 0.075831 -0.426041 -0.839472 -0.874498 -0.544093 0.114535 -1.764615 0.109079
10114 1.285211 0.299042 0.629989 1.204533 0.260097 0.059105 0.244859 1.711109 -0.634698 1.331882
90480 -0.006494 1.589254 -0.833760 1.008960 -0.634130 -0.992403 0.973251 0.904642 -2.134338 -0.734862
401565 0.455498 0.084745 0.588217 1.220042 -0.634480 1.366645 0.331945 -0.736690 -0.932614 0.132778
716 1.784184 1.685313 0.795985 0.726753 0.840793 0.808780 -1.442627 0.385814 -0.966106 -0.072964
4716 0.099791 1.982122 -0.507589 0.706574 -0.978614 -1.057889 0.373366 0.750847 -1.879316 -0.764969
7284 -0.148724 1.305444 -0.452374 0.809888 -0.632966 -0.591490 1.120368 0.806085 -2.068252 -0.442885
9801 0.431327 1.226944 -1.129332 1.634020 -1.457534 -0.989862 0.632047 1.131203 -1.129087 1.650566
11051 0.573636 0.781259 -0.510418 1.624845 -0.356318 -0.416781 0.593215 1.603832 -0.798213 1.367825
1058 1.806991 -0.279506 -1.953589 1.629946 -0.616925 -1.643016 1.084413 0.883352 -1.557809 0.463781
51747 0.616254 1.405686 0.277758 1.633524 0.364335 -0.739351 1.396614 0.313346 0.056970 1.098157
63931 0.516564 1.598756 -0.703257 0.965406 -1.700108 -0.765443 0.835353 0.968806 -0.767222 0.551592
9733 0.216126 0.609854 0.231699 1.769783 0.298387 -0.148084 1.389230 0.688835 -0.461137 1.257610
57693 0.987960 0.108015 0.666882 0.836696 0.156055 0.074686 0.969746 1.558299 -1.085131 1.051563
29888 0.113825 0.853544 1.312239 0.725441 0.423864 0.152022 0.899756 0.470775 -2.158468 -0.571814
53615 0.253891 0.727031 0.422786 0.478844 0.015599 -0.247618 1.559105 0.543384 -2.308645 -0.661882
466 0.924162 0.827369 -0.213208 1.672795 -0.975720 -0.506704 0.217507 1.314328 -0.218796 1.384020
84629 1.332192 0.320248 -0.415393 0.856195 1.262881 -0.480220 0.695979 -0.847107 -1.248328 -0.627624
7182 0.853836 0.738922 0.751972 1.844197 0.075563 -0.437536 1.080242 0.567736 0.103256 1.250792
127003 2.394131 0.937332 -0.857471 0.961437 -1.995711 0.177170 -0.218167 -1.592714 -0.180854 0.216283
23246 -0.107290 0.554012 -0.473826 0.736188 -0.515173 -0.638103 1.463188 0.514864 -2.524544 -0.137569
64978 0.377323 1.156950 -0.346322 0.598644 -0.163315 -0.309878 1.147209 1.467247 -1.935561 -0.403338
79831 1.425254 0.117832 -0.617713 1.103312 0.401777 0.230399 0.651361 -1.018950 -1.510022 -1.588012
144809 2.711955 0.789306 -0.855861 1.129398 -2.111604 -0.273481 -0.369963 -1.689741 -0.172962 0.049105
54440 2.137205 0.344152 1.750570 1.691976 0.114346 -0.172210 0.458155 0.075314 -0.359315 -1.366898
79039 0.983469 0.149898 -0.212163 0.964238 1.561216 -0.485270 0.886225 -0.476020 -1.535773 -0.262952
5984 1.176000 0.276870 -1.829632 1.573316 -0.817283 -1.198289 1.224406 0.899503 -1.021170 0.853616
84340 0.834456 1.056634 -0.143603 0.849252 -0.621990 -0.056370 0.552253 1.718876 -0.949441 1.608686
23013 0.485028 1.098224 0.781590 1.681934 0.986884 -0.030303 1.256142 0.618190 -0.224682 0.763601
100302692 0.960304 1.517599 1.040773 0.809766 0.198825 -1.566631 0.749997 0.139324 -0.458117 1.040139
5499 0.417729 1.444545 -0.248625 0.831078 -0.437722 -0.416422 0.714552 1.496782 -1.781119 -1.126961
23452 1.875618 1.727948 0.251597 0.948214 1.128453 1.438801 -1.538829 0.311149 -1.338786 0.079354
90506 2.675265 1.014202 -0.983470 0.915317 -2.057183 -0.024290 -0.256987 -1.446359 -0.139518 -0.121872
4332 2.670072 0.065556 1.412507 1.648832 -0.558805 0.117981 -0.682586 0.797454 -0.488169 -0.880270
6698 2.394299 -0.301014 -1.066816 0.644216 -0.712620 -0.058792 -1.588545 0.165072 -2.433493 -0.018133
8927 0.222418 1.576690 -0.543345 1.594618 0.670050 0.924320 -0.338000 -2.233637 -1.478657 0.412806
2799 1.469713 0.880091 0.761403 0.652125 -0.259218 0.380246 0.248090 1.972557 -0.555577 0.413845
284071 0.740527 0.936463 0.277084 0.250823 0.076191 -1.609267 0.394610 -0.451157 -1.194579 1.411477
26012 1.231529 -0.065274 -0.313813 1.205872 0.380589 0.596106 0.664999 -1.198304 -1.813161 -1.489383
2271 0.610428 1.438945 -0.718513 0.636681 -0.759227 -0.281223 0.645089 1.745080 -1.298995 1.167182
4969 1.934736 1.538101 0.641298 0.728041 0.833378 0.860265 -1.638141 -0.553954 -1.056368 0.740230
51514 1.742641 -0.244592 -1.962134 1.546978 -0.733462 -1.312926 1.255651 0.890544 -1.391082 0.510009
1794 2.364751 0.552838 1.601978 1.601163 0.043428 0.045799 0.245703 0.297816 -0.067438 -1.114113
80342 2.204095 0.527324 1.917612 1.853017 -0.164687 -0.502517 0.398690 -0.410467 0.076200 -0.905101
6457 0.612122 1.010190 -0.074311 -0.130925 -0.314964 0.287959 0.370698 -0.605202 -1.218784 1.751109
5094 0.421888 1.664133 0.539953 1.366545 0.676276 -1.113929 0.677641 0.724247 -0.358690 0.514231
259266 1.779788 -0.405974 -1.743234 1.605498 -0.458198 -1.565332 1.214176 0.723028 -1.253936 0.637066
8318 1.527645 -0.205647 -1.829781 1.383080 -0.645584 -1.475507 1.356375 0.890050 -1.746498 0.182782
51507 1.151186 1.068985 -0.167526 0.014924 -0.029133 -0.366436 0.823481 -0.852258 -1.018309 -0.974033
118491 1.395353 1.011564 -0.416196 -0.031643 -1.165551 0.081520 0.409585 -0.963075 -0.255518 1.074868
8888 0.752672 0.440921 0.414188 -0.207394 -0.004539 0.216513 0.870598 0.652347 -1.321867 1.337259
140767 0.493694 1.816733 -0.630303 1.607268 0.453277 0.856830 -0.364924 -2.346774 -1.094591 0.477914
5683 0.081925 1.349747 -0.990430 2.000225 -1.222096 -1.014561 -0.120862 1.168607 -0.993942 0.537716
5695 0.127968 1.629529 0.063446 1.713409 -0.347468 -1.846276 0.465879 1.242645 -1.012818 0.339717
2305 1.711030 -0.320626 -1.693971 1.227275 -0.598901 -1.529291 1.232567 0.851423 -1.695372 0.147965
85476 0.500205 0.833179 -0.352839 1.296115 -0.462628 -0.362957 0.565750 1.695928 -1.140052 1.512146
128218 1.992682 0.560930 0.277209 -0.418086 -0.954437 -0.964342 -0.695911 -0.513458 -1.843079 -0.037063
6428 0.219538 1.037793 -0.759290 1.661726 0.089422 -0.622356 0.569823 1.724279 -1.181160 0.893739
116535 1.901647 1.677975 0.574101 0.652363 1.244564 0.991456 -1.393500 -0.136719 -1.310874 0.481070
51491 -0.444697 0.609428 -0.855088 1.414919 -0.802779 -0.831277 1.051085 0.466470 -1.889783 0.762210
23376 0.867680 1.046788 0.294100 2.022474 -0.436735 -0.416821 0.154452 0.935572 0.143383 1.573681
100128977 0.517988 -0.020202 -0.536385 0.880140 0.250668 1.265780 0.515259 -0.643103 -2.290021 -0.429783
162515 1.396125 0.935588 -0.519426 0.644635 0.478171 -0.496617 0.785094 -1.172513 -1.049474 -1.387731
7203 -0.038743 1.384581 -0.978140 1.089622 -0.673775 -0.927970 1.387092 1.066540 -1.891258 0.653007
173 1.151943 0.101886 1.749261 1.330330 -0.095337 -0.216706 -0.685610 -2.013395 -2.108404 0.787353
5518 0.462924 1.298842 0.247509 0.720126 0.141972 -0.086529 1.020833 1.595331 -1.907990 -0.704922
7249 0.092825 1.405676 0.993300 0.583402 -0.128597 0.077738 1.525942 0.499581 -1.757306 -0.588566
5581 1.084345 0.150741 -0.739174 1.396213 1.462761 -0.508553 0.587916 -0.488172 -1.111787 -0.412640
220323 1.623710 0.111281 0.258554 0.894583 -0.419898 1.176866 1.336633 -1.436310 -1.202549 -0.897715
58517 0.407948 1.366590 0.376675 1.951984 0.679086 -0.645985 1.291967 0.551733 -0.182159 1.139207
1175 0.238161 1.504089 -0.370073 0.906967 -0.373877 -0.560170 0.384066 1.377129 -1.860238 -1.077633
10551 1.571457 0.741366 0.469534 -0.036169 -1.091916 -0.845594 -1.119530 -0.597207 -1.539303 -0.243223
6242 1.471051 1.334184 -0.189178 0.439044 0.375734 -0.117774 0.713705 -1.199018 -1.378153 -1.647519
1565 1.302716 1.197680 -0.448106 0.270219 0.303328 0.053999 0.706120 -1.177705 -1.393024 -1.260058
25865 1.548999 0.947577 0.193487 0.118727 0.346570 -0.379147 0.779336 -1.202639 -1.026426 -0.910986
55742 1.760260 1.978348 0.343764 0.254312 0.820546 0.214178 -1.282424 0.635746 -1.020113 0.578977
10093 0.787544 1.025578 0.114625 0.802376 0.215439 0.106156 0.656207 1.990746 -1.180063 -0.192960
10576 0.053976 0.947424 -0.895496 1.632384 -0.283146 -0.586592 0.642041 1.537477 -1.510160 1.387395
132203 2.598088 1.035217 -0.864415 0.980044 -1.804045 0.001655 -0.510554 -1.591103 -0.121574 0.082928
1329 -0.063823 2.062415 -0.646334 1.331547 -0.875404 -1.151264 0.035139 0.656336 -1.089994 -0.486811
10746 1.152052 0.604168 0.837286 1.361605 0.233100 -0.034198 0.675646 1.187482 -0.149349 1.305854
327 0.285104 1.547246 -0.182057 0.335625 -1.160760 -0.453857 0.872591 0.932693 -1.716801 -0.462003
29896 0.660316 1.594877 0.742953 1.391792 0.370918 -1.643817 0.556718 0.669886 -0.467743 0.775963
27069 0.219888 1.388263 -0.208945 1.345793 -0.760193 -0.157519 -0.075761 1.899619 -1.157558 0.732968
9332 2.634092 0.546084 1.299400 1.182475 -0.230764 0.580331 -0.805434 0.710486 -0.563566 -0.964358
5156 1.908846 1.662281 0.485323 0.734725 0.916066 1.135909 -1.527353 0.216113 -1.088896 0.515704
25802 1.966915 1.297063 0.625272 0.590160 1.079134 0.972400 -1.138664 -0.386891 -0.939691 0.795783
9774 0.383579 0.859394 0.184267 1.995167 0.641531 -0.298171 0.876690 1.011696 -0.460927 1.397391
7247 0.446558 0.711276 -0.310024 1.478295 -0.278564 -0.339459 0.473011 1.825758 -1.170722 1.177566
1639 0.203583 1.220265 0.710276 0.602688 0.123237 0.331082 1.140669 0.940495 -1.856157 -0.600004
10724 0.792922 1.471832 1.038209 1.555181 0.293528 -1.200056 0.803198 0.743450 -0.238280 1.044113
23451 0.353901 1.220156 0.526190 1.987263 0.647081 -0.235349 0.815495 0.826889 -0.235044 1.274522
192683 1.011554 0.100889 -0.752986 1.519827 -0.406633 1.669952 0.720530 -0.195772 -0.438958 -0.407435
440888 1.471937 0.894382 -0.238796 -0.379235 -0.455093 0.640595 0.589555 -1.002306 -1.153412 1.593358
5970 0.747087 0.474173 0.847612 0.748188 0.668574 0.149687 0.806462 1.257953 -1.375788 -0.462302
642987 2.539300 1.188395 -0.874773 0.982753 -1.904031 -0.049381 -0.163658 -1.608534 0.087574 0.354528
9522 1.169888 0.809872 0.105607 0.964380 -0.156138 -0.026515 0.320765 1.621447 -0.609600 1.647444
919 1.834776 0.735929 1.902592 2.596335 -0.251588 -0.623117 -0.542316 -0.955109 -0.037398 -0.807270
2931 0.531026 -0.092774 0.195891 0.890256 1.475906 0.424627 0.745785 -0.211004 -2.050400 0.057397
1650 0.257728 1.609926 -0.387290 0.989445 -0.165209 0.053031 0.563123 1.817043 -1.285062 -0.274334
5928 0.708374 1.044910 -0.100618 0.925576 0.174474 -0.580108 0.778771 1.762253 -0.951327 0.846271
9045 -0.826931 2.021268 -0.489576 2.112488 0.026318 -0.552204 0.177877 0.160970 -1.160457 0.102290
6655 0.720370 -0.172673 0.304868 1.411094 -0.002647 0.943831 0.844669 0.398924 -0.009388 0.595832
80205 0.820361 1.689217 0.544554 1.773072 0.532622 -0.431061 0.914471 0.623729 0.201087 1.400017
64963 0.367001 1.791353 -0.654799 0.853064 -1.533000 -1.089277 0.591514 1.253966 -1.609791 -0.270763
64581 2.516502 0.222744 1.294726 1.434520 -0.335676 0.227776 -0.703991 0.826452 -0.487445 -0.831309
10254 1.115778 0.982302 0.410470 1.831536 -1.126634 -0.269866 -0.049907 1.264634 0.149872 1.223909
221 0.545210 0.437291 0.356374 0.580276 -0.999038 1.537918 0.145072 -0.547200 -1.911104 -0.351389
3658 0.871460 0.670279 0.213421 2.083078 -0.559630 -0.393489 0.657879 0.926619 0.088405 1.517750
115827 0.360743 1.763547 -0.648390 1.729063 0.504592 0.612210 -0.644456 -2.083722 -1.068504 0.628972
2158 1.418742 0.051503 1.902417 1.474092 -0.111030 -0.283288 -0.888344 -1.981904 -1.934527 0.941658
24139 1.169053 0.238244 -0.433809 0.947132 1.266462 -0.622958 0.914451 -0.828963 -1.259029 -0.531545
728 2.370388 -0.185666 1.145550 1.564345 -0.070659 0.153157 -0.814124 1.125849 -0.926515 -0.896735
5230 0.385368 1.237056 -0.549318 1.404258 -0.127281 -0.005381 -0.084613 1.803476 -0.757311 -0.071987
1111 1.365699 0.010998 -1.826833 1.575977 -0.545537 -1.434138 1.156529 0.954664 -1.358911 0.634828
715 1.774468 1.712164 0.723982 0.751274 0.857548 0.901214 -1.454560 0.322398 -1.036747 -0.221876
2212 2.612485 0.215134 1.293735 1.572686 -0.317923 0.374852 -0.739350 0.901470 -0.499683 -0.977304
51659 1.108028 -0.314484 -2.181600 0.971904 -1.320778 0.048446 1.073554 0.637250 -1.632791 0.260644
488 1.032260 -0.605521 -0.409498 1.417576 1.233873 -0.086069 0.826723 -0.480281 -1.352028 -0.143706
9493 1.896112 -0.416844 -1.760881 1.657067 -0.590725 -1.561582 1.227415 0.839254 -1.385843 0.534675
23469 0.468265 0.963767 0.590713 2.105363 0.724994 -0.008482 0.740188 0.457628 -0.049726 1.498023
3003 2.065582 0.899222 1.869193 2.687207 -0.122548 -0.315206 -0.510035 -0.874413 0.061356 -1.124358
3608 0.051456 1.095562 -0.852534 1.700918 -0.162147 -0.792801 0.826226 1.677437 -1.426680 0.397010
9040 0.390143 0.955325 -0.202413 1.002765 0.110955 -0.307037 0.944852 1.672976 -1.757989 -0.730732
80114 1.852316 1.841485 0.028188 0.721616 0.757415 0.906129 -1.564976 0.579104 -0.822113 0.362805
5245 0.145666 1.573517 -1.040684 1.215599 -1.001482 -1.152534 0.850166 1.362858 -1.913386 -0.188335
149086 1.582230 -0.091146 0.531809 1.199573 -0.590048 1.526025 0.991995 -1.374737 -0.808598 0.238323
80217 2.791272 1.422645 -0.894396 0.814555 -1.904039 0.010913 -0.150039 -1.647980 0.023143 0.342684
5442 0.059504 0.914071 0.183103 0.590892 -0.376080 -0.246171 1.626056 0.541398 -2.113042 -0.564290
134121 2.594816 1.200838 -1.129939 1.118788 -2.125157 -0.080835 -0.252901 -1.682034 -0.135808 0.175208
5684 0.121655 1.188048 -0.533260 2.110971 -1.172480 -1.178482 0.015269 1.321709 -0.925907 0.721650
25948 0.957898 0.319374 0.633255 1.245469 0.067683 -0.002984 0.541536 1.652269 -0.786228 1.119854
4675 0.882069 2.072463 -0.384548 1.036659 0.274937 0.152577 -1.255240 -0.729900 -0.120872 0.662823
83733 0.982858 -0.119580 0.017813 1.599418 -0.550317 1.404003 1.061673 -1.297775 -1.328663 -0.864492
140893 1.086388 0.351350 -0.553008 1.026910 1.569028 -0.445482 0.424569 -0.519513 -1.612982 -0.608463
10454 1.232626 0.238225 -0.405760 1.027468 1.531708 -0.546938 0.779136 -0.764657 -1.366980 -0.449403
3609 0.085313 0.842406 -0.153907 1.370618 0.769739 -0.142156 1.600246 0.758198 -0.822612 0.680304
120065 1.394340 0.979860 0.764075 0.170612 -0.779355 1.140811 0.308623 -0.733107 -0.717042 1.620231
28977 0.204722 0.949872 -0.925621 1.631147 -1.081522 -0.542264 0.172596 1.445997 -1.186245 1.105499
51714 0.342379 1.222484 0.217389 1.685469 -0.442747 -0.185762 -0.255856 1.983203 -1.010811 0.912070
6814 0.938049 0.821712 0.597587 2.054400 -0.587513 -0.386761 -0.012510 1.055181 0.123199 1.359977
119467 1.099443 -0.260040 0.728316 0.840126 -0.938628 -0.795285 -0.902901 -1.403005 -2.346805 0.217556
23788 0.149744 1.385163 -1.028715 1.309146 -1.456362 -0.954963 0.501191 1.285313 -1.552105 0.496218
157680 0.810295 1.423246 0.590890 1.508826 0.683801 -0.347305 0.890700 0.574311 0.095561 1.162562
1209 0.649642 0.888882 0.606575 0.506060 0.512442 0.040785 1.060034 1.256080 -1.833655 -0.608935
80349 0.407644 2.013236 -0.655138 1.188717 -1.614400 -0.886388 0.548595 1.202616 -0.882959 0.735618
11173 1.552170 0.521035 -0.478961 0.676842 1.085047 0.152165 0.517216 -0.868429 -1.648917 -1.222290
139212 2.650046 1.008488 -1.003686 0.906631 -2.104169 0.041928 -0.109897 -1.669941 -0.190283 0.349211
29081 0.258721 1.858982 -1.061940 1.529558 -1.598283 -1.106895 0.482855 0.943113 -1.020727 1.062005
256471 1.078097 1.484282 0.509202 1.474826 -0.524664 -0.338242 1.305632 0.371541 0.528070 1.075758
6876 1.840347 1.542605 0.320217 0.482187 1.295456 1.031003 -1.003166 0.262207 -1.126567 0.169359
83657 2.145642 1.487203 -0.679377 0.603037 -1.854956 -0.286425 -0.502948 -1.351601 -0.140963 0.136152
10539 0.146469 1.251007 -0.877036 1.649488 -0.955444 -0.839467 0.352619 1.528381 -1.308256 0.919280
11025 2.311018 -0.457629 1.587348 1.373476 -0.348203 0.380036 -0.388497 0.562518 -1.212137 -1.116722
58509 1.419166 1.249563 -0.121802 0.327967 0.552790 -0.450204 0.860429 -1.100284 -1.250583 -1.268184
1821 1.310992 0.156977 -0.770556 0.674154 -0.522202 2.000053 0.628771 -0.099837 -1.468164 0.317652
51592 0.918594 0.948320 1.022440 1.143504 0.042906 -1.653335 0.622676 0.352645 -0.576204 1.313958
26121 0.641289 0.562626 -0.809034 0.737041 1.229801 -0.241807 1.081039 0.809397 -1.343221 -0.321165
28985 0.204407 1.680365 -0.809640 1.382605 -1.493857 -0.993939 0.271621 0.758602 -0.705104 0.447727
1538 1.164330 0.692773 0.300312 0.213921 -0.218386 1.037293 0.866351 -1.191584 -1.160563 1.834817
64960 -0.023505 1.405099 -0.988382 1.479923 -0.848621 -0.846445 0.220770 1.044649 -1.191142 -0.234971
400238 1.121974 -0.176044 0.292215 1.454722 -0.468534 1.519401 0.674409 -1.135730 -0.811963 0.206732
92105 0.639160 1.029889 0.908802 0.500929 -0.087243 -1.776742 0.476112 -0.084087 -1.442224 1.276469
51046 0.413288 1.602108 -0.736790 1.828774 0.418484 0.881360 -0.353503 -2.317468 -0.964210 0.351884
91746 0.245892 0.856550 0.815814 2.289866 0.771383 -0.380767 0.911656 0.473858 -0.311096 1.119745
257177 2.429071 1.151711 -0.906397 0.862451 -1.912008 -0.168290 -0.372037 -1.551748 -0.219128 0.091969
401546 1.393220 0.907555 0.532102 -0.092696 -1.189449 -0.835373 -1.071528 -0.539866 -1.481534 -0.063531
127933 0.669125 0.970781 0.354332 1.544970 0.325800 -0.119849 0.675825 0.862209 -0.013840 1.232089
9212 1.561782 -0.269661 -1.943178 1.403962 -0.711214 -1.382579 1.310967 0.860956 -1.895434 0.149920
3827 1.223784 0.032385 1.632541 1.418516 -0.153728 -0.314502 -0.712775 -2.173584 -2.019436 0.803073
3898 1.954045 0.004778 -0.090562 -0.285423 -0.443759 -0.502535 -0.802289 0.127240 -2.535730 -0.082354
200403 2.722192 1.102798 -0.940777 1.161652 -2.007586 0.272410 -0.204498 -1.756698 -0.063168 0.033249
1003 1.757286 0.540136 1.337683 1.258113 1.163534 0.839308 -1.289112 -0.180258 -1.148358 0.418262
3183 0.367798 1.214550 -0.422165 1.260861 0.032566 -0.382524 0.543116 2.008939 -1.313486 0.872186
57560 1.322489 1.540066 -0.227815 1.099901 -0.520856 -0.550215 1.110686 0.400673 0.561986 1.058366
1063 1.680276 -0.176355 -2.037171 1.467844 -0.401152 -1.532864 1.020275 0.507612 -1.281654 0.734141
64096 1.105284 0.079401 -0.275027 0.998272 -0.810373 1.855017 0.346786 -0.321216 -1.099367 0.430279
55259 2.383217 1.536926 -0.818406 0.704697 -1.855142 -0.185243 -0.193678 -1.286999 0.081436 0.334210
5349 1.894344 0.340054 0.203814 -0.229606 -0.928203 -0.964079 -0.918482 -0.106961 -2.134727 -0.144151
158055 0.909903 0.054699 0.258975 1.097905 -0.730953 1.684560 0.505479 -1.092835 -1.579287 -0.141880
81555 0.733746 1.216876 0.125932 1.152966 -0.446479 0.076600 0.065233 1.850892 -0.648552 1.041713
10861 1.518816 0.943444 -0.406771 0.589630 0.197813 0.138849 0.650310 -1.247796 -1.457414 -1.726860
1282 1.684216 1.307997 0.407390 0.825713 1.209796 0.751664 -1.388773 0.609643 -1.170559 0.197947
84661 0.482475 1.743409 -0.948110 1.372999 -1.697635 -1.041294 0.506421 1.174859 -0.854045 0.482142
5888 1.618892 -0.104586 -2.127110 1.526361 -0.815575 -1.491958 1.235113 0.723567 -1.630395 0.393994
26102 1.088932 0.162663 -0.735889 1.216385 0.759432 0.643286 0.273447 -0.871527 -2.188512 -1.473074
826 0.456385 1.505701 0.453971 0.698176 -0.210090 0.144645 0.370706 1.495565 -1.854745 -1.102479
332 1.639845 -0.111160 -2.064153 1.485590 -0.839039 -1.491208 1.132791 0.851309 -1.699758 0.081660
4713 0.049730 2.011015 -0.825589 0.941090 -0.903850 -1.117545 0.448831 0.780868 -1.962503 -0.913080
8520 0.336629 0.982017 -1.013264 2.204528 -0.949916 -1.128559 0.183054 1.228704 -0.783967 1.179841
10351 1.900278 1.266465 1.161406 0.969800 0.654162 0.711353 -1.682447 -0.506558 -0.921315 0.808185
125988 0.014833 2.081345 -0.707188 0.872250 -0.991110 -0.944954 0.540506 0.678383 -1.823824 -0.810661
11196 1.179683 0.949023 -0.060600 1.443848 -1.277776 -0.571388 0.824167 1.314592 -0.178561 1.396778
8404 1.953212 1.424504 0.966662 1.003185 1.019970 0.657166 -1.668875 -0.523983 -0.905200 0.611477
10053 1.864626 0.480530 0.197295 -0.556119 -1.039856 -0.684985 -0.463931 -0.206184 -2.169160 -0.012560
3169 1.513177 1.019245 0.452119 -0.212847 -1.074804 -0.752442 -1.015916 -0.537030 -1.277284 0.037762
29127 1.623584 -0.301452 -1.712124 1.453548 -0.503053 -1.364522 1.089587 0.884220 -1.237790 0.552112
6753 1.137778 0.103517 -0.523978 0.893730 1.059628 0.513355 0.562267 -0.823908 -1.916038 -0.910370
374403 1.749614 0.365980 1.861853 1.821611 0.018306 -0.551962 0.707377 -0.467663 -0.321864 -1.264993
6860 0.415005 1.715643 -0.963457 1.627891 0.408799 0.474692 -0.801400 -2.159539 -1.335710 0.546210
23408 1.424865 0.909038 -0.508784 0.530117 1.054747 -0.748075 0.674274 -0.845996 -1.242024 -0.978149
140545 0.863293 1.058925 0.661094 0.049826 -0.772020 1.244675 0.518226 -0.461791 -1.069558 1.307204
5866 1.325572 -0.152161 0.437527 1.311843 -0.148912 1.442737 1.050690 -1.104533 -0.731531 0.065748
1582 1.213367 0.095943 1.955274 1.368400 -0.163139 -0.256114 -0.607527 -2.084668 -2.245095 0.808446
55681 1.204024 0.452251 0.415557 1.182366 0.173551 -0.188954 0.561626 1.641155 -0.672028 1.518496
51213 1.222513 0.323883 0.237530 0.916542 -1.232682 1.644362 0.315157 -0.767706 -0.794801 1.035001
63935 0.040468 0.444316 0.614698 1.382696 0.277819 0.115484 1.046636 0.742509 -0.785800 -0.414661
