21458 10
7316 -0.805624 1.136056 -0.543773 0.655963 0.189596 0.380417 -0.091927 0.206853 -1.532839 0.237312
9515 -1.817239 4.939059 3.726371 4.512863 3.214449 -2.011773 -2.560106 1.884170 -2.248380 -1.917169
351 -0.007255 1.037115 0.276639 0.190223 0.016781 -0.371608 0.100164 -0.182676 -0.138921 0.231846
1994 -0.328119 0.918074 0.442658 -0.020198 -0.096018 0.007176 0.129650 -0.491703 -0.152878 0.084736
4914 -0.250555 0.974484 0.109664 0.574799 -0.344045 0.153002 0.341823 -0.376254 0.117569 0.160804
6622 -1.064995 0.032810 1.082442 1.488802 0.698490 -0.308197 1.062156 -1.387063 -0.410077 0.063380
1956 -0.355228 0.874092 0.254407 0.735455 -0.158628 -0.057197 -0.124875 -0.346541 0.250352 0.498039
7514 -0.044701 1.114749 0.140977 0.339793 0.201807 0.496217 0.426950 -0.228344 0.173395 0.079525
10482 -0.259677 1.194309 0.131040 0.081288 -0.514836 0.108184 0.291583 -0.249525 -0.169788 0.131139
8452 0.135024 0.918615 -0.224307 0.811468 -0.220186 0.305832 0.226383 -0.500418 -0.309198 0.110694
7157 0.088248 0.667257 0.235501 0.341973 0.206660 0.384362 0.317878 -0.838808 -0.587445 0.190880
4343 -0.219506 1.212149 0.085627 0.110074 -0.595191 -0.020149 0.266191 -0.254109 -0.220501 0.097640
801 -1.307521 0.435025 0.148988 0.960183 1.005519 -0.263137 1.001850 -0.873241 -0.546137 -0.329891
4171 0.028849 0.897822 -0.132645 0.891746 -0.425837 0.464337 0.283367 -0.393065 -0.336677 0.195686
3320 0.151582 0.607125 0.501603 0.861252 0.322371 0.431484 0.038275 -0.409487 -0.117630 0.607475
10987 0.521037 0.847110 -0.154155 0.964587 -0.138919 0.375800 0.182739 -0.636184 -0.424043 0.331349
2130 -0.083131 0.743766 0.214829 0.491124 -0.361932 -0.311481 0.901666 -0.697176 -0.332034 0.534249
3028 -0.827328 0.299809 1.047642 1.774461 -1.072278 0.894382 0.674224 -0.763280 -1.105431 -0.091010
8454 0.435291 0.804801 -0.228682 1.028673 0.021839 0.524706 0.182116 -0.622933 -0.564334 0.282276
672 -0.027472 0.939050 0.261414 -0.002157 0.252284 0.570489 0.515846 -0.666007 -0.367043 0.452321
2335 -0.223806 0.754573 -0.209820 1.094556 -0.249074 0.014514 0.204737 -0.502894 -0.243879 0.267137
2099 -0.057831 0.657827 0.202537 0.477612 0.112430 0.353603 0.465762 -1.097933 -0.174057 0.389401
5886 0.235456 0.512116 0.675849 1.595998 0.289976 -0.175375 1.130921 0.170942 -1.651187 -0.175845
6045 -0.259811 1.005310 -0.375948 0.292562 -0.185976 0.205774 0.434097 -0.915006 -0.442150 0.012027
55832 0.294629 1.031025 -0.515924 0.908599 -0.414888 0.195063 0.347728 -0.899824 -0.368537 0.194524
1017 -0.164253 0.730137 0.008441 0.812668 -0.016312 0.445272 0.464528 -0.510428 -0.244364 0.125088
999 -0.690201 1.086553 0.086641 0.615966 0.221960 0.154578 0.123764 0.033500 0.362560 0.148130
26270 -0.074433 0.821329 0.147742 0.965822 -0.690322 0.011703 -0.489779 -0.721802 -0.177806 0.104732
3845 0.070924 1.454691 -0.016680 0.066332 -0.040318 -0.225644 0.036381 -0.118619 0.234053 0.317441
4609 -0.062996 0.682682 0.494695 0.385267 -0.016455 0.461271 0.319363 -0.759514 -0.178399 -0.002671
7415 -0.371930 0.790742 0.221522 0.586408 -0.108669 0.309160 0.166349 -0.178502 -0.376488 0.099805
3065 0.125833 0.918907 0.644722 -0.328226 0.145040 0.677093 0.586489 -1.058750 -0.647442 0.343665
2885 -0.186275 0.983403 0.225540 0.810311 0.555253 -0.165110 -0.003205 -0.018577 0.316385 0.787208
9820 -0.269983 0.973868 -0.314434 0.761400 -0.403807 0.318729 0.456419 -0.659158 -0.156805 0.209858
51547 -0.209202 1.142967 -0.453108 0.482572 -0.251149 0.378094 0.541670 -0.784650 -0.133362 0.096522
9531 -0.084216 0.749435 0.508377 0.996194 -0.068084 -0.163354 0.398692 0.283132 -0.208444 0.288657
23363 -0.209748 1.100760 -0.373047 0.466352 -0.324603 0.224417 0.632199 -0.779485 -0.087763 0.201642
6472 -0.177764 1.352877 0.287206 -0.035250 -0.912407 0.142963 0.511835 -0.194413 -0.131424 0.263864
3312 0.050549 0.614923 0.437584 0.886120 -0.050633 0.268318 0.013160 -0.401121 -0.231977 0.263278
988 -0.140211 1.104479 -0.060995 0.405498 -0.209816 0.272262 0.832364 -0.485880 0.056842 0.106654
2033 0.120729 0.627966 0.819833 0.011801 0.460725 0.639385 0.424102 -0.985279 -0.670518 0.530080
57154 -0.450148 0.462990 0.137561 0.841300 0.650958 0.992941 -0.138991 -0.955976 -0.610349 0.234800
1080 -0.777558 0.345421 0.396480 1.751428 0.561185 0.137718 -0.128579 -0.298683 -0.356972 -0.496997
4869 0.028276 1.013770 -0.539124 0.619265 -0.063180 0.237824 0.234643 -1.007981 -0.354977 0.100508
6733 -0.130025 1.237951 -0.285450 0.197061 0.230235 -0.471634 0.601132 -0.564362 0.147304 0.460697
83987 -0.352306 0.949251 -0.101122 0.682712 -0.082867 0.341201 0.194090 -0.495013 0.052602 -0.159979
22938 -0.097928 1.058313 0.094261 0.354746 -0.220795 0.178795 0.902649 -0.537368 0.088755 0.242395
3178 0.138370 1.087872 -0.430025 0.792227 -0.344718 0.094253 0.469870 -0.478064 -0.365750 0.109321
7329 -0.304220 0.883969 0.415709 -0.216161 0.146247 0.220968 0.532408 -0.597727 -0.753677 0.701259
7046 -1.016822 0.599360 1.269401 0.836562 1.014929 1.617379 -0.709589 -1.220724 -0.547251 0.063472
3309 0.066165 0.723174 0.196570 0.974634 -0.270659 0.049144 -0.342222 -0.545956 -0.222275 0.031617
1457 -0.161349 0.906890 -0.190996 0.264182 0.453954 0.200314 0.590681 -0.911586 -0.203082 0.375518
3676 -0.279626 0.860263 -0.289821 1.082257 -0.413422 0.145542 0.354049 -0.535796 -0.176213 0.387817
9619 -0.974882 0.704544 1.355258 1.224330 0.918906 0.827522 -0.059274 -2.885067 -2.183308 -1.978997
3315 -0.075995 0.659821 0.391509 0.866306 0.020485 0.081996 0.645281 -0.050206 -0.266271 0.210103
3428 -0.439171 1.674525 -0.851466 -0.227015 -0.019356 0.215678 0.337178 -1.037654 -0.087563 0.070249
3192 -0.031309 1.071119 -0.636787 0.728876 -0.197860 0.086538 0.388724 -1.100958 -0.228459 -0.084714
8453 0.412299 0.894316 -0.237820 1.053539 -0.232423 0.449244 0.184806 -0.528509 -0.403323 0.409389
4193 0.028145 0.713538 0.175057 0.383486 0.166684 0.392336 0.227151 -0.682893 -0.673529 0.351275
10075 -0.083886 0.686314 0.019928 0.898766 -0.239823 0.234257 0.586355 -0.501665 -0.479812 0.109748
3064 -0.779798 0.751800 0.480601 0.061083 0.426084 -0.689297 0.670895 -0.353950 -0.993621 0.966888
200728 -1.234114 1.367554 0.259205 0.159551 -0.097545 -0.273319 -0.385642 -0.084166 0.267276 -0.196679
8065 0.518182 0.834698 -0.138806 1.217016 -0.300258 0.436407 0.187490 -0.544037 -0.399526 0.660438
6117 -0.305940 1.069196 -0.117085 0.395473 -0.383510 0.603317 0.748755 -0.619018 -0.142253 0.194030
8726 -0.184769 1.077187 -0.302091 0.182429 -0.215533 0.192412 0.612908 -1.181868 -0.209606 0.268281
5071 -0.188036 0.499764 0.089037 0.995855 -0.010620 0.009145 0.329661 -0.442152 -0.803346 -0.051958
10971 -0.201290 0.849638 0.103186 0.770270 0.401531 0.469498 0.247619 -0.262134 0.082862 0.342000
30011 -1.292426 0.936458 0.165714 0.518217 0.872687 0.267227 0.545191 -0.269943 0.303063 0.569391
6118 -0.240709 1.005553 -0.009122 0.399145 -0.410282 0.479550 0.721593 -0.712145 -0.079660 0.100022
7531 -0.093147 1.055712 -0.037897 0.803329 0.430566 0.429343 0.236536 -0.063484 0.223294 0.389101
23291 0.264078 1.100603 0.066295 0.395604 0.073658 0.672632 0.091900 -0.447639 -0.028695 0.027526
7412 -0.310581 0.821257 -0.263078 1.125346 -0.263414 0.186081 0.376422 -0.480470 -0.170269 0.344875
4734 -0.508065 0.515693 0.574451 0.448759 0.780802 0.107816 -0.178546 -0.673132 -0.343643 0.556512
4088 -0.042634 0.606151 0.741290 0.062835 0.639886 0.660612 0.065767 -1.011175 -0.615775 0.488891
8945 0.285496 0.908015 0.268470 0.523452 0.405861 0.819427 0.022121 -0.335004 -0.271051 -0.115974
7186 0.072061 1.124366 0.574354 -0.009781 0.637970 -0.184370 0.098327 0.284026 -0.707310 0.563325
55294 0.367051 0.546421 0.731181 0.416625 0.297565 0.098727 0.457143 -1.143220 -0.035121 0.129418
7534 -0.184525 1.014446 0.107836 0.599737 0.568137 0.492502 0.245684 -0.204893 0.258342 0.366426
3609 -0.166301 0.934640 -0.521125 0.914267 -0.428694 -0.162566 0.365369 -1.001699 -0.326207 -0.265567
3308 -0.081961 0.429962 0.618412 0.856923 0.146061 0.375970 0.297515 -0.469427 -0.413873 0.595192
409 -0.286617 0.774670 -0.178007 0.843551 0.336304 0.105079 0.260613 -0.807210 0.151251 0.293298
1915 0.056768 0.625467 0.076340 0.956526 -0.180785 -0.055478 0.366179 -0.621683 -0.378960 0.277214
648 -0.094797 1.076169 -0.221924 0.144239 -0.189999 0.192875 0.663497 -0.899388 -0.337244 0.176844
7428 0.406390 0.719737 0.206569 0.744612 0.130733 0.313156 0.005510 -0.681022 -0.310707 0.506563
7529 -0.247398 1.172441 0.104077 0.618593 0.677981 0.580610 0.084068 -0.046608 0.489734 0.290318
23028 0.169141 1.007536 0.781867 -0.284822 0.478379 0.013955 0.703624 -0.413347 -0.372224 -0.115828
10155 0.454393 1.184048 -0.046984 -0.126698 0.257873 0.649661 0.233043 -0.718930 -0.861073 0.250324
2740 -0.555704 0.993808 0.453383 0.668800 -0.013711 -1.922818 0.058940 -1.119829 -1.398924 -0.930893
26123 -1.107373 1.176876 0.239033 0.460446 -0.848305 -0.364566 -0.536258 -0.546163 -0.336977 -0.505705
1499 -0.007223 0.685384 0.497264 0.300073 0.541812 0.588708 0.022321 -0.789773 -0.281081 0.464252
125115 0.800026 1.419412 0.389669 0.125361 0.742334 -0.974503 0.583497 0.045320 -0.423200 -0.091793
23435 -0.251534 0.915039 -0.632409 0.909725 -0.277782 0.129799 0.385712 -0.808034 -0.573368 0.304705
7874 -0.171128 0.917372 0.137982 0.171852 0.197862 0.479110 0.533413 -0.261745 -0.710078 0.213100
1387 0.091964 0.727708 0.901489 -0.128625 0.453057 0.672348 0.508343 -1.047156 -0.613043 0.711933
386682 0.978640 1.575047 0.397656 0.129733 0.410074 -1.431390 0.072173 -0.286854 -0.423177 0.097991
6119 -0.430832 1.054277 -0.166219 0.469469 -0.387738 0.540144 0.757792 -0.629156 -0.061102 0.181357
8450 0.570543 0.787305 -0.192656 1.164436 -0.127018 0.446808 0.312151 -0.653167 -0.561145 0.381468
2521 -0.001004 0.778376 -0.024848 0.892165 -0.375776 0.227294 0.472224 -0.564703 -0.293904 0.353669
5499 -0.254244 0.806702 0.322980 0.642290 0.599406 0.581218 0.589367 -0.347875 0.231821 -0.067381
6657 0.258200 1.003989 0.376108 -0.052285 -0.145826 0.625685 0.487258 -0.771852 -0.455978 -0.076152
8517 -0.200268 0.861248 0.505527 0.308214 0.543178 0.255561 0.138879 -0.081591 -0.238733 0.674300
29079 0.099657 0.952339 0.465394 0.443067 0.358166 0.008491 0.924633 -0.370139 0.270212 -0.542556
2932 0.015480 0.482518 0.766952 0.542977 0.668583 0.344465 0.180037 -0.774229 -0.177411 0.489354
8655 0.213204 0.575274 0.686012 0.885606 0.952644 0.599691 0.419787 -0.665344 -0.149879 -0.978890
2801 0.268836 1.293512 0.461980 -0.013204 0.594927 -0.474120 0.764955 0.142385 -0.242956 -0.176654
23390 -0.217076 1.363482 0.466097 -0.320390 0.007508 -0.825664 0.380811 -0.201655 0.094829 0.358908
11338 -0.234811 0.870360 -0.214340 0.864281 -0.394046 -0.082067 0.846787 -0.599183 -0.223383 0.415665
5501 -0.182573 0.831307 0.394367 0.498561 0.536891 0.628033 0.477927 -0.365165 0.145807 -0.146957
843 -1.372342 1.744788 0.190672 -0.112085 0.838855 0.665713 -0.136430 0.342402 -1.292747 1.364870
6790 0.112199 0.863207 0.191368 0.417946 0.224176 0.559318 0.060456 -0.589786 -0.202034 0.082548
5987 0.333322 1.251883 0.326093 -0.100839 0.518994 -0.178325 0.593721 0.153274 -0.669995 -0.066734
7189 -0.361584 0.790041 0.463788 0.511419 0.483054 0.410061 -0.107137 0.109797 -0.781616 0.830855
7013 -0.044116 0.891746 0.264281 0.732832 -0.178955 -0.073400 0.746933 -0.127475 0.031583 0.621897
207 -0.294665 0.602377 0.713820 0.650810 0.507177 0.449816 0.062895 -0.394871 -0.023603 0.684891
9924 -0.307192 0.893768 -0.464979 1.046148 0.283771 0.478618 0.398499 -0.610796 -0.047470 -0.059389
3066 0.141288 0.986775 0.533380 -0.356613 0.083280 0.621973 0.725807 -1.113099 -0.675396 0.289239
57520 -0.014773 1.090246 0.107265 -0.024682 0.083552 0.413674 0.392457 -0.517562 -0.297795 -0.131298
10014 0.061373 0.730321 0.159908 0.741628 -0.116272 0.706488 0.442626 -0.805147 -0.208503 0.377626
84708 0.215609 1.169008 0.491885 0.359710 0.549476 -0.914418 0.468550 0.201196 0.012504 0.298186
7321 -0.334232 0.819940 0.474477 0.245810 0.200766 0.407968 0.042334 0.053940 -1.473941 0.627176
6310 -0.006347 0.950589 0.690077 -0.184293 0.226099 -0.468776 0.496406 -0.431505 -0.382199 0.707364
4089 -0.302294 0.504392 0.878432 0.200604 0.599000 1.056013 -0.083325 -1.213816 -0.694173 0.381193
23512 -0.151087 0.974976 -0.172089 0.342546 -0.259838 0.114301 0.783643 -0.960583 -0.231908 0.102166
5460 0.405031 0.927938 0.139535 0.355759 -0.427706 0.323170 0.406062 -0.828921 -0.460546 -0.038821
10980 0.711406 0.784148 0.075193 0.963582 0.051843 0.386452 -0.007140 -0.490549 -0.581024 0.322360
5684 0.418476 0.629859 0.322180 0.885246 -0.005307 -0.385024 0.613114 -0.212856 -1.003723 0.038371
5111 -0.136648 1.065573 0.180525 0.224831 -0.471057 0.819424 0.466713 -0.271697 -0.609043 0.592184
5728 -0.102113 0.692348 0.085409 0.852791 0.391344 0.467582 -0.280042 -0.601061 -0.118264 0.329040
3326 -0.028102 0.658780 0.108573 1.258298 -0.074669 0.385668 0.246315 -0.436253 -0.100818 0.431907
79867 -1.030140 1.240735 0.307417 0.264051 -0.730138 -0.386563 -0.898736 -0.726178 -0.425696 -0.396386
4691 -0.087414 0.963540 -0.572309 0.719876 -0.104325 0.281521 0.374995 -1.160257 -0.339220 0.325227
8878 -0.274978 0.672356 0.563299 0.640751 0.493685 0.172798 -0.075422 -0.001073 -0.435698 0.409819
7532 -0.172108 1.188329 -0.056679 0.580732 0.650969 0.471952 0.340067 -0.090404 0.329612 0.377317
6780 -0.242386 1.035932 -0.569784 0.782212 -0.330507 0.116406 0.353610 -0.857893 -0.205670 0.096631
8451 0.674765 0.789539 0.031654 1.002691 -0.108414 0.687305 0.190974 -0.809148 -0.394445 0.306998
6134 0.021195 1.182972 -0.668439 0.487851 -0.070259 0.232506 0.324199 -1.181852 -0.211907 -0.023719
6714 -0.563208 0.709546 0.685497 0.636953 0.679608 -0.249385 0.083416 -0.656449 0.472079 0.992495
1213 -0.924306 0.926580 0.099958 0.743716 0.218124 0.475099 0.217698 -0.138480 0.142915 -0.246607
7917 -0.146211 0.669592 0.424932 0.443097 -0.078926 -0.066125 0.077309 -0.485189 -0.494681 -0.090917
10488 -0.664610 0.867374 0.928655 -0.041906 -0.373135 -1.154742 -0.063444 -0.671043 -0.798788 -0.194043
29979 -0.369510 0.623235 0.630442 0.609929 -0.209376 -0.597644 0.081494 0.008920 -1.105547 0.304962
23608 -0.832686 0.873760 -0.404082 0.713170 0.524154 -1.219926 1.014262 -2.025914 -1.964599 0.224838
4087 -0.228996 0.455276 0.872645 0.334350 0.596098 0.920468 0.035632 -1.070313 -0.456629 0.291772
388677 0.889794 1.394910 0.704111 0.172790 0.288995 -1.423607 -0.001587 -0.291956 -0.355325 0.109727
60 -0.270452 0.471681 0.468851 1.010828 0.346758 0.216239 0.318874 -0.607529 0.103121 0.147466
8350 -0.051935 1.052813 0.223536 -0.256753 0.070212 0.789562 0.717422 -1.152800 -0.493628 0.441075
142 0.028997 0.826969 0.208841 0.155056 -0.050412 0.634284 0.519190 -1.069583 -0.569608 0.710789
85451 -0.473258 0.688276 0.389665 0.593517 -0.383588 0.244735 0.332305 -0.350673 -0.355991 0.001220
4627 -0.943443 0.894291 -0.098697 0.939958 0.529373 0.331946 0.459523 -0.093667 0.064666 -0.199090
10273 -0.114863 0.454895 0.781667 0.885560 0.241740 0.395575 0.072687 -0.095851 -0.640832 0.528973
1460 0.085040 0.795794 0.235265 0.289105 0.415781 0.330697 0.180962 -0.866070 -0.147063 0.221503
10492 -0.135708 1.049607 -0.314155 0.518879 -0.317891 -0.090845 0.381368 -0.770665 -0.069409 0.050267
5970 0.282289 0.695776 0.808089 0.123308 0.285923 0.421529 0.326008 -0.710892 -0.560594 0.646933
3329 0.388153 0.801952 0.382497 1.040592 -0.628710 0.036259 0.231463 -0.267707 -0.267738 0.001067
5518 0.137767 0.878222 0.620754 0.763369 -0.146463 0.818052 0.116405 -0.415007 0.351615 -0.140088
2023 -0.274316 0.803507 0.433268 0.684443 -0.674987 0.144438 0.461295 -0.209302 -0.238496 0.393267
2547 -0.129277 0.769015 0.283529 0.369730 -0.251375 0.362195 0.373953 -0.819453 -0.268103 0.704899
155871 0.038170 0.908985 0.097001 0.101291 -0.235687 0.359848 0.820633 -1.211316 -0.410965 0.365879
867 -0.317415 0.885047 0.300807 0.998965 0.758181 -0.126356 -0.127656 -0.158277 0.258469 1.137009
1026 0.327764 0.590281 0.432899 0.578089 0.339907 0.316341 0.331950 -0.630894 -0.546303 0.410873
7322 -0.381969 1.028998 0.454733 0.145689 0.220138 0.305257 -0.121593 0.324880 -1.362265 0.572939
2316 -0.817058 0.843605 0.029701 0.963675 0.552379 0.525073 0.459332 -0.178206 0.182062 -0.161937
8266 -0.309088 0.720653 -0.251126 1.075716 -0.403431 0.027823 0.096980 -0.891935 -0.368339 0.011607
4188 1.006932 1.253659 0.675841 0.173087 0.581122 -1.160247 0.316952 -0.362820 -0.440469 0.003988
1642 0.576068 0.806828 0.296136 0.630260 0.043739 0.881047 0.453495 -0.711678 -0.469526 0.327920
7014 0.167382 1.071408 0.149180 0.368896 -0.291089 0.218359 0.637255 -0.442232 0.042529 0.419229
84445 0.430414 1.472807 0.152367 0.028581 0.800750 -0.405766 0.588708 0.064261 -0.071866 -0.337027
22976 0.003406 0.968985 0.068088 0.271041 -0.190332 0.269992 0.506061 -0.791461 -0.065475 0.034671
145508 -0.012830 1.445717 0.264608 0.455153 0.592455 0.555507 0.528175 0.376222 0.162972 -0.868072
5430 0.270982 0.864076 0.618143 0.309820 -0.024644 0.413629 1.046565 -1.248886 0.335193 0.312009
3014 -0.117635 0.819507 -0.064444 0.507991 -0.365119 0.442072 0.399143 -0.918796 -0.425785 0.299578
5885 -0.116773 1.017606 -0.261593 0.630962 -0.376966 0.665246 0.250726 -0.615202 -0.269004 0.176846
51259 -1.382321 1.284439 0.347193 0.097081 -0.409935 -0.169784 -0.409561 -0.323663 -0.028896 -0.289681
408 -0.439857 0.728301 -0.044687 0.767585 0.545462 -0.026839 0.194083 -0.717855 0.202841 0.286304
7203 0.406343 0.724837 0.545836 1.333198 -0.147342 0.934201 0.261201 -0.514621 0.258215 -0.093598
367 0.152825 0.666159 0.623610 0.180080 0.357231 0.556527 0.619778 -0.861506 -0.562680 0.577559
1398 -0.063642 0.977391 0.240210 0.855526 0.525424 -0.013356 0.207021 -0.052831 0.326474 0.932329
3184 -0.197823 0.946858 -0.023936 0.543495 -0.360776 0.177077 0.300717 -0.617372 -0.058986 0.204893
5347 0.162543 0.898890 0.520122 0.298601 0.369758 0.594676 0.424837 -0.300116 -0.130200 -0.230453
5594 -0.203611 0.601911 0.858303 0.436577 0.341851 0.532991 0.093859 -0.682119 -0.023755 0.854417
5515 0.501232 0.943120 0.830464 0.723190 -0.052009 0.845233 0.301429 -0.367624 0.386795 0.112715
8481 0.137255 1.187254 0.438183 0.632519 0.416069 0.537008 0.792084 0.090959 0.152374 -0.945827
9218 -0.910767 0.817274 0.468807 0.699876 -0.549977 0.057276 0.092686 -0.399961 -0.115679 -0.692854
4223 0.650079 1.115875 0.678345 0.140935 0.410290 -0.959382 0.340818 -0.127211 -0.428511 0.120484
213 0.175348 0.855132 -0.127223 1.015905 0.411615 -0.492672 -0.349030 -0.179597 -0.487833 0.345335
2146 0.044133 0.886759 0.079302 0.214674 -0.034227 0.149718 0.657195 -0.846075 -0.380938 0.380167
6732 -0.091524 1.255239 -0.459430 0.281588 0.304857 -0.511885 0.661652 -0.641366 0.054544 0.581316
155061 -0.050868 0.963730 -0.518265 1.063518 -0.341953 0.183497 0.276948 -0.910179 -0.078535 -0.117531
830 -0.984046 1.035987 0.100979 0.833570 0.571664 0.766476 0.541885 0.025918 0.202441 -0.537354
386675 0.930700 1.541854 0.343880 -0.006072 0.501789 -1.356930 0.186815 -0.395875 -0.583028 -0.057936
3190 0.060511 0.975096 -0.207896 0.615333 0.045602 -0.121886 0.713102 -0.589820 -0.197605 0.616171
154 -0.530308 0.565997 0.366657 1.144887 -0.302583 -0.310420 -0.082494 -0.495467 -0.040164 -0.063292
6774 -0.010296 0.788440 0.812638 0.217901 0.251644 0.151726 0.016789 -0.533061 -0.053885 0.825191
3837 -0.666397 1.150927 0.043418 -0.001730 -0.593970 0.599882 0.547672 -0.646537 -0.268026 0.366566
5108 0.082492 1.550102 0.374547 0.413834 0.506514 0.435566 0.804276 0.275590 0.272151 -1.191326
5371 0.041346 0.725717 0.722392 -0.015058 0.094859 0.535531 0.443835 -0.796690 -0.715882 0.600948
580 -0.014853 0.979157 0.182963 0.071569 -0.124444 0.147740 0.707982 -0.689987 -0.288413 0.308333
4738 0.378815 0.819980 -0.189020 1.272197 -0.198027 0.369354 0.193859 -0.249642 -0.690474 0.393645
5591 -0.193687 0.869831 0.229230 0.423279 -0.223982 0.686236 0.464916 -0.756360 -0.081469 0.590539
7846 0.234108 0.699860 0.555426 0.904561 0.017297 0.473588 -0.302123 -0.579490 0.109361 0.076209
7431 -0.000375 0.703791 0.270925 0.652002 0.245709 -0.044620 0.526910 -0.241056 -0.435016 0.198615
10013 0.062631 0.623761 0.482797 0.623062 0.152565 0.454958 0.153453 -0.511308 -0.314538 0.179612
23327 -0.783477 0.722111 0.404799 0.285361 0.830243 0.102527 -0.386069 -0.349778 -0.607402 0.601295
5500 -0.747193 0.919183 0.132595 0.708238 0.598537 0.750508 0.798842 -0.279518 0.257392 -0.152725
3725 0.120901 0.752828 0.850990 -0.081588 0.307315 0.302631 0.515060 -0.863948 -0.495510 0.657652
5300 0.222311 0.716323 0.531190 0.424912 0.295635 -0.240362 0.665342 -0.376219 -0.364152 0.568224
203068 0.000314 0.632948 0.295997 1.110528 0.009388 0.308575 0.116305 -0.474467 0.027122 0.199356
821 -0.519022 0.628019 0.460030 0.968148 -0.556561 -0.339075 -0.689573 -0.995419 -0.245628 -0.009391
8826 -0.815834 0.951627 -0.036599 1.006674 0.420878 0.653850 0.513789 -0.135133 0.284707 -0.145655
8924 -0.215478 0.994266 0.288123 0.358726 0.014971 0.354448 0.188537 -0.043020 -0.212054 -0.358612
9657 -0.118275 0.643433 0.370155 1.229566 0.017773 0.076037 0.061757 0.030702 -0.195425 -0.077147
6187 0.232922 1.084790 -0.720145 0.943588 -0.130104 0.066607 0.139296 -1.189856 -0.324761 -0.126565
10576 0.386015 0.650127 0.550112 1.346107 -0.086252 0.883377 0.308968 -0.448690 0.081252 -0.071212
51741 -0.075698 1.039622 -0.152558 0.598187 -0.107250 0.096243 0.508430 -0.289546 -0.069006 0.288265
7323 -0.410133 0.905832 0.327652 0.135760 0.361731 0.384114 0.028272 0.056295 -1.513813 0.630351
25913 0.150294 1.113043 0.225684 1.002999 -0.273038 -0.274663 0.439694 0.273680 0.213305 0.706050
7185 0.201572 1.364798 0.583747 -0.254502 0.810334 -0.377048 0.220948 0.358269 -0.702699 0.426479
2810 -0.142962 0.985650 -0.352723 0.770897 0.671348 0.301967 0.288642 -0.409119 0.027481 0.347360
11140 0.150036 0.624196 0.407500 1.125497 0.248295 0.227200 0.106195 -0.272458 -0.019124 0.512609
6464 -0.226183 0.880729 0.147365 1.237432 0.423878 0.078469 -0.040717 -0.268828 0.482445 0.998648
6925 0.532503 1.068709 0.711096 -0.123562 0.597363 -0.433661 0.686434 -0.198507 -0.469094 0.119038
5925 0.154409 0.861724 0.613697 -0.118467 0.404480 0.732969 0.544727 -0.850689 -0.635853 0.555312
23197 -0.619046 0.789600 0.465940 0.708561 -0.721343 0.132167 -0.301933 -0.380175 -0.396278 -0.300624
708 0.439050 1.079486 -0.104099 0.743250 -0.803436 -0.074496 0.270458 -0.768016 -0.432855 -0.591649
7334 -0.457833 0.891708 0.248224 0.483884 -0.071314 0.055775 0.256566 0.326683 -1.159886 0.554400
23411 0.130524 0.790882 0.575271 0.028625 0.312137 0.380430 0.439417 -0.854338 -0.285109 0.307616
9775 -0.158075 1.105424 -0.574673 0.833583 -0.091651 -0.077614 0.933917 -0.777906 0.021980 0.391182
5966 0.412235 1.129689 0.679773 -0.026433 0.263166 -0.392210 0.354385 0.053977 -0.440502 0.236736
54165 0.561246 0.887829 -0.126203 1.125800 -0.093927 0.281076 0.186484 -0.394818 -0.341415 0.497645
23524 -0.114606 1.052105 -0.429900 0.616950 -0.160536 -0.243568 0.892962 -0.827719 -0.070329 0.189091
11030 1.033268 1.307331 0.685070 0.163488 0.316032 -0.746886 0.385062 -0.117744 -0.251982 0.730893
6613 -0.136018 1.088584 0.176639 -0.170706 -0.169883 0.532892 0.755436 -0.528326 -0.872801 0.682860
10524 0.220382 0.783967 0.633881 -0.105463 0.370669 -0.053063 0.773512 -0.841575 -0.575011 0.303079
6202 0.169092 1.120964 -0.905235 1.083282 -0.112747 0.185858 0.132340 -1.181931 -0.615283 -0.329146
79577 -0.182738 0.755419 0.184457 0.746304 -0.234465 0.276422 0.353281 -0.451654 -0.142075 0.210025
8139 0.346482 0.901900 -0.241402 1.308387 0.366882 0.189660 0.156982 -0.557310 0.321201 -0.136335
6667 -0.133112 0.653566 0.619992 0.033623 0.475154 0.588571 0.700691 -0.974526 -0.567097 0.544006
1639 -0.057700 0.911540 0.433890 0.837515 0.342744 0.327164 0.728457 -0.081851 0.143617 -0.818135
6500 0.478971 0.791758 0.486960 0.645014 0.480083 1.043604 0.160341 -0.260892 -0.560781 0.184530
3608 -0.135560 1.162372 -0.691254 0.640049 -0.429892 0.004074 0.318136 -1.054719 -0.341265 0.029703
51474 -1.006189 1.370499 -0.200548 0.783440 0.694202 0.754255 0.177686 0.008637 0.643552 -0.070586
8290 -0.109793 0.956126 0.322046 -0.348314 0.019827 0.620395 0.813048 -1.459556 -0.633119 0.276750
55366 -0.358168 1.068723 -0.261484 0.578217 -0.137794 -0.077828 -0.091561 -0.592519 0.145608 -0.021940
10856 0.136643 0.783287 0.417844 0.475658 -0.226960 0.332726 0.963910 -0.799442 -0.140173 -0.035631
1173 -0.461001 1.007521 -0.119325 0.782207 0.567377 0.147326 0.138982 -0.076197 0.183372 0.141570
5562 0.947169 1.033201 0.599795 0.946713 0.733806 0.124772 0.460147 -0.083256 0.323379 0.504464
58480 0.169405 1.359910 -0.334151 0.287883 0.707560 -0.413887 -0.626936 -0.141334 -0.547226 -0.099897
7283 0.118938 0.667119 0.068582 1.155197 0.148939 0.514304 -0.041701 -0.795914 -0.079093 -0.554908
4174 0.031083 0.917025 -0.216944 0.791223 -0.258948 0.410497 0.579498 -0.669228 -0.235352 0.525141
6059 -0.411006 0.744006 0.054814 0.965607 -0.352419 0.136041 0.388820 -0.572440 0.048210 -0.122836
983 -0.260634 0.831036 0.222258 0.404278 0.315561 1.003709 0.323922 -0.487553 -0.299819 0.167865
4067 -0.557336 0.996040 0.154479 0.512916 0.634334 -0.163623 -0.111954 -0.474566 0.443003 0.878756
4155 -0.286932 1.448844 0.622997 0.244043 0.320741 0.733225 -0.258590 -0.589723 0.385203 2.034296
998 -0.741386 0.822565 0.399251 0.629906 0.445172 0.222411 0.256943 -0.171633 0.307844 0.106496
3881 0.626465 1.337500 0.358985 0.317352 0.709295 -0.979648 0.347319 0.058539 -0.206816 -0.097396
10574 0.416227 0.792607 0.524170 1.260538 -0.204351 0.967139 0.384434 -0.480709 0.310234 -0.093980
117178 0.454237 1.461476 0.231372 0.232448 0.772047 0.025631 0.869418 0.262361 -0.208022 -0.781671
51377 0.170067 0.732472 0.246694 0.880062 -0.127573 0.225227 0.606800 0.094260 -1.027417 0.038621
79923 0.379780 1.077250 0.134620 0.038503 -0.346909 0.558564 0.507645 -0.806833 -0.573923 -0.022150
3303 -0.036608 0.530599 0.332359 1.112090 -0.005729 0.305518 0.156242 -0.450359 -0.254662 0.288325
23281 0.619173 1.486632 0.236948 0.096988 0.718301 -0.800576 0.418059 0.015575 -0.088319 -0.177667
10528 -0.129835 1.201054 -0.787624 0.532523 -0.062022 0.196879 0.263515 -1.504940 -0.168342 0.071515
4000 -0.452863 0.981069 -0.016721 0.194038 -0.265426 0.176318 0.540160 -0.619869 -0.204091 0.278670
1459 -0.133314 1.169765 -0.162734 -0.074529 0.467886 0.294500 0.580054 -0.932224 0.001229 0.077445
8841 0.400600 0.848216 0.810384 -0.104537 0.363822 0.668731 0.368304 -1.133633 -0.357202 0.523304
6188 0.078866 0.836635 -0.615734 1.159532 0.102496 0.301214 0.142987 -1.127634 -0.410161 0.092846
56893 -0.029814 0.700316 0.588670 0.410774 -0.075692 -0.667526 0.075572 -0.153413 -0.906340 0.154025
1627 -1.191983 0.921299 -0.013454 0.968267 0.534357 0.540600 0.474514 -0.144822 0.189039 -0.200337
3396 0.303547 1.173583 -0.132911 0.988175 -1.031857 0.125967 0.170821 -0.703186 -0.533702 -0.997620
7520 -0.154354 0.818239 0.202729 0.340707 -0.325508 0.506751 0.518026 -0.951408 -0.256621 0.560425
1432 -0.204222 0.790222 0.657002 0.292453 0.262117 0.503697 0.263471 -0.586619 0.138436 0.753495
6128 -0.067990 1.090645 -0.860622 0.999119 -0.221506 0.165245 0.177174 -1.257622 -0.472267 -0.255741
26986 -0.025641 0.972444 -0.553697 0.990443 -0.174192 0.217344 0.526407 -0.676270 -0.292617 0.399537
66489 -0.030644 1.080848 -0.535541 0.499440 -0.110960 0.284281 0.412875 -1.187353 -0.149146 -0.003914
1195 0.061531 1.326789 -0.176995 0.415520 0.097667 -0.735989 0.468312 -0.404763 0.494491 0.213260
5705 0.120215 0.375923 0.652377 0.838115 0.285456 0.162586 0.578705 -0.356625 -0.978163 -0.157779
5597 0.132751 0.748616 0.357635 0.654645 0.222411 -0.107192 -0.040269 -0.272460 -0.248816 -0.009960
55611 -0.415658 0.709887 0.222152 0.620859 -0.323825 0.515577 -0.000145 -0.293901 -0.764394 0.313421
1660 -0.257810 0.999497 -0.416867 0.662219 -0.278385 0.225966 0.629064 -0.871226 -0.216345 0.359123
7277 0.480238 0.884037 0.610824 0.935857 -0.408796 0.324786 -0.449948 -0.771472 0.345913 0.043798
4670 -0.210579 0.974138 -0.516099 0.746607 -0.265122 0.078006 0.619529 -1.038177 -0.247463 0.121675
6386 -0.133166 1.059383 0.294076 0.188783 0.358634 -0.832287 0.400008 -0.030504 -0.272814 0.177012
2534 -0.742585 0.727224 0.588430 0.743615 0.807096 -0.372425 -0.109547 -0.653137 0.464658 0.939157
9146 -0.387454 0.900743 0.506943 0.256232 0.360899 -0.255896 0.340082 0.009689 -0.192883 0.202906
10381 0.381672 0.863087 0.742914 0.807354 -0.389932 0.213248 -0.462645 -0.746630 0.367504 -0.003299
2064 -0.358757 0.980470 0.679340 0.624315 0.201438 -0.002023 -0.369411 -0.422620 0.587322 1.055569
5595 -0.292086 0.574146 0.769460 0.384951 0.154317 0.362345 0.193770 -0.585275 -0.134925 0.505454
8339 -0.078924 1.219590 0.029989 -0.269177 -0.100735 0.469454 0.677227 -0.719810 -0.440422 0.074621
6597 -0.030562 0.803295 0.711254 -0.164515 0.094880 0.696048 0.821780 -1.282782 -0.446825 0.466012
11190 0.301474 1.032315 -0.418976 0.810573 0.247041 0.276575 0.253091 -0.648793 -0.199612 -0.326668
2908 0.028214 0.704243 0.576849 0.097803 0.087262 0.341808 0.496287 -1.078357 -0.319366 0.570139
5879 -0.714272 0.754179 0.414613 0.711708 0.585265 0.198018 0.282494 -0.135029 0.216821 0.394254
23468 0.442908 1.462503 0.051356 -0.578146 -0.000081 0.615833 0.301680 -0.894953 -0.695289 0.191272
2091 0.177172 1.239905 -0.571181 0.358017 -0.206304 0.084074 0.309494 -1.257665 -0.194008 0.023631
908 0.320201 0.696812 0.572210 1.435649 -0.204448 1.022836 0.317697 -0.570679 0.266918 -0.215366
25942 -0.051778 0.771119 0.779566 -0.258792 -0.054208 0.470506 0.877248 -1.120893 -0.748478 0.325610
1386 -0.197734 0.542654 0.836471 0.533258 -0.401599 0.225228 0.344119 -0.514892 -0.348855 0.286774
8607 0.057089 0.655247 0.591982 0.500258 -0.154499 0.444720 0.987188 -0.937953 -0.055982 -0.022580
4771 -0.227522 0.795847 -0.024236 0.773083 -0.014497 0.284269 0.280522 -0.506478 -0.114710 0.026451
3313 -0.122161 0.699912 0.231543 1.032430 -0.425322 0.321878 0.321654 -0.401288 -0.197480 0.209903
22981 0.133383 1.371009 0.304480 0.334171 0.912048 0.446695 0.611548 0.133715 0.158434 -0.799129
5599 -0.352872 0.696174 0.845885 0.319626 0.482098 0.591358 0.111906 -0.437658 -0.152735 0.926767
6453 -1.130612 1.373133 0.275741 0.307480 0.857477 -0.232316 0.809693 0.464783 0.304053 0.653899
5295 -0.397809 1.009015 0.758332 0.538214 0.673318 -0.234437 -0.351752 -0.529301 0.604006 1.266760
857 -1.197204 0.477670 0.846533 0.685261 0.329262 0.108972 -0.213459 -0.576096 -0.026237 -0.037525
25 -0.485202 0.981178 0.193688 0.637121 0.535071 0.401483 0.044981 -0.221879 0.163969 1.199226
57017 -0.050339 1.077760 0.742390 0.861439 -1.423619 -0.287893 0.012936 -0.526734 -0.472123 -1.054182
2597 -0.070916 0.590112 0.525246 1.024682 -0.387641 0.091317 0.374968 -0.374279 -0.222546 0.665037
7533 -0.160465 1.048716 0.182778 0.708382 0.651018 0.509530 0.185393 -0.047554 0.352634 0.025266
6208 0.117897 1.056989 -0.797938 0.874307 0.029837 0.223758 0.135472 -1.411607 -0.455851 -0.043549
4851 -0.091195 0.899139 0.579503 -0.040605 0.239528 0.644662 0.223565 -0.662584 -0.191486 0.309141
16706 0.037801 0.690178 -0.141791 1.189768 -0.158223 0.486124 0.314798 -0.726160 -0.346905 0.120208
324 -0.236534 1.068385 0.248801 0.190722 0.590525 0.603625 0.193773 -0.193006 0.009661 -0.029897
3611 -0.172318 0.834737 0.131541 0.878330 -0.525287 0.268836 0.003941 -0.578735 -0.009782 0.040592
83737 -0.742130 0.692810 0.474218 0.271353 0.584013 0.231132 -0.123490 -0.373164 -0.555381 0.765439
1655 -0.047497 0.832399 -0.144661 0.738784 -0.096723 0.368801 0.534041 -0.795015 -0.267653 0.406871
5710 -0.240528 0.435951 0.332487 1.066574 0.040695 0.068316 0.488978 -0.132460 -1.370098 -0.022154
6141 0.169572 1.284776 -0.995714 0.916472 -0.146307 0.235836 -0.005526 -1.369738 -0.435663 -0.042117
6929 0.372962 0.713537 0.259308 0.040957 0.121001 0.142599 0.388019 -1.149281 -1.058367 -0.181698
2475 -0.352584 0.878051 0.539608 0.417184 0.040650 0.340963 -0.039473 -0.604842 0.446194 0.474602
7205 0.328160 0.972826 0.769858 0.360696 0.354682 -0.418100 0.359711 0.137330 -0.159599 0.255712
6950 0.334403 0.683807 0.690862 1.296108 -0.138167 1.009656 0.224950 -0.670508 0.340539 -0.093312
64750 -0.623705 0.614776 0.374257 0.363203 0.675099 0.990563 -0.533997 -0.980965 -0.984834 0.373157
1025 0.114761 0.827267 0.306895 0.393327 0.077784 0.619403 0.544610 -0.987809 0.050335 0.679236
10575 0.353990 0.721219 0.480190 1.425460 -0.092684 1.026901 0.359757 -0.522307 0.223170 -0.154072
7337 -0.156233 0.569146 0.521764 0.722204 0.175093 0.129084 0.512524 -0.092527 -0.561784 0.047373
472 -0.186359 0.983169 0.635304 -0.117872 -0.152527 0.613916 0.219270 -0.710940 -0.094734 0.423870
6189 0.094833 1.024512 -0.789321 1.053347 0.042858 0.129262 0.122500 -1.249529 -0.379256 0.032520
3838 -0.076006 1.032149 0.121181 0.160444 -0.154282 0.028144 0.838315 -0.351368 -0.357801 0.413020
7341 -0.488371 0.855706 0.459421 -0.229362 0.105769 0.355595 0.707528 -0.436874 -1.084861 0.600519
3921 0.142931 0.949735 -0.696236 1.025073 -0.012702 0.132731 0.205674 -1.131261 -0.415740 0.020830
9349 0.092438 0.994638 -0.525935 1.067433 -0.196645 0.164396 -0.599273 -1.221324 -0.133051 0.055925
3068 0.033611 1.011004 -0.457065 0.612234 -0.467644 0.398116 0.695983 -1.177670 -0.485683 0.482562
387 -0.918267 0.882559 0.541584 0.595265 0.368603 0.313964 0.011671 0.116883 0.228967 0.443212
26260 -0.193400 0.634797 0.210415 0.933418 0.125806 0.462335 0.427451 -0.419335 -0.127771 0.144858
9045 0.065743 1.162668 -0.959115 0.904563 0.106237 0.069024 0.110647 -1.499428 -0.376804 -0.048363
8850 0.044772 0.685307 0.674718 -0.069326 0.549052 0.671850 0.667987 -1.250074 -0.655976 0.441774
3958 -0.650876 0.894353 0.487237 0.593586 -0.289803 -0.535997 -0.518896 -0.381084 -0.013858 0.071413
9636 -0.205988 0.859252 -0.052819 0.977171 -0.407844 0.030426 0.280163 -0.235584 -0.186516 0.661729
9958 -0.099167 0.864165 0.296424 0.291818 0.240434 0.667016 0.129909 -0.177043 -0.671290 0.412545
10399 -0.103554 0.665088 -0.077908 0.915561 0.211047 0.191411 0.007259 -0.715613 -0.297792 0.579877
10963 0.009803 0.590919 0.819040 1.399008 -0.575753 0.579056 0.500957 -0.040121 -0.162842 0.477542
155908 0.028592 1.187417 -0.513458 0.631855 -0.562956 0.145240 0.631398 -0.929913 -0.142083 0.285446
6647 -0.500334 0.588635 1.012085 1.108269 -0.766663 0.194669 0.631240 0.276793 -0.781169 0.634087
7083 0.413642 0.578680 0.664777 0.592334 0.189069 -0.363959 0.243913 -0.562802 -0.378100 0.234334
6606 0.327621 0.791632 0.196034 0.616577 -0.163597 -0.274228 0.748813 -0.814417 -0.131903 0.280809
6477 -0.222530 0.624520 0.620741 0.245043 0.604221 -0.434412 0.438192 -0.262102 -0.739990 0.477812
10419 0.244084 0.786171 0.175268 0.373711 0.180352 0.100945 0.698350 -1.073319 -0.238262 0.707297
9759 0.285595 1.426982 0.354780 -0.266488 1.026227 0.823669 0.118445 -0.641520 0.207376 0.503636
9978 0.632130 0.764453 0.278776 0.768979 0.135632 0.904091 -0.030248 -0.540132 -0.853582 0.599347
5682 0.362870 0.797620 0.314706 0.798924 0.348163 -0.293066 0.815575 0.134599 -1.013109 -0.319109
975 -0.173779 0.678245 -0.395119 1.234412 -0.252208 -0.291829 0.237432 -1.114789 -0.309873 0.595156
9859 0.003648 1.358346 0.334351 0.480678 0.553866 0.463773 0.569185 0.258880 0.290682 -0.724314
6839 0.640864 1.089583 0.732150 -0.345618 0.397784 0.097720 0.361902 -0.731288 -0.429949 0.157334
2065 0.000575 0.848913 0.313092 1.085837 0.039573 -0.056934 -0.434396 -0.564675 0.458967 0.615403
6625 0.148094 1.064623 -0.444852 0.540287 -0.126717 -0.158711 0.727541 -1.092424 -0.227052 0.219456
6449 -0.110810 0.584640 0.651509 0.694052 -0.145204 -0.560125 -0.221634 -0.164900 -0.912722 0.471347
5894 -0.342807 0.714369 0.650553 0.662561 0.474235 0.541973 -0.053823 -0.321824 0.141438 0.440219
17886 -1.305297 1.060755 -0.022603 0.842110 0.612651 0.536411 0.569522 -0.097911 0.278098 -0.463837
386676 0.969324 1.629386 0.450304 -0.009722 0.517314 -1.533232 0.319717 -0.301486 -0.517660 0.259786
11060 -0.302475 0.769081 0.223938 0.410256 0.119212 0.167067 0.007448 -0.393466 -0.427506 0.343790
386681 0.938151 1.564630 0.514999 0.162058 0.301655 -1.648250 0.208976 -0.409354 -0.358314 0.147477
10236 0.068848 1.052444 -0.406200 0.609464 -0.467598 -0.010795 0.829768 -1.053239 -0.293385 0.036277
5702 -0.074380 0.541954 0.553399 0.622777 0.254504 0.146780 0.820422 -0.164334 -1.018926 -0.349377
81910 0.039760 1.279348 -0.878270 0.655411 -0.029510 0.254006 0.152351 -1.280511 -0.171190 0.022388
6125 -0.005301 1.071076 -0.824463 0.932862 0.004347 0.227472 0.096692 -1.418012 -0.388675 0.128681
155030 -0.317076 0.998258 -0.466092 0.752507 -0.001001 0.236298 0.291247 -0.411855 -0.235260 0.291578
55660 -0.349378 1.149251 -0.326847 0.378999 -0.059249 -0.208794 0.800899 -0.706841 0.101418 0.550319
6421 -0.335602 0.859386 -0.116127 0.562910 -0.272235 0.150597 0.954946 -0.892933 -0.244168 0.493735
9656 -0.318740 1.004072 0.132882 0.070332 -0.278744 0.470282 0.739983 -0.681546 -0.336855 0.073238
64210 -0.219138 1.106091 0.205776 0.241392 -0.624781 0.295507 0.347495 -0.576160 0.046103 0.146038
345651 -0.160441 0.637576 0.452386 0.835030 0.198720 0.245578 0.311589 -0.460117 0.155052 -0.171152
7251 -0.684446 1.129406 0.199596 0.142246 0.247511 0.045577 0.332496 0.287246 -0.409556 0.419005
3181 -0.032020 0.814910 -0.265064 1.025181 -0.356263 0.204630 0.511398 -0.680732 -0.436461 0.292111
1487 0.171408 0.951282 0.876762 -0.310116 0.211695 0.381889 0.693515 -0.608005 -0.505246 0.219056
7314 0.059193 0.810295 0.569447 0.473903 0.048435 0.156366 -0.202773 -0.132577 -0.399619 -0.119657
1454 0.190952 1.081345 0.457952 0.193091 0.652166 0.554616 0.202395 -0.283468 0.099151 -0.215754
5928 0.045736 0.956526 0.280864 -0.216029 -0.038621 0.679365 0.738544 -1.208928 -0.852736 0.294489
120892 -0.646118 0.586439 0.331304 1.021454 0.529568 0.582203 0.340799 -0.200167 -0.072678 0.179663
4904 -0.146014 0.809197 -0.387173 0.813842 -0.053206 0.124513 0.551076 -0.966995 -0.389045 0.282981
4641 -0.886301 0.941499 -0.132166 0.729139 0.393816 0.399106 0.868677 -0.473368 0.272503 -0.205110
10241 0.366987 1.185559 0.408724 0.170713 0.477654 -0.399799 0.572239 0.173776 -0.421957 0.094462
5315 -0.106045 0.727515 0.270502 1.027989 -0.332933 0.221588 0.431827 -0.122404 -0.320348 0.537874
331 -0.384445 0.861343 0.691108 0.229054 0.348124 0.536584 -0.100501 0.171889 -0.835388 0.515330
8353 0.136123 1.061792 -0.400291 0.516396 -0.186533 0.452583 0.892516 -1.099593 -0.290010 0.399013
5578 -0.423229 0.692868 0.282493 0.446161 0.897697 0.099674 -0.091030 -0.719831 -0.028557 0.446723
22919 -0.252603 0.967520 0.161227 0.960710 0.889477 0.324782 0.644858 0.051704 0.194088 -0.549528
7132 -0.749515 1.109240 0.476091 -0.170317 0.443982 0.211479 -0.226496 -0.124756 -0.328690 0.659171
66661 -0.029215 1.244320 -0.789001 0.431647 -0.186912 0.296833 0.267217 -1.518726 -0.384425 -0.123271
6142 0.035341 1.282610 -1.063678 0.735676 0.174013 0.073982 0.113089 -1.549287 -0.386346 0.023424
6908 0.041013 0.797022 0.893082 -0.368783 0.114976 0.293680 0.972489 -1.368376 -0.463411 0.126683
51026 -1.226717 0.905413 0.503934 0.685307 -0.704338 0.026061 -0.177912 -0.487510 -0.330251 -0.895062
3024 0.158681 1.170667 -0.717142 0.335782 0.329000 0.167517 0.276436 -1.406598 -0.387724 0.355045
6137 0.296684 1.075825 -0.746986 1.005032 -0.111004 0.228175 0.133929 -1.195559 -0.470925 -0.179104
2783 -0.110595 0.531042 0.943512 1.037160 0.161732 0.028883 -0.108050 -0.725905 0.503044 -0.391344
1902 -1.185849 1.229487 1.084418 -0.125719 -0.406396 -0.856489 -0.467187 -0.837388 -0.203248 -0.462850
6709 -0.505617 0.805527 0.080654 0.881416 0.406561 0.363247 0.385551 -0.386424 0.274265 -0.029997
22948 0.413340 0.686064 0.522864 1.350222 -0.055257 0.899793 0.420596 -0.569144 0.228921 -0.175143
5781 -0.269969 1.173007 0.584006 0.779918 0.129115 -0.265686 -0.189198 -0.368602 0.785712 1.559389
6129 0.165939 1.108464 -0.893129 1.030821 0.123318 0.232635 0.187596 -1.334196 -0.403301 0.141587
658 -1.000411 0.792298 1.405367 0.539397 0.859903 1.685943 -0.992449 -1.278671 -0.943616 -0.081034
10197 0.420134 0.818964 0.245546 0.309929 0.211502 0.024312 0.850929 -0.537820 -0.821035 -0.351774
56257 0.172444 1.193474 -0.361906 0.686085 -0.236382 0.240293 0.948701 -0.641095 -0.010163 0.477833
6194 0.016678 1.017511 -0.844170 1.201670 0.094945 0.356884 0.105170 -1.253990 -0.235282 0.215123
6199 0.065425 0.773348 -0.174846 1.233485 -0.077384 0.504121 0.284000 -0.510841 -0.227663 0.346333
80179 -1.318291 0.946973 0.123983 0.963546 0.555638 0.588173 0.402717 -0.184674 0.345057 -0.457229
9782 -0.070176 1.078298 -0.469613 0.707520 -0.218753 0.178697 0.791404 -0.683357 -0.188648 0.008834
9217 -0.876353 0.848745 0.486013 0.528670 -0.295888 -0.054818 0.113559 -0.352060 -0.047292 -0.701713
23451 -0.084166 1.092073 -0.388735 0.518211 -0.364486 -0.078660 0.825983 -1.080442 -0.031346 0.302908
93185 0.067093 0.877004 -0.504857 1.033847 -0.069641 -0.305714 0.041637 -1.147507 -0.096999 0.381612
3187 -0.158175 0.880978 -0.202221 0.862390 -0.362522 0.138272 0.571322 -0.614232 -0.228428 0.377212
10694 0.164739 0.740727 0.484398 1.266919 -0.246039 1.024382 0.268938 -0.415188 0.152063 -0.075388
6885 -0.165381 0.829500 0.894844 0.264118 0.469752 0.642723 -0.289762 -0.100963 -0.496261 0.751395
4773 0.103855 0.847392 0.660744 0.027943 -0.214846 0.792656 0.544055 -0.898142 -0.391477 0.195825
506 -0.575024 0.660131 0.367598 0.859156 -0.713972 -0.310689 0.067618 -0.720180 -0.259938 -0.303951
10657 -0.416708 1.049698 -0.070675 0.487185 0.506697 -0.172592 0.402666 -0.463438 0.316496 0.819505
7879 -1.215054 0.836668 0.543445 0.636474 -0.520644 0.138293 0.279877 -0.136593 -0.267222 -0.640575
11461 -1.173401 0.929487 0.055690 1.198358 0.602650 0.594425 0.637312 -0.098509 0.340202 -0.576448
54386 0.179137 1.197456 0.496314 0.396746 -0.515112 0.079084 1.041876 0.037637 0.028514 0.861939
6156 0.144991 1.204284 -0.937418 0.718308 0.196108 0.207290 -0.054023 -1.479708 -0.506500 0.189149
991 0.002203 1.023599 0.499898 0.255565 0.156303 1.286349 -0.011450 -0.250273 -0.503229 -0.305237
3959 0.125778 0.879277 0.144224 1.057672 -0.057449 0.314560 -0.176068 -0.558042 0.303618 -0.311677
8359 -0.129868 0.929039 0.136092 0.126107 -0.136532 0.765661 0.813811 -0.890543 -0.577727 0.641075
155971 -0.510344 0.752285 0.269423 0.762499 -0.502601 -0.326973 -0.500891 -0.619143 -0.405500 -0.067910
51548 0.282383 0.980241 0.318935 0.290366 -0.138648 0.612307 0.196649 -0.691654 -0.104091 0.074147
7086 -0.246598 0.730427 0.959655 1.158342 -0.837614 0.255307 0.621885 0.196264 -0.197719 0.594151
1191 -0.000010 0.833846 0.532001 0.634697 0.062502 0.032483 -0.726679 -0.477477 -0.069058 -0.181697
1019 0.223568 0.666999 0.561091 0.430263 0.181093 0.428107 0.447202 -0.642105 -0.332480 0.555385
2869 -0.380576 0.701793 -0.085180 0.693304 0.198811 0.110965 0.482775 -0.901347 -0.026058 0.056541
6168 0.133576 1.312002 -1.033507 0.711859 0.146094 0.088242 0.037634 -1.556177 -0.425961 0.028996
841 -0.592214 0.990128 0.597559 0.116797 0.301187 0.573138 -0.271063 0.035348 -0.730220 1.000324
6921 0.788944 0.829302 0.379752 0.909746 -0.179273 0.618242 -0.084950 -0.517676 -0.519928 0.867332
6124 0.081312 0.994416 -0.841351 1.127734 0.088253 0.207695 0.134808 -1.326800 -0.521966 0.126772
6502 0.436106 0.805534 0.660361 0.516733 0.242560 1.157679 0.244618 -0.442842 -0.375756 0.294654
6175 -0.024781 0.977128 -0.778034 1.141571 -0.094230 0.295797 0.092230 -1.183192 -0.357723 0.137143
1938 -0.108510 0.691420 -0.113637 1.214149 -0.400679 0.406964 0.235284 -0.575392 -0.431415 0.258556
399687 -1.147935 1.055696 -0.062433 0.946801 0.578175 0.549992 0.620979 -0.006400 0.267356 -0.391143
4116 0.032800 1.142999 -0.633679 0.898739 0.049408 -0.050537 1.006983 -0.899880 0.114495 0.319332
10534 0.252852 1.073092 0.490729 0.481043 -0.116519 0.411204 0.465391 0.252786 -0.261025 -0.083662
9662 0.083139 1.455618 0.192644 0.465132 0.806044 0.496801 0.770230 0.297059 0.101878 -0.910053
5566 -0.352485 0.643798 0.562613 0.690746 0.829060 0.433286 0.353446 -0.226427 -0.018032 -0.228109
55791 0.348236 0.628897 0.820287 0.236624 -0.032699 -0.152596 0.406262 -0.822131 -0.368483 0.131932
5093 0.052931 0.782248 0.203841 0.962585 -0.459227 -0.027009 0.713636 -0.249588 -0.293402 0.583432
1616 -0.308278 0.965133 0.156166 -0.158144 0.147524 0.599513 0.446040 -0.708814 -0.761994 0.505227
498 -0.470844 0.685840 0.190101 1.176846 -0.850040 0.221181 0.201212 -0.648935 -0.350048 -0.365816
2060 -0.844598 1.125501 -0.228220 0.933167 0.751852 0.121212 0.250214 0.445621 -0.134173 0.184337
23020 -0.043490 1.010642 -0.202522 0.636433 -0.261627 -0.105100 1.220930 -0.818086 -0.058681 0.417800
1665 -0.169829 1.117751 -0.502500 0.715057 -0.326078 -0.124778 0.895544 -0.866398 0.006416 0.324473
2010 -0.172081 0.838982 0.023343 0.477796 -0.005758 0.088469 0.251812 -0.592643 -0.271850 0.057600
373 0.236281 1.413668 0.348256 -0.133021 0.699097 -0.541184 0.542419 0.405594 -0.746333 0.100616
5901 -0.655408 1.199012 -0.097405 0.173015 -0.591779 0.524128 0.753468 -0.439612 -0.213304 0.448434
329 -0.419977 1.027791 0.591639 0.241791 0.389180 0.354806 -0.211923 0.437604 -0.865255 0.555313
5708 -0.201127 0.442936 0.326348 1.048978 -0.031274 -0.044207 0.456534 -0.232506 -1.187473 -0.143919
3091 0.292501 0.612680 0.689483 0.340073 0.430386 0.346276 0.482557 -0.693796 -0.460912 0.574048
9611 0.243775 0.750202 0.885234 -0.118451 0.398875 0.545967 0.557507 -1.001271 -0.575571 0.407948
11091 0.099734 1.046884 0.305892 -0.164947 0.172407 0.775648 0.706931 -0.824554 -0.421701 0.320473
6191 0.174994 1.010478 -0.731021 1.189433 0.057819 0.354988 0.140998 -1.206324 -0.266690 0.027026
84790 -0.018170 0.653253 0.222556 1.276263 -0.236629 0.441136 0.043039 -0.533395 -0.016349 -0.192478
1937 0.053698 0.737138 0.092659 0.735391 -0.072032 0.016142 0.324888 -0.608784 -0.280224 0.364450
3185 -0.016379 0.909334 -0.138160 0.748876 -0.304609 0.028218 0.598960 -0.547356 -0.233519 0.222494
27339 -0.093718 1.044113 -0.141240 0.598535 -0.154715 -0.306402 1.346216 -0.554226 -0.045847 0.285525
10921 0.108618 1.259450 -0.506087 0.370920 0.080614 -0.277436 0.974672 -0.896999 -0.014084 0.265166
3301 -0.109551 0.577958 0.255600 1.149632 -0.231143 0.602071 0.102659 -0.583673 -0.224558 0.186972
1029 -0.103993 0.797574 0.184698 0.332428 0.203659 0.517493 0.365250 -0.608630 -0.458649 0.531798
3183 -0.073929 1.132025 -0.400903 0.503646 -0.137269 -0.022515 0.847686 -0.696677 -0.140116 0.246574
10291 0.018880 1.270451 -0.271905 0.585382 -0.571489 -0.189892 1.132007 -0.509061 0.002284 0.479841
132320 -0.369501 1.137615 0.702687 0.411925 0.104154 0.152676 0.707303 0.433432 0.146248 -0.455908
6132 0.178333 1.155639 -0.951559 1.084217 -0.107125 0.045901 0.126410 -1.344521 -0.434310 0.047789
6772 -0.361411 0.744082 0.612100 0.335793 -0.034372 0.203297 0.198468 -0.489089 -0.193195 0.961794
6426 -0.253863 1.100724 -0.486874 0.476546 -0.210912 -0.185866 0.833163 -0.887730 -0.277187 0.554319
51631 -0.191396 1.079857 -0.409444 0.503836 0.000740 -0.396218 0.911785 -0.784556 -0.168630 0.481344
1410 -0.078049 0.480694 1.166127 0.732437 0.420012 0.087283 -0.088074 0.206900 -1.042459 0.227090
4841 -0.078262 0.903928 0.019441 0.455153 -0.313378 0.302320 0.517898 -0.583504 -0.340043 0.262666
9439 0.062338 0.670942 0.834819 0.137586 0.046255 0.067240 0.955056 -1.233533 -0.028724 -0.169079
8239 -0.011382 0.597850 0.254869 1.079589 0.534912 0.320281 0.352945 0.154754 -0.688782 0.144998
7430 -0.729956 0.814879 0.404917 1.029559 -0.222418 0.375708 -0.031651 0.254052 -0.159570 0.719860
5931 0.126695 0.944132 0.736049 -0.252667 -0.419259 0.704086 1.064093 -1.074702 -0.897648 0.231481
4790 0.195711 0.758202 0.826320 0.119923 0.133444 0.755601 0.392032 -0.533702 -0.609650 0.613868
5359 0.499548 1.180947 0.690244 0.107454 0.380077 -1.272593 0.178695 -0.281601 -0.351323 0.426960
5861 -0.881364 0.891195 0.784921 0.728435 -0.681517 0.188387 0.374381 0.095124 -0.035029 -0.404785
659 -0.832783 0.884494 1.551826 0.233333 1.003795 1.078293 -1.163580 -1.062119 -0.450488 0.236913
11331 -0.677833 0.696586 0.368521 0.562477 -0.577681 0.414501 0.337087 -0.775248 -0.249640 -0.307670
7284 0.001847 0.912668 -0.254283 1.162516 -0.647181 0.305845 -0.086856 -0.798178 -0.178018 -0.099750
4809 -0.026675 1.191551 -0.663304 0.672767 -0.250931 -0.030864 0.857366 -1.030300 -0.106951 0.048083
79959 0.593089 0.968949 -0.220913 0.890425 0.270577 -0.027841 0.388965 -0.445681 -0.327502 -0.414577
23322 -0.023586 1.247109 0.171713 0.604091 0.195654 0.466403 0.441091 0.040329 0.187547 -0.840750
23450 -0.226523 1.093322 -0.217407 0.500754 -0.417631 -0.089002 1.139487 -0.884526 -0.023156 0.398463
4176 0.145053 1.071419 0.248844 0.313707 -0.216495 0.727595 0.603116 -0.405611 -0.163956 0.290121
6135 0.167794 1.014520 -0.751920 1.109481 -0.084667 0.145515 0.179432 -1.317570 -0.372500 0.062192
4697 -0.135725 1.034711 0.665277 0.870436 -1.290335 -0.247300 0.045928 -0.751919 -0.347210 -1.184519
166 0.661443 1.286542 0.649128 -0.105055 0.521800 -0.668596 0.789246 -0.128058 -0.365377 0.433913
1385 0.232553 0.926191 0.847844 -0.315456 0.152458 0.434201 0.288435 -0.847417 -0.526394 0.577807
10594 -0.051144 1.132761 -0.364351 0.644076 -0.243167 -0.215837 1.107766 -0.775745 0.016786 0.447496
4005 0.747410 1.031127 0.908698 0.082407 0.468257 -0.186914 0.908374 -0.289610 -0.168856 0.160096
6147 0.036657 1.024411 -0.865202 1.234213 -0.136745 0.346537 0.079730 -1.333747 -0.410306 0.139046
10048 0.180567 0.636540 0.468172 0.606010 0.472305 0.557903 -0.324704 -0.664793 -0.432669 -0.211510
6138 0.105114 1.073829 -0.943820 1.115512 0.101362 0.145874 0.114212 -1.351750 -0.463172 0.094935
682 -0.369160 1.234796 0.700452 0.053688 -0.761726 0.121621 0.064462 -0.526697 0.356956 -0.268655
1107 0.020310 0.694204 0.531487 0.071668 -0.043648 0.014525 0.653641 -0.882701 -0.672943 0.409388
10513 0.660623 1.127080 0.379510 0.128980 0.191897 -0.001899 -0.406475 -0.362944 -0.425337 -0.020959
149041 0.032331 0.997793 -0.584322 0.805251 -0.066224 0.479922 0.283688 -0.671967 -0.564568 0.086280
10768 0.072056 0.854609 0.398684 0.572135 -0.139070 0.050445 0.739925 0.165201 -0.725052 0.126902
3276 0.390448 0.916558 0.099835 0.361536 0.203676 0.382515 0.574779 -0.796768 -0.265436 0.588875
26524 0.189704 1.220608 0.430853 0.487920 1.008739 0.694592 0.148964 0.040036 0.282488 -0.290448
10598 -0.098162 0.767236 -0.139888 1.255014 -0.485904 0.429326 0.309353 -0.546535 -0.201307 0.399615
5903 -0.697067 1.245499 -0.039377 -0.088631 -0.413540 0.582345 0.707041 -0.533270 -0.246293 0.307018
7184 -0.389712 0.624403 0.289747 0.854794 -0.496948 0.453340 -0.135008 -0.727194 -0.319173 0.127848
9212 -0.006661 0.918696 0.076430 0.510023 0.345142 0.785566 0.397028 -0.370147 -0.310063 -0.134583
1894 -0.243732 0.877413 0.279967 0.439649 -0.367405 0.377422 0.457299 -0.456835 -0.161719 -0.127431
4292 -0.200545 1.010214 0.171460 0.500502 -0.170540 0.346694 0.284397 0.084331 -0.299811 0.309108
5824 -0.489404 0.967460 0.845041 0.188424 -0.430309 -0.191982 -0.382308 -0.476990 -0.164723 -0.628127
3383 -0.035844 0.795614 -0.435816 1.151154 0.031909 0.036360 0.060721 -1.146555 0.012756 0.321348
6217 0.103220 0.969907 -0.782390 1.286188 -0.063622 0.291908 0.128011 -1.276654 -0.408819 0.044968
57120 -0.050791 1.015058 0.893942 -0.015128 0.654043 -0.369757 0.230875 -0.069621 0.060526 -0.012298
10426 0.183597 0.913130 -0.096920 0.919222 0.024661 0.333127 0.105168 -0.950667 0.122663 -0.707473
8881 0.027857 1.360714 0.552281 -0.184503 0.203873 1.282326 0.175386 -0.386720 -0.267818 -0.852019
7332 -0.444765 0.649816 0.569539 0.503630 0.049768 0.488326 0.244607 0.095226 -1.196375 0.523364
51343 -0.002111 1.132251 0.605325 -0.014281 0.236237 1.288293 -0.060641 -0.176914 -0.593396 -0.123081
58 -0.477039 0.603033 0.361985 0.883291 0.636110 0.399246 0.643038 -0.346337 0.097731 0.272367
5701 0.092065 0.475574 0.412704 1.104095 -0.159285 0.239750 0.668224 -0.282404 -1.180674 -0.331716
152185 0.166198 1.360060 0.115345 0.405536 0.531911 0.579982 0.681161 -0.167235 0.108672 -1.095978
11346 -1.202847 1.135076 0.007072 1.022055 0.836467 0.611997 0.427292 0.008143 0.411117 -0.458890
4792 -0.068941 0.628729 0.865233 0.421403 0.409830 0.241151 0.136698 -0.205426 -0.366785 0.637532
7150 0.064950 0.929290 -0.109727 0.363569 -0.232863 0.189441 0.578793 -1.129551 -0.318190 0.603745
100009298 0.079731 1.215502 0.227055 0.203034 1.211007 0.258224 0.326640 -1.049222 0.397918 -1.190537
10250 -0.318705 1.049453 -0.361510 0.452802 0.021423 -0.243260 1.172496 -1.159100 0.115980 0.406916
4214 -0.254208 0.867701 0.340036 0.403900 0.402810 0.530795 0.120970 0.039587 -0.603449 0.594379
90 -1.246319 0.753369 1.392900 0.386705 0.859874 1.495602 -0.996415 -1.380329 -0.811424 -0.007083
80321 0.689453 1.393971 0.139534 0.015001 0.509720 -0.811426 0.853268 -0.289457 -0.449192 -0.365463
3551 -0.219723 0.787302 0.736390 0.335115 0.566814 0.631079 -0.086005 -0.176421 -0.417557 0.804385
5888 -0.119032 1.182512 0.603784 -0.127530 -0.518796 0.562703 0.297769 -0.394219 -0.019607 0.270720
6207 0.025346 0.985596 -0.853999 1.189223 0.084191 0.133174 0.214851 -1.387176 -0.462992 0.118143
5245 -0.796264 0.687326 0.194201 0.632309 -0.475985 0.260474 0.298122 -0.714385 -0.374617 -0.283455
9260 -0.472388 1.081853 0.363254 0.475736 0.693856 0.502172 0.387906 0.297328 0.031819 -0.123962
5516 0.427200 1.020544 0.916064 0.732155 -0.053257 0.860340 0.309329 -0.341268 0.673122 -0.160286
5878 -1.100609 0.926466 0.331156 0.577607 -0.596951 0.094759 0.348460 -0.359056 -0.091710 -0.601285
11116 0.205410 1.384156 0.515108 0.444418 0.546872 0.655555 0.580539 0.142600 0.451401 -0.787488
1778 -0.116553 0.721378 0.206980 0.990499 0.154068 0.367370 0.786540 -0.587048 0.105326 -0.605298
6182 0.373979 1.348531 -0.362945 0.860329 -0.879172 -0.095393 0.199852 -0.480398 -0.355071 -0.716670
5717 0.230164 0.401466 0.451750 0.997261 0.100195 -0.005450 0.444176 -0.420802 -1.297570 -0.251467
9659 0.450242 1.059780 0.270385 0.682745 0.556049 -0.121749 0.275925 0.344123 -0.616632 -0.612706
5468 0.224060 0.606544 0.883528 0.079930 0.545817 0.387711 0.633800 -1.133814 -0.515192 0.680421
9733 0.330914 1.273898 -0.766170 0.548344 -0.035367 -0.093238 0.562356 -0.883126 -0.432502 0.143849
491 -0.829623 1.145351 1.093210 0.308252 -0.126417 -0.835058 -0.626011 -0.687392 0.384996 -0.614464
6193 -0.036133 0.968087 -0.737835 1.189723 -0.136021 0.239885 0.171510 -1.316631 -0.249557 -0.010158
11007 0.550853 1.420992 0.263844 0.101369 0.908767 -0.441975 0.989156 0.029467 -0.191679 -0.290554
2923 -0.403876 0.806451 0.246464 0.980873 -0.663976 -0.012380 -0.396877 -0.358390 -0.239547 0.414336
4204 0.029454 1.293924 -0.473910 -0.174850 0.129007 0.431473 0.344939 -1.464030 -0.473777 0.006497
2274 0.107961 0.876325 0.534053 -0.074124 0.536320 0.315420 -0.006956 -0.592762 -0.443257 0.221497
891 -0.076481 0.930172 0.349907 0.285175 0.343682 1.074618 0.354180 -0.230724 -0.539545 -0.100494
6122 -0.010965 1.030661 -0.867638 1.136410 0.089646 0.270511 0.148885 -1.302914 -0.372546 0.041454
4722 -0.146788 0.974884 0.585779 1.015027 -1.284044 -0.250266 0.245381 -0.536230 -0.489850 -1.071973
11064 -0.182755 1.207445 0.268285 0.622115 0.194813 0.461127 0.593604 0.049852 0.182680 -1.024504
5936 0.106975 1.402625 -0.693784 0.338935 -0.150296 0.172346 0.434836 -0.979477 -0.119775 0.038417
6871 0.351765 0.863178 0.374985 0.249918 0.366198 -0.357475 1.318449 -1.070671 -0.050296 -0.092317
23392 -0.431758 0.841730 0.175531 0.556430 -0.204399 0.088132 0.198969 -0.279689 -0.246336 -0.226635
9919 -0.317324 1.098920 -0.083912 0.610347 0.413804 0.575062 0.581682 -0.133008 0.145641 -0.273417
27316 0.218318 1.248252 -0.504316 0.607275 -0.270469 -0.258989 0.797690 -0.662898 -0.128588 0.147512
6223 0.005813 0.937603 -0.748524 1.182416 -0.164557 0.073617 0.262471 -1.202468 -0.466956 -0.018394
51366 0.109573 0.894915 0.181417 0.371180 -0.088024 0.653434 0.337684 -0.514496 -0.517445 -0.187483
7517 -0.283846 0.912040 0.403680 0.353808 -0.622331 0.259015 0.097505 -0.762628 0.022036 -0.015775
26121 0.478318 1.211915 -0.339360 0.489715 0.454325 -0.525981 0.919193 -0.419698 -0.250005 0.042308
310 0.274064 0.393041 0.731264 0.831311 0.079415 -0.285976 0.291237 -0.662359 -0.495325 0.375995
55093 0.402059 1.136343 0.645951 0.221514 0.313228 -0.585298 0.451948 0.223949 -0.244447 0.175356
7704 0.495039 0.696969 0.738161 0.088703 0.661425 -0.097136 0.234177 -0.736541 -0.741377 0.265425
24144 0.391618 1.470614 0.388582 -0.129677 0.264402 -0.582959 1.076034 0.042928 -0.158468 -0.354235
5034 -0.293542 0.606331 0.323501 1.100939 -0.675901 0.089163 0.280552 -0.415689 -0.362275 0.144621
6184 -0.614422 0.690839 0.151304 1.083915 -0.836855 0.089697 -0.005949 -0.747837 -0.403733 -0.306945
79001 -0.768388 0.805075 0.238267 0.647801 -0.546008 -1.172066 -0.130802 -0.454257 -1.000507 -0.190717
58477 -0.906700 0.945479 0.449742 0.327661 -0.679615 -0.267576 -0.268782 -0.385870 -0.504944 -0.260545
9869 0.342634 0.681081 0.582133 0.157481 -0.048111 -0.109889 0.349902 -0.844528 -0.659006 0.038007
5976 0.214293 1.416837 -0.542878 0.445750 -0.161666 0.177156 0.500146 -0.583279 0.071220 0.018284
57531 -1.691249 0.221223 1.046499 1.233070 1.159919 0.825585 0.840919 -1.020673 -0.579316 -0.309130
10521 0.007773 1.068212 -0.311180 0.556445 -0.180626 0.100467 0.687053 -0.609564 -0.248260 0.479122
6210 0.132766 0.849197 -0.730010 1.275420 0.037615 0.198047 0.168041 -1.275084 -0.636544 -0.077085
85302 0.128271 1.231346 0.221142 0.438668 0.424446 -0.112565 0.638203 0.337469 -0.194515 -0.454990
3981 -0.162059 0.792143 0.439595 0.569485 -0.592157 0.077379 0.406494 -0.314823 -0.292309 -0.090254
3305 0.114442 0.606245 0.432458 1.062279 -0.175284 0.424702 0.136270 -0.431341 -0.157285 0.089641
811 -0.364951 0.616796 0.441317 1.086349 -0.489671 0.018752 -0.114917 -0.299683 -0.197982 0.408142
2040 -1.148877 0.846222 0.300589 0.694729 -0.532162 0.085354 0.126802 -0.550269 0.051347 -0.525581
1408 0.197627 0.825388 0.271082 0.794995 -0.170629 0.675979 0.554195 -0.545629 -0.052456 0.229851
8237 -0.136879 0.982429 0.249868 0.257585 0.186623 1.030088 0.152567 -0.340029 -0.367913 0.146759
6923 0.815339 0.867450 0.319028 1.178187 -0.057052 0.818059 -0.077659 -0.389532 -0.398896 0.960743
10454 -0.063600 0.935872 0.537085 0.382553 0.196587 0.386496 -0.011720 -0.009912 -0.161140 0.553492
8440 -0.394159 1.366324 0.312318 0.295484 0.884117 -0.376256 0.420590 0.072597 0.613795 0.885154
59 -0.212898 0.791716 -0.030216 0.881917 0.221640 0.037509 -0.039709 -0.449065 0.056735 -0.107197
1072 -0.647024 0.699665 0.331392 1.373884 -0.401489 0.418677 0.680541 0.047490 -0.056650 0.370635
335 0.144391 0.910602 -0.065917 1.219715 -0.028673 -1.058425 -0.385138 -0.072087 -0.815065 0.101240
8243 -0.283322 1.151540 0.210223 0.044794 -0.506029 0.895708 0.650880 -0.783251 -0.049640 0.073723
3516 0.281338 1.067091 0.723180 -0.447433 0.020376 0.545077 0.702225 -1.088199 -0.434404 0.256832
55170 0.571775 0.959994 0.781933 0.020998 0.328244 0.138321 0.294426 -0.508434 -0.047178 0.132801
6601 -0.110064 0.901119 0.592396 -0.112967 -0.192855 0.572187 1.085893 -1.103664 -0.314272 0.475541
6204 0.027014 0.934514 -0.750800 1.195445 -0.072849 0.240115 0.163869 -1.248638 -0.422322 0.101261
84078 0.268549 1.233224 0.063210 0.075724 0.209339 0.162130 0.010281 -0.497483 -0.007241 -0.192725
1147 -0.220109 0.788327 0.530918 0.355919 0.634138 0.578001 -0.016627 -0.268509 -0.522485 0.943240
12412 -0.092281 1.036471 -0.018319 -0.106332 0.160081 0.588882 0.458182 -1.155499 -0.365868 -0.197440
4736 0.112986 1.134286 -0.941274 1.040922 0.056030 0.111238 0.169804 -1.341013 -0.395638 0.031550
1654 -0.173252 0.825919 -0.313428 0.896772 -0.033614 0.308509 0.633019 -0.742640 -0.305073 0.383965
6640 -0.668828 0.653719 1.220623 0.508265 1.032160 -0.978025 0.193471 -0.739943 0.430790 0.144764
5770 -0.782771 0.940478 0.668847 0.314171 -0.508536 0.004018 -0.435522 -0.548351 0.090959 0.250903
27185 0.027828 1.000182 0.571303 0.366915 0.680782 0.229154 0.540567 -0.083110 0.168312 -0.511481
6130 0.035691 0.978540 -0.844091 1.199413 0.000883 0.100101 0.118036 -1.440628 -0.410138 0.149167
7317 -0.396406 0.812434 0.217558 0.854817 -0.256755 0.466783 0.368865 0.252089 -0.863152 0.543951
10989 -0.444410 0.685120 0.437676 0.629673 -0.526618 -0.112611 0.434843 -0.664471 -0.274304 -0.598181
9584 -0.086026 1.223751 -0.389236 0.382078 -0.249143 -0.466666 1.084047 -0.789742 -0.151986 0.474946
121441 0.408802 1.019202 0.091209 0.868374 0.310754 0.497936 0.368172 -0.569237 0.124366 -0.929605
3939 -0.351917 0.700425 0.597031 1.238959 -0.919458 0.205292 0.562975 -0.097278 -0.299371 0.525221
4137 -0.335330 0.437837 0.624130 1.151530 0.628658 0.153222 0.417144 -0.249917 -0.050645 0.544558
604 0.312628 0.962639 0.763630 -0.378538 0.584551 0.142417 0.147361 -1.073131 -0.289860 0.534016
6636 0.305034 1.457473 -0.471933 0.858297 -0.349158 -0.648365 1.172072 -0.314349 0.197085 0.276425
6224 -0.028077 0.966272 -0.820621 1.224292 -0.016439 0.148629 0.061456 -1.267176 -0.335008 0.167979
57159 0.235006 1.260288 0.307297 0.177613 0.681928 -0.508498 0.746858 0.413713 -0.679460 0.085399
9319 0.365205 1.038892 0.754083 0.323069 -0.254306 -0.385594 0.383491 0.043945 -0.155797 0.343729
3728 -0.367009 1.073156 -0.032319 0.841179 0.051686 0.532057 -0.275297 0.018511 -0.009991 -0.150383
4772 0.139979 0.856728 0.722705 -0.085751 -0.262924 0.712171 0.394827 -1.060137 -0.449945 0.260700
55835 0.110084 1.266392 0.357426 0.492694 0.445784 0.659521 0.686323 0.097718 0.196326 -0.761485
6201 0.071566 0.954971 -0.758484 1.192870 -0.071671 0.124122 0.316493 -1.279101 -0.352188 0.059088
77579 -1.220434 0.918918 0.316860 0.898695 0.873994 0.491427 0.661841 -0.157502 0.390710 -0.484779
51121 0.349702 1.458484 -1.040751 0.600031 0.034325 -0.008470 0.102494 -1.306691 -0.433709 -0.086720
5687 0.195415 0.582704 0.261682 1.049642 0.012695 0.188407 0.670445 -0.123292 -1.260561 -0.276089
51035 -0.257737 0.871391 0.376799 0.721452 -0.195545 0.279315 0.416897 0.356157 -0.699936 0.158281
2353 0.383841 0.639765 1.134542 0.092880 0.174644 0.258942 0.662062 -0.761286 -0.513649 0.582766
7536 -0.098634 1.003390 0.197159 0.458358 -0.459288 -0.070636 0.723898 -0.387074 -0.030315 0.292788
23790 -1.426148 1.018518 0.067408 0.932248 0.557439 0.483716 0.399056 -0.099781 0.388482 -0.470294
10456 -0.452021 0.432596 0.766285 0.914187 0.395991 -0.625836 0.311193 -0.679387 0.160555 -0.167451
25776 0.086074 1.919729 -0.072489 0.270450 1.124689 0.842915 -0.113748 -0.086412 0.819380 0.225643
641 0.345658 1.268324 0.151347 -0.051174 -0.638887 0.650570 0.470449 -0.611393 -0.502932 0.335446
9343 -0.122590 0.980258 -0.149127 0.912006 -0.331965 -0.099281 1.509775 -0.814316 0.069801 0.420546
84062 -0.467953 1.400444 0.806202 -0.182966 0.512021 -0.245402 0.730263 0.266818 0.231179 -0.568600
11043 0.490259 1.335400 0.323653 0.078723 0.644262 -0.681563 0.695779 0.287997 -0.820041 -0.159984
4843 0.167122 0.478906 0.150731 1.415266 -0.077242 0.318036 0.198004 -0.506704 -0.574826 0.198660
10413 -0.313870 0.798830 0.709681 0.347723 0.377009 0.754929 0.270115 -0.074698 -0.300648 0.483061
7158 -0.097362 1.008725 0.344601 0.017432 -0.085563 0.891851 0.531048 -0.485793 -0.545572 0.064131
79885 0.012626 1.207661 -0.112882 0.240625 -0.466424 0.442056 0.490539 -0.897730 0.025843 0.021931
6711 -0.841723 0.703053 0.065697 0.761966 0.630666 0.579497 0.487277 -0.653401 0.127323 -0.072116
7979 0.155474 0.661635 0.322024 0.765209 -0.323227 0.185950 0.593057 -0.234965 -1.010834 -0.060302
1856 0.199285 1.193903 0.018505 0.264885 0.798114 -0.039938 0.419371 0.077257 -0.305923 0.098335
23212 -0.010090 1.351591 -1.133760 0.682621 -0.066996 -0.194507 0.255250 -1.477516 -0.529172 0.111017
2275 0.574384 0.994875 0.644148 0.215907 0.407138 -0.464449 0.184914 -0.287785 -0.065246 0.151587
11198 0.085509 1.277139 -0.252553 0.153740 -0.253334 0.514866 0.911046 -0.975564 -0.113268 0.424779
10956 0.118213 0.796067 0.720651 0.873306 -0.447294 -0.113259 -1.161685 -0.880789 -0.351518 -0.020854
9612 0.495150 0.717969 1.057412 -0.016525 0.522629 0.716757 0.490297 -1.137586 -0.583295 0.468104
6133 0.217466 1.090755 -0.891006 1.043809 0.170610 -0.038949 0.248693 -1.008976 -0.500153 -0.048817
7324 -0.315460 1.108742 0.457845 -0.078208 0.064511 0.375275 -0.001417 0.197343 -1.461327 0.688723
7416 -0.912155 0.632678 0.421829 0.997794 -0.786856 0.097024 0.090964 -0.428837 -0.463197 -0.385733
171483 0.385434 1.315522 0.238264 0.176027 -0.106785 -0.850400 0.745750 -0.045033 -0.380328 -0.597613
6829 0.219035 1.040702 0.291764 0.368290 -0.090097 0.300931 0.921811 -0.823470 0.356101 0.204531
10097 -0.756562 0.891902 0.338000 1.146846 0.070353 0.761861 0.758964 0.101591 0.272016 -0.199305
29896 0.117896 1.279859 -0.693657 0.495529 -0.164946 -0.388153 0.887308 -0.924350 -0.345127 -0.116819
9513 0.224437 1.191821 0.147323 0.211283 0.446076 -0.485376 0.855896 -0.117099 -0.094255 0.047396
5747 -0.539972 0.846284 0.541624 0.689811 0.591139 -0.176498 -0.044167 -0.427015 0.420926 1.164670
7088 0.697121 0.611907 1.205988 0.142795 -0.139415 -0.428976 0.590714 -1.083441 -0.742153 0.838697
26747 -0.492802 0.640870 0.591069 0.853609 0.369475 -0.947537 0.487577 -0.959138 0.575585 -0.270006
3692 -0.240753 0.955001 -0.418671 0.759730 -0.432634 0.115165 0.277135 -0.723850 -0.356435 0.318673
87 -0.409911 0.643902 0.231544 0.878757 0.585193 0.078092 0.540669 -0.246250 -0.110473 -0.134561
4086 -0.031694 0.671905 0.802296 -0.085996 0.500023 0.795711 0.105901 -0.952263 -0.746045 0.377393
7385 -0.484997 0.635121 0.381735 1.257682 -0.907762 0.179784 0.204251 -0.763678 -0.246592 -0.565052
8503 0.000510 1.040471 0.944212 0.254279 0.422659 -0.215686 -0.051129 -0.209813 0.408386 0.997294
9126 -0.213273 1.188057 0.204012 0.023060 -0.423607 0.958290 0.658144 -0.760920 -0.080443 0.128962
79600 -0.194081 0.933398 0.417800 0.944252 -0.847522 -0.095132 -0.780815 -0.599460 -0.174101 -0.147001
9730 0.547892 1.184080 -0.241628 0.452157 0.167099 0.971333 0.330284 -0.514098 -0.594161 0.130888
6205 0.046277 1.031598 -0.853286 1.106338 -0.014055 0.268760 0.167107 -1.285593 -0.553705 0.071956
4839 -0.046763 1.344926 -0.979329 0.471828 0.099299 0.103505 0.403133 -1.487921 -0.323115 0.062743
8175 -0.082389 1.183458 -0.297038 0.624157 -0.467679 -0.266746 1.334187 -0.816338 -0.006190 0.354168
8697 -0.042212 1.368097 0.338505 -0.383550 0.258769 0.747810 0.274682 -0.209199 -0.708720 -0.733191
70405 -1.344476 1.097471 -0.080224 1.055413 0.694948 0.542306 0.538333 0.022076 0.310986 -0.494046
22832 -0.111457 1.302692 0.223081 0.650915 0.553935 0.620382 0.800465 0.201286 0.100446 -1.099725
4478 -0.981817 0.725900 0.486096 1.193507 -0.347097 0.539464 0.065825 0.176373 -0.142015 0.750324
57332 0.241874 1.247956 -0.442458 -0.078123 0.428410 -0.025057 0.612595 -0.951713 -0.708077 -0.237289
6272 -0.315947 1.173016 0.064219 0.194171 -0.191689 0.065684 0.067843 -0.310196 0.085179 0.011638
71 -0.539905 0.741286 0.128458 0.895310 0.330708 0.324149 0.587072 -0.274006 0.056961 0.097593
5052 -0.267974 0.607632 0.249794 1.157102 -0.275403 0.443637 0.667078 -0.242243 -0.390053 0.447941
2771 -0.493390 0.792213 0.532448 1.038266 0.385225 -0.683390 0.174555 -0.473968 0.608306 -0.535952
9128 0.279632 1.195230 -0.333436 0.872675 -0.191554 -0.204223 0.912636 -0.538115 0.269270 0.164840
51512 -0.752265 1.248649 0.159289 0.440297 0.632708 0.479590 0.332176 0.230022 0.213051 -0.515224
12166 -1.285002 0.817389 0.416462 0.745231 -0.438138 0.202435 -0.210854 -0.354722 -0.156972 -0.423654
23371 0.667066 1.163799 0.813333 0.494210 0.391561 -0.566529 0.123922 0.111957 0.201731 0.311600
5905 -0.636658 1.266528 0.091899 0.078975 -0.552576 0.635024 0.899631 -0.152531 -0.180450 0.333107
951475 0.061333 0.536229 0.288164 0.734655 0.265397 0.187897 0.113511 -0.472345 -0.679108 0.400508
8480 -0.068338 1.251643 0.117304 0.425668 -0.599906 0.749472 0.505509 -0.143259 -0.002711 0.176670
8626 0.080916 0.670112 0.279992 0.465309 0.189405 0.532185 0.240346 -0.646224 -0.543716 0.368328
57062 0.210350 1.336536 -0.695350 0.308109 -0.095709 0.126591 0.225988 -1.269272 -0.259215 0.012806
6203 0.037477 0.929440 -0.808707 1.282405 0.093540 0.246810 0.137884 -1.310380 -0.371831 0.124379
80817 0.370769 1.454518 0.302440 0.108543 0.686621 -0.085851 0.625172 0.033910 0.031949 -0.827906
56916 0.240756 1.308363 -0.011135 -0.197292 -0.376835 0.623855 0.752890 -0.973072 -0.453631 0.220735
6850 -0.458719 0.970535 0.372603 0.664235 0.669941 -0.197975 -0.416581 -0.403209 0.175044 1.337970
54443 -1.306560 1.030728 -0.086681 0.906681 0.653950 0.523847 0.772086 -0.075378 0.203294 -0.305178
9240 0.521788 1.331941 0.257706 0.082541 0.614422 -0.600354 0.466170 0.102235 -0.441301 -0.255529
7528 0.261393 0.823940 0.736855 -0.125653 0.111091 0.426391 0.599203 -0.984736 -0.462102 0.432802
8089 -0.039688 1.014979 0.809897 -0.227475 0.162082 0.348748 1.130140 -0.618734 -0.194160 -0.431400
4093 0.096012 0.708653 0.723113 0.141289 0.119176 0.532279 -0.026948 -0.807601 -0.328093 -0.119003
10383 0.152295 0.786730 0.042564 1.124886 -0.127637 0.480545 0.249479 -0.435259 -0.171224 0.204670
8349 -0.117340 0.942658 0.041727 -0.007812 0.087809 0.858266 0.597809 -1.023085 -0.693091 0.528776
27076 -0.974341 1.286132 1.030704 -0.310147 -0.605652 0.072658 -0.447430 -0.485571 0.094195 0.103236
60491 0.253253 1.093615 0.715366 0.650305 -0.073669 -0.269291 0.854853 0.488565 0.015547 0.233205
7169 -0.825117 0.725533 0.043648 0.709995 0.393713 0.190284 0.691961 -0.137890 -0.509678 -0.514542
1869 -0.004872 0.882767 0.689093 -0.223067 0.381823 0.924533 0.527239 -0.708957 -0.982063 0.598723
10253 0.482041 1.230611 0.763391 0.282036 0.576165 -1.078115 0.237717 0.114075 -0.206254 0.785730
10376 0.124440 0.520821 0.264463 1.231773 0.087093 0.298364 0.136841 -0.674494 -0.057106 0.115215
9470 0.515848 1.968184 0.045419 0.080682 1.101363 0.185324 -0.001974 0.123180 0.651199 0.139671
267 -0.919587 0.519614 0.411476 0.829281 -0.236888 -0.355012 -0.159429 -0.276163 -1.357517 -0.024696
6152 0.053530 0.955176 -0.785147 1.337777 -0.037715 0.303218 0.117568 -1.160641 -0.387804 0.210920
9094 0.131696 0.529128 0.829626 0.619555 0.164018 -0.439794 0.268470 -0.476862 -0.223588 0.530995
5683 0.142083 0.596973 0.242447 1.184975 -0.052451 -0.031995 0.708381 -0.042881 -1.310666 -0.280410
6222 0.064307 0.945603 -0.778788 1.320294 -0.044952 0.413727 0.019422 -1.303374 -0.560680 -0.236845
1407 0.319698 0.714706 0.295895 0.919653 0.033026 0.439794 0.542367 -0.395406 -0.257731 0.124929
9318 0.857924 0.738243 0.488808 0.759013 0.176578 0.856102 0.547608 -0.600551 -0.679033 0.110749
84292 0.411040 1.409314 0.046363 0.670210 0.246848 0.226754 1.134925 -0.069510 0.625794 -0.235309
10919 0.459566 1.155258 0.455381 -0.490947 0.239699 0.276582 0.640296 -1.267236 -0.401079 -0.044044
1917 0.126192 0.805120 0.176646 0.884961 -0.166270 0.130209 0.128258 -0.496320 0.016023 0.457079
996 -0.160087 1.321735 0.321924 -0.176846 0.193497 1.430111 0.206709 -0.331572 -0.545438 -0.372377
1742 -0.410447 0.698700 1.046678 0.766058 1.401237 -0.681677 -0.248016 -0.811851 0.536240 -0.054243
83878 0.326869 1.538734 0.428353 -0.106269 0.735481 -0.427551 0.698665 0.303317 -0.141556 -0.470142
9219 0.039610 1.046133 0.566997 -0.427441 -0.013455 0.459011 0.743713 -1.097274 -0.457481 0.263737
26277 -0.179806 1.102160 0.403353 0.779780 -0.307162 0.060434 0.765693 0.261049 0.247278 0.880743
3654 -0.375616 0.766126 0.399419 0.788568 -0.047291 0.709603 -0.371454 -0.161106 -0.398893 0.599321
79139 -0.812291 0.493765 0.305599 0.890546 -0.405568 -0.019820 -0.064655 -0.517771 -0.933642 -0.054298
1108 0.025883 1.115229 0.387923 -0.471293 -0.192651 0.387116 0.752939 -1.135772 -0.659906 0.341425
27005 -0.163737 1.585413 -0.203262 0.130060 0.913511 0.826586 -0.002328 0.181387 -0.133177 0.514680
5777 -0.089715 1.185853 -0.072377 0.762324 0.417425 -0.279831 -0.579514 -0.773836 0.394114 1.412402
1653 -0.105193 1.059208 -0.360135 0.851608 -0.247327 0.348018 0.510406 -0.675505 0.054754 0.145236
9817 0.163623 0.932532 0.566102 0.371011 0.030613 0.280858 0.339052 -0.040420 -0.176734 0.250733
4686 -0.427292 0.888021 0.043803 0.356948 -0.182602 -0.058762 0.813801 -0.870772 0.036220 -0.018108
29110 -0.195350 1.071286 0.516830 0.226022 0.689651 0.411981 0.149828 0.321165 -0.327779 0.344929
27161 0.229888 1.382818 -0.612013 0.895267 0.005618 0.990194 -0.198531 -0.102198 -0.347619 0.041093
23210 -0.160524 1.473894 -0.215491 -0.216830 -0.095988 -0.503824 1.183582 -0.712156 -0.042138 0.403918
5700 0.199954 0.583043 0.257334 1.082147 0.098354 0.208515 0.800966 -0.140459 -1.332142 -0.290754
2 0.551404 0.437839 0.887870 1.210237 0.013505 -0.494405 -0.312580 -0.510686 -0.381706 0.232135
773 0.424766 0.626518 0.431698 0.699756 0.622862 -0.610059 -0.412521 -0.980772 -0.250531 0.072710
54971 0.897351 1.090578 0.739479 0.131819 0.180828 -0.187205 0.570992 -0.181999 -0.347819 0.191662
11124 -0.060245 0.815418 0.288163 0.598945 -0.231454 0.423150 0.125085 -0.141923 -0.565579 0.332656
5335 -0.274841 1.212093 0.296408 0.644961 0.405721 -0.046024 -0.147603 -0.178524 0.642521 1.131344
84557 -0.414590 0.818164 0.355986 0.531708 0.327177 0.032108 0.219899 -0.025192 -0.129456 0.169004
6256 0.335383 0.605391 1.205681 -0.117735 0.535883 0.305705 0.492601 -1.316104 -0.594881 0.511767
2782 -0.389174 0.657915 0.663970 1.525692 0.590647 -0.074125 0.230715 -0.772482 1.022578 -0.366754
5686 0.106813 0.613539 0.154779 1.002069 -0.060208 -0.030811 0.780630 -0.169390 -1.296777 -0.223385
1111 0.026112 1.076103 0.474491 0.282507 0.191434 1.027227 -0.029011 -0.377601 0.099542 0.688187
84447 -0.711155 0.489788 0.704100 0.911770 0.095460 -0.562569 -0.587711 -0.136946 -1.446037 -0.128017
10342 -0.223848 1.096586 -0.080643 0.481189 -0.181865 0.150788 0.291263 0.153622 -0.544062 0.042369
3020 -0.382336 1.057546 0.177938 -0.053367 -0.250476 1.045827 0.726457 -1.077944 -0.296153 0.528229
5709 0.000123 0.572803 0.198232 1.144387 -0.100956 0.138992 0.780438 -0.159901 -1.206540 -0.326044
3783746 -0.107561 0.805359 -0.339205 1.245669 -0.455552 0.312413 0.420695 -0.810755 -0.305034 0.133523
1021 0.308998 1.085970 0.306058 -0.066487 0.489738 0.221367 0.472876 -0.554030 -0.327551 0.885638
5689 0.073337 0.538593 0.245938 1.119259 0.046117 0.042383 0.551193 -0.167435 -1.285094 -0.301862
3964 -0.769986 1.244409 0.525803 0.440792 -0.159991 -0.782683 -0.883640 -0.371126 0.174632 0.225995
5796 0.210921 1.159167 0.559464 0.685567 -0.008871 -0.249894 -1.415614 -0.745610 -0.102932 -0.075299
6749 -0.281934 1.093056 -0.074497 0.147822 -0.385190 0.518053 0.812626 -0.943279 -0.193758 0.439595
27023 0.192981 1.300429 0.263165 -0.161868 -0.874119 0.336743 0.308783 -0.944411 -0.206137 0.080862
6504 0.085920 1.280806 0.906964 0.446958 -0.715211 -0.205186 -0.999623 -1.012650 0.652542 0.333885
6627 -0.135901 1.118578 -0.291083 0.694248 -0.319987 -0.457423 1.417304 -0.862396 0.002001 0.265966
7266 0.003277 0.826452 0.680067 0.784070 -0.281436 0.891731 0.298320 -0.301931 0.168807 -0.087602
7170 -0.480069 0.829861 0.348363 0.644408 0.309774 0.225697 1.073633 0.048328 -0.210641 -0.328289
4149 -0.071541 0.925603 0.854645 -0.314480 0.362402 0.501524 0.990124 -0.862822 -0.331280 -0.295357
5868 -1.109736 0.663020 1.052732 0.653210 -0.003661 -0.227046 0.448892 -0.107865 0.267153 -0.075808
3945 -0.346580 0.786981 0.410140 1.301085 -0.756218 0.316711 0.588030 0.040596 -0.158265 0.505388
6598 -0.052230 0.766316 0.785085 -0.017499 -0.032607 0.712882 0.994647 -1.107810 -0.360783 0.433032
54487 0.042380 1.496735 -0.907095 0.145511 0.261532 0.106909 0.255783 -1.204596 -0.339576 -0.124441
6635 0.249555 1.391951 -0.437273 0.931287 -0.269022 -0.629334 1.485807 -0.719778 0.317571 0.372868
3476 -0.177743 0.797787 0.599510 0.940156 -0.447984 0.550237 0.797428 0.105792 -0.146867 0.206724
1452 -0.302412 0.977017 0.342594 0.472497 0.924364 0.750678 0.128823 -0.257590 0.221126 -0.141435
6160 0.177948 1.007565 -0.818535 1.223380 -0.031142 0.235012 0.148403 -1.381471 -0.482157 0.149415
7448 -0.018105 1.002038 -0.082523 0.244145 0.006050 -0.429300 0.212643 -0.831120 -0.034684 0.299836
890 -0.058627 0.820979 0.370607 0.189486 0.464903 1.073275 0.546522 -0.577120 -0.631851 0.134399
23385 -0.580345 0.778441 -0.065159 0.537442 -0.402774 -0.392145 0.439332 -1.301982 0.022319 0.139830
163183 -0.725474 1.213272 0.863141 -0.390182 0.256829 -1.025441 -0.328571 -0.730320 -0.531458 -0.698808
6146 -0.286353 0.903319 -0.871158 1.349244 0.123784 0.258691 0.255291 -1.192487 -0.376186 0.123181
386680 1.258044 1.721143 0.402675 0.088317 0.734420 -1.381182 0.197832 -0.419023 -0.468228 0.049895
8467 -0.118750 1.105556 0.051552 -0.130681 -0.314825 0.771940 0.923352 -1.366768 -0.451359 0.239102
115106 0.003193 1.292103 0.438814 0.218056 0.572049 -0.312057 0.723271 0.195867 -0.056911 -0.805442
10189 -0.062360 1.024297 -0.303242 0.661794 -0.264029 0.056786 0.810967 -0.901645 -0.051107 0.289775
6418 -0.128590 0.765740 0.236652 0.386991 0.024301 0.365030 0.604182 -0.560984 -0.325417 0.245808
81 -0.623955 0.645191 0.173905 1.055887 0.450859 0.300551 0.637361 -0.216988 -0.001363 0.004519
65061 0.471460 1.462456 -0.038603 1.034211 -0.209019 0.546038 -0.524887 0.659634 -0.531993 0.076421
6136 -0.001887 0.860220 -0.739691 1.303437 0.073340 0.334152 0.217856 -1.264977 -0.490285 0.116418
10320 0.854166 1.159310 0.524233 -0.142255 0.395170 -0.075658 0.611537 -0.543578 -0.568321 -0.052570
2969 -0.239791 0.828254 0.322001 0.170375 0.084183 0.314454 0.464238 -0.547776 -0.365087 0.499048
84365 0.123305 1.638730 -1.137455 0.261971 0.132450 -0.042363 0.325869 -1.472458 -0.351988 -0.091225
5887 -0.306513 0.668818 0.354761 0.865613 -0.230641 0.218585 0.759254 0.170746 -1.084829 0.192808
10992 -0.168600 1.328463 -0.471016 0.388653 -0.256631 -0.111731 1.071985 -0.797784 0.081688 0.316848
6229 -0.052406 0.971540 -0.816572 1.193373 -0.059691 0.288360 0.229725 -1.446893 -0.392559 0.032179
4287 -0.217290 0.424671 0.562864 0.762358 0.532993 0.229430 -0.068371 -0.079274 -1.224279 -0.022097
3801 0.336667 1.316921 0.491017 0.037288 0.945403 -0.282323 0.795314 0.282261 -0.336235 -0.328276
1488 0.125656 0.946185 0.507323 -0.271334 0.473150 0.235762 0.331959 -0.743404 -0.502559 0.365945
8761 0.026693 1.069946 -0.560943 1.005575 -0.336667 0.222808 0.493347 -0.681099 -0.190097 0.302865
3832 -0.149942 0.962260 0.014193 0.247522 0.269779 0.468357 0.407251 -0.743243 -0.098084 -0.331144
6599 -0.043490 0.852728 0.608844 -0.118751 -0.095802 0.569104 0.990606 -1.196280 -0.455379 0.500110
65970 -1.358378 0.910753 0.132651 0.929826 0.654394 0.564641 0.542661 -0.192715 0.119456 -0.684716
5296 -0.148880 1.014652 0.196757 0.714363 0.676598 -0.087701 -0.245947 -0.258052 0.359603 0.775069
3336 -0.201108 0.702595 0.886258 1.135147 -0.881141 0.129634 0.740885 0.153208 -0.455496 0.686141
10238 0.083460 1.103613 0.296926 0.356026 0.709171 0.993288 0.255106 -0.275618 0.105536 -0.046131
6840 -0.912475 0.845201 0.145804 0.773306 0.626362 0.577931 0.671336 -0.196409 0.058411 -0.490311
3607 0.143628 1.203683 0.472585 -0.557302 0.058642 0.605927 0.666115 -0.941275 -0.481025 0.203119
54507 1.057437 1.636281 0.748377 0.118884 0.440538 -1.330817 0.226069 0.015411 -0.273537 0.211575
4957 0.069550 1.404364 0.306399 0.455187 0.810763 0.545160 0.606354 0.275963 0.092437 -0.937563
9188 -0.154835 1.227485 -0.835129 0.601831 -0.062224 0.107814 0.444890 -1.305389 -0.135216 0.301195
1399 -0.122242 1.133961 0.296951 0.512190 0.515478 -0.158785 -0.083015 -0.213796 0.434077 0.930174
7168 -0.686682 0.799734 0.338773 0.645742 0.478868 0.393777 0.913705 -0.038588 -0.089949 -0.376942
124245 -0.118447 1.550586 -0.555250 0.146740 0.005421 -0.224648 1.089853 -0.790956 0.271211 0.163390
57521 -0.197850 1.231353 0.465701 0.607953 0.291245 0.833566 -0.356542 -0.217095 0.745010 0.467705
6605 0.287349 1.157906 0.580200 -0.385273 0.377802 0.176631 1.145726 -0.611456 -0.500332 0.213266
11269 0.289811 1.266101 0.085175 0.785133 -0.312157 0.100206 -0.506128 0.438218 -0.658178 0.193535
5250 -0.375961 0.817477 0.038352 1.080086 -0.859241 0.410944 0.040384 -0.892297 -0.330777 -0.690387
54464 0.168817 1.142752 0.057839 0.589966 -0.263150 0.004216 0.528360 -0.461874 0.156677 -0.792051
7082 -0.448666 1.071458 -0.023725 0.878239 0.489225 0.223651 0.008298 -0.123969 0.311929 -0.702402
3480 -0.185108 0.773263 0.882140 0.789296 0.145369 0.138910 -0.357503 -0.482656 0.314035 1.223734
84419 -0.138361 1.034402 0.708007 1.094977 -1.387378 -0.383400 0.198342 -0.497436 -0.529706 -1.215303
6143 0.031324 1.027474 -0.875408 1.236231 -0.095112 0.282050 0.116030 -1.445183 -0.404807 0.234475
7525 -0.732917 0.872534 0.359527 0.734894 0.473360 -0.399587 0.112897 -0.363051 0.579395 0.480070
6230 0.171111 0.916268 -0.769202 1.345424 0.098494 0.268343 0.202269 -1.343255 -0.436393 0.100065
5914 0.147759 0.588130 0.937597 -0.002575 0.491069 0.474986 0.715725 -1.221529 -0.666239 0.455022
6632 0.073348 1.022568 -0.300656 0.979428 -0.465050 -0.317005 1.111587 -0.839577 -0.058817 0.617302
55630 -1.083981 1.364787 0.979750 -0.059421 -0.478591 -0.617236 -0.801232 -1.064702 -0.019275 -0.750124
17913 -1.273168 1.087743 -0.023199 1.035128 0.841697 0.712466 0.646259 -0.030342 0.331450 -0.512385
8407 -0.454982 0.789109 0.711798 1.122660 -0.987545 0.321771 0.695817 0.171892 -0.421454 0.487336
1936 -0.026944 0.784570 0.126737 0.726831 -0.195763 0.088251 0.453586 -0.590564 -0.065560 0.273084
292 -0.118221 0.738312 -0.308263 1.276780 -0.424656 0.310603 -0.173955 -0.943663 -0.385587 0.170539
2300 -0.134527 1.374486 0.214934 -0.269898 -0.980757 0.591038 0.296823 -0.994917 -0.107600 0.231181
7187 -0.432519 1.177628 0.602192 -0.143882 0.510131 0.188599 -0.011295 0.252706 -0.646574 0.787149
6209 -0.035771 1.117800 -0.896289 0.970927 -0.047947 0.099872 -0.094075 -1.345130 -0.460935 -0.278934
26003 -0.220088 1.156848 0.523774 0.212139 -0.115366 -0.379430 0.465130 0.338184 -0.211485 0.348512
813 -0.439181 0.883230 0.207874 1.053533 -0.346577 0.577203 0.196486 -0.073465 0.076987 -0.054449
5704 0.103776 0.460171 0.345227 1.168011 -0.006994 0.065623 0.722139 -0.235737 -1.208991 -0.375755
160 -1.245519 1.190297 -0.078207 0.504268 0.652054 0.217615 0.372247 0.004959 0.309620 0.112847
832 -0.792591 0.875781 0.140337 1.083963 0.306209 0.775306 0.703583 -0.115777 0.246017 -0.330391
9618 -0.217449 0.765041 0.458971 0.169270 1.113762 -0.146880 0.176059 -0.243001 -0.745447 0.475306
10452 -0.610264 0.790870 0.569272 0.789184 -1.057275 0.017323 0.156489 -0.403723 -0.367247 -0.370255
64794 0.516772 1.676190 -0.975443 0.793321 0.119698 -0.302900 -0.840816 -0.495861 -0.518589 -0.118087
4035 0.372851 0.921493 0.564503 0.701068 -0.048496 -0.346783 -0.661409 -0.757257 0.273705 0.109021
6139 0.090534 1.036234 -0.916686 1.259454 -0.004844 0.227193 0.096472 -1.255113 -0.509113 0.028343
7555 -0.100455 1.381628 -1.038934 0.545728 0.011719 0.148207 0.118778 -1.336551 -0.385567 -0.024864
10146 -0.243460 1.036085 -0.464484 0.633103 0.045795 0.173460 0.371114 -0.605191 -0.155464 0.301273
155348 -0.145324 0.868634 0.261671 0.616318 -0.188341 0.543798 0.417247 -0.410946 0.049732 0.263065
3846 0.830822 1.510457 0.741634 0.156450 0.216813 -1.619195 0.093545 -0.178183 -0.563292 0.186865
55633 0.501974 1.694821 0.174997 0.486695 -0.125283 -0.000445 -0.391014 0.866952 -0.690725 -0.190502
3359 -1.048301 1.370427 0.730075 0.051329 -0.277180 -0.895541 -1.121768 -0.916288 -0.347280 -0.426166
7280 0.213155 0.648611 0.468490 1.253473 -0.248584 0.279614 0.065726 -0.500233 0.143594 0.146545
7417 -0.941677 0.672375 0.377802 0.985698 -0.902664 -0.026705 0.375994 -0.655578 -0.486529 -0.696332
8338 0.063579 1.017332 0.017974 -0.152077 0.087880 0.693714 0.288324 -0.929226 -1.001863 0.470259
7295 -0.246773 0.599425 0.472450 0.940340 -0.498527 0.216208 0.432346 -0.214387 -0.568914 0.567816
6232 0.120043 0.829479 -0.510812 1.146375 0.040291 0.207268 -0.053224 -1.285106 -0.290215 -0.012449
8202 0.218080 0.540288 0.945471 0.257670 0.583189 0.615045 0.560129 -0.977681 -0.557033 0.642696
3866 0.431258 1.411939 0.405043 0.190681 0.824741 -0.426770 0.906529 0.362793 -0.171783 -0.081152
5707 -0.026896 0.500547 0.278191 1.177554 0.000097 0.219758 0.496351 -0.182913 -1.176674 -0.270004
56928 -0.959959 1.247901 0.891574 -0.049526 -0.490850 -0.835772 -0.599174 -0.896158 -0.297492 -0.632924
64395 0.466891 1.544813 0.399849 0.023224 -0.047375 -0.446659 -0.173995 0.529916 -0.826977 -0.274948
83755 0.966329 1.622475 0.402099 0.067899 0.489269 -1.231349 0.137668 -0.238864 -0.283291 0.260856
23352 0.305715 0.899940 0.343642 0.558274 -0.211745 0.322408 0.115769 -0.138106 -0.491438 -0.113429
476 -0.709095 0.644587 0.216926 1.154152 -0.639601 0.208275 0.054846 -0.679769 -0.183956 -0.375421
5434 0.343465 0.813061 0.743193 0.382215 0.011785 0.221469 0.870669 -1.386768 0.510488 0.031639
128866 -1.310349 1.044268 0.059214 0.176785 -0.195365 0.434786 0.352863 -0.310149 -0.328193 -0.393380
11051 0.024697 0.750583 0.112464 0.513439 -0.035834 -0.186161 0.676798 -0.834450 -0.241798 0.463362
10946 0.206440 1.191446 -0.197074 0.607760 -0.265845 -0.218390 1.206713 -0.581575 0.010664 0.520733
9099 -0.052882 1.225536 0.314900 0.001219 0.801920 0.021663 0.179640 0.385424 -0.894871 0.555198
56829 -0.017039 1.479026 -0.998734 0.456164 -0.089402 0.098924 0.146857 -1.216063 -0.204708 0.147617
54206 -0.067329 0.794618 0.568725 1.008478 0.153618 0.033090 -0.359653 -0.226430 0.350198 0.607559
25844 -0.903231 1.178405 1.114582 0.024816 -0.516253 -1.052359 -0.354170 -0.731056 -0.215571 -0.728146
10498 -0.029625 0.812308 0.617157 0.140247 0.033491 0.503757 0.626594 -0.569618 -0.267176 0.594059
9114 -1.011577 0.888453 0.190256 0.709507 -0.633115 -0.122136 -0.097859 -0.541916 -0.441618 -0.737493
5830 0.295534 1.078653 0.706519 0.654490 -0.639740 -0.028315 0.207276 0.351164 -0.356409 -0.423549
9967 -0.102052 1.110849 -0.345783 0.410067 0.001474 -0.117805 0.894251 -0.972803 0.022257 0.442957
5601 0.150268 1.084117 0.927315 0.195179 0.199742 0.529057 0.004869 0.108465 -0.013694 0.574309
7124 -0.592554 1.215444 0.566678 0.101435 0.061068 0.119585 -0.936093 -0.200029 -0.031430 0.648060
6497 0.175556 0.624207 0.311234 0.631412 0.285785 0.738790 0.056270 -0.926927 -0.445969 0.172404
57142 -0.709528 0.742320 0.763335 0.422183 -0.488313 -0.703488 0.255393 -0.396867 -0.255047 -0.148638
6901 0.522378 1.391098 0.820562 0.598036 -0.321543 -0.229692 -1.582564 -0.844715 -0.084985 -0.052519
55914 -0.265045 0.745788 0.709166 0.263536 1.043377 0.116520 -0.187744 -0.680009 0.127677 -0.147625
51295 -0.144197 0.578079 1.028383 0.779142 -0.616357 -0.343765 0.036384 -0.482725 -0.428642 -0.682115
10540 -0.296581 0.746049 0.492855 0.879463 0.511501 0.214648 0.945560 -0.071683 -0.059873 -0.788431
6595 -0.219454 0.800873 0.616535 -0.129418 -0.081327 0.608257 1.208065 -1.243267 -0.571409 0.534136
5733 -0.427073 1.456842 0.741305 -0.461162 0.151298 -0.769270 -0.290970 -0.538723 0.362650 0.073537
5036 -0.121622 0.842360 -0.248206 0.980229 -0.304585 0.134035 0.321672 -0.597192 -0.270643 0.455910
9802 0.179278 0.895343 0.413388 0.122862 0.312700 -0.762047 0.145495 -0.223854 -1.110084 0.772053
9129 0.106141 1.298001 -0.524236 0.625526 -0.155008 -0.511230 1.246247 -0.726793 -0.023218 0.171503
5859 -0.054907 0.900060 -0.168879 0.722282 -0.166331 0.145416 0.378422 -0.508210 -0.390684 0.166445
93380 -0.881826 1.030573 0.047022 0.345042 -0.765023 -0.273300 0.315341 -0.680078 -0.344926 -0.645489
8648 0.312663 0.563541 1.169581 0.075253 0.431085 0.507256 0.680442 -1.160037 -0.546994 0.586395
12534 -0.264769 0.652314 0.351266 0.842004 0.300035 0.853013 0.226295 -0.305774 -0.370659 -0.664623
4436 -0.230036 1.072148 0.049756 0.292520 -0.539576 0.590217 0.592725 -0.646003 -0.193998 0.395744
9221 -0.361645 1.125820 -0.442749 0.343582 0.242917 0.303094 0.724938 -1.170963 0.156430 0.110954
19345 -1.337522 1.139690 0.331335 0.411972 -0.863634 0.232867 -0.102419 -0.358034 -0.506242 -0.932564
29766 -0.716296 0.715857 0.213314 0.868259 0.490638 0.432128 0.775089 -0.307369 0.022092 -0.376077
23607 -0.967667 0.877281 0.332475 0.611237 0.162405 0.133391 0.449051 0.036820 0.155377 0.677209
4172 0.017715 1.105586 0.274345 0.390880 -0.465518 0.853912 0.664048 -0.561711 0.103152 0.422550
51073 0.741162 1.421350 -0.222828 0.718079 -0.609916 0.343711 -0.073149 -0.746868 -0.624448 -1.187674
9477 0.146399 0.565320 0.877500 0.744196 -0.499699 -0.244613 1.062816 -0.823590 0.054493 -0.060033
5688 0.109415 0.519631 0.330374 1.151652 0.006276 0.038774 0.543804 -0.125639 -1.368647 -0.237669
22827 -0.134126 0.947324 -0.125158 0.634989 -0.381161 -0.025872 0.875860 -0.571835 -0.242567 0.219869
6428 -0.248776 0.981036 -0.385416 0.832069 -0.647969 -0.227459 0.648198 -0.857828 -0.204174 0.216646
705 0.506135 1.430904 -0.404317 0.161394 0.598713 -0.484960 0.632924 -0.386571 -0.328092 -0.117086
7161 0.074174 0.832848 0.464322 0.137908 0.354044 0.761281 0.329123 -0.601167 -0.452535 0.219750
226 -0.456722 0.617933 0.696807 1.135939 -0.922618 0.277510 0.407024 -0.162699 -0.421913 0.417521
9412 -0.188009 0.820127 1.165844 0.066147 0.386393 -0.547701 0.985543 -1.244913 0.657536 0.099687
5329 0.378535 1.193155 0.745372 0.423604 -0.632203 0.039828 -1.023954 -0.782902 0.066655 0.039378
4110 0.311751 0.838053 0.797853 0.098677 0.142512 -0.419978 0.827632 -0.184182 -0.619745 0.004661
7023 0.311201 1.101493 0.675883 -0.324991 -0.158389 0.473713 0.633374 -0.949744 -0.263443 0.378437
51133 0.064535 1.871934 0.032735 0.401629 0.821812 0.899523 -0.084815 0.143799 0.834201 0.320052
6228 0.033507 0.975236 -0.850928 1.335160 -0.054464 0.292660 0.082643 -1.446390 -0.471878 -0.018993
64768 -1.189311 1.392474 1.078857 -0.203646 -0.236931 -1.009012 -0.492101 -0.789377 -0.067648 -0.585137
5725 -0.256041 0.846656 -0.245437 0.900036 -0.573813 0.199364 0.557520 -0.779550 -0.395336 0.371973
355 -0.446240 0.899225 0.794000 0.204015 -0.189423 0.160463 -0.233291 -0.187624 -0.194903 0.823491
4673 -0.135817 0.934949 -0.354948 0.721314 0.135708 0.418312 0.307872 -0.863320 -0.139060 -0.152197
10693 0.708102 0.806355 0.726713 1.506411 -0.322172 0.956459 0.250097 -0.360075 0.289657 -0.268329
3316 -0.315437 0.255627 0.737077 1.346402 -0.233534 -0.249561 0.367076 -0.332799 -0.467452 0.296358
1822 0.632306 1.161540 0.332324 -0.022778 0.844146 -0.464732 -0.154676 -0.513362 -0.414305 0.471966
3113 -0.170974 1.369590 0.500577 0.193987 -0.228734 -0.252988 -1.143274 -0.854001 0.223308 -0.403586
26043 -0.062062 0.893096 0.351983 0.551290 -0.174107 0.532485 0.227098 0.162279 -0.794062 0.224882
3337 -0.070722 0.438187 0.589945 1.167698 -0.039204 0.288294 0.302442 -0.346802 -0.260137 0.325222
1020 -0.211101 0.668953 0.591289 0.740836 0.325047 0.347709 0.292170 -0.183116 0.026338 0.452508
3164 0.046390 0.598757 0.846851 0.138608 0.301617 0.133074 0.061702 -0.727769 -0.577842 0.683040
3643 -0.232387 1.112516 0.708427 0.729924 0.246725 -0.055603 -0.591079 -0.335274 0.691135 1.154274
1736 0.091688 1.273274 -0.774026 0.576688 -0.141297 0.075082 0.446412 -1.380501 -0.150401 0.218601
11335 0.034490 1.192563 0.127146 -0.290273 -0.352496 0.688631 0.746567 -0.762692 -0.809954 0.239981
163 -0.892062 1.110010 -0.053672 0.534398 0.484373 0.320443 0.335673 0.073540 0.152715 0.068463
3054 0.024672 0.924765 0.563684 -0.153405 -0.153877 0.739473 0.787253 -0.986756 -0.402984 0.383510
116840 0.058176 1.337468 0.242059 0.212189 0.282192 0.644189 0.476713 0.018959 0.040619 -0.727736
84959 0.040340 0.890368 -0.123588 1.083629 0.549353 0.107735 0.127821 0.006823 -0.270144 0.721295
9500 0.270577 0.982145 0.296178 0.317858 0.080555 0.104068 0.366429 -0.072114 -0.524189 0.156355
836 -0.462266 0.851104 0.686867 0.346319 0.247277 0.467165 0.080536 0.182747 -0.636987 0.845822
154796 -0.053658 0.942897 0.466851 0.550124 0.892634 0.365304 0.389001 -0.001051 0.071970 -0.265878
495 -1.030299 0.922916 0.478404 0.835513 -0.267040 -0.902958 -0.010541 -0.401791 0.355142 -0.195539
2017 -0.834415 0.881041 0.268920 0.868733 0.162412 0.195736 0.601467 -0.101733 0.451800 0.511146
10211 -1.208232 0.897058 -0.038220 0.822603 -0.166635 0.087142 -0.057412 -0.396364 -0.127519 -0.590530
9851 0.213881 1.397874 0.489808 0.619668 0.800913 0.497643 0.598181 0.237723 0.075510 -1.299367
5954 -0.228203 0.834543 0.283832 1.012022 -0.351925 0.461874 0.139950 -0.119076 -0.038097 -0.133929
5706 0.011942 0.526257 0.154595 1.111446 -0.043391 0.062251 0.685774 -0.273492 -1.320838 -0.286065
8473 -0.271144 1.041474 0.308670 0.170777 -0.132648 0.578296 0.807742 -0.190615 -0.215270 0.253918
545 -0.327258 1.150252 0.512417 -0.228129 -0.384686 0.590389 0.184231 -0.766530 0.034896 0.547123
2260 -0.861665 1.170350 0.772387 0.192445 0.269203 -0.276630 -0.710270 -0.613998 0.540420 1.016984
81565 0.173774 1.375191 0.361380 0.006033 0.665163 -0.193893 0.662659 0.058696 0.006512 -0.707693
6157 -0.001758 1.021251 -0.843102 1.276598 -0.083477 0.255691 0.163797 -1.338777 -0.291122 0.298494
9702 0.456352 0.958496 -0.276375 1.133500 0.139094 0.169307 0.157505 -0.481742 -0.080626 -0.228758
10159 -1.333547 1.009730 0.197976 0.509569 -0.141756 -0.046636 0.017404 -0.221562 -0.144522 -0.609202
6158 0.259764 1.190659 -0.752089 0.801628 0.195663 0.277333 -0.328381 -1.242365 -0.151253 -0.102380
26227 -0.480672 0.778029 -0.025915 0.883188 -0.499306 0.149534 0.621306 -0.394657 -0.398214 0.341563
10933 0.138001 0.882948 0.604109 -0.178691 0.135137 0.013081 1.109429 -0.772499 -0.616346 -0.075727
4361 -0.033570 1.134012 -0.013026 0.200661 -0.254690 0.690980 0.678262 -0.586980 -0.235521 0.173663
23650 0.324120 1.190374 0.007828 0.302951 0.250280 0.348262 0.424744 0.022247 -0.495422 -0.306621
3598 -0.167641 1.398807 0.925319 -0.125171 -0.524806 0.351438 -0.614456 -0.717643 0.608114 0.015863
27332 0.105012 1.919460 -0.517042 0.028343 0.857094 0.343494 0.232845 -0.426966 0.658841 0.278108
6155 0.042709 1.121890 -0.976999 1.142638 0.122655 0.297678 -0.019988 -1.469809 -0.414195 0.101306
9972 -0.630820 1.735653 -0.194735 -0.329064 -0.769466 0.795801 0.541434 -0.483184 -0.153267 0.382820
10653 -0.663509 1.248907 0.701613 -0.312059 -0.185038 -0.042270 -0.673881 -0.734831 -0.086544 -0.309754
1891 0.446820 1.313871 0.491861 0.668732 -1.045587 -0.130358 0.300989 -0.058229 -0.343031 -0.873484
56334 -1.259195 1.104834 0.132543 0.360753 -0.532830 0.093384 -0.020675 -0.533039 -0.367852 -0.963263
509 -0.118378 0.813663 0.322884 1.044063 -1.033318 -0.167814 0.102391 -0.720438 -0.353035 -0.637697
56940 -0.673692 0.949001 0.610120 0.853930 -0.335222 -0.952959 0.041071 -0.296052 0.466809 -0.354677
8295 0.005203 0.672986 1.084172 -0.086854 -0.019768 0.414514 1.203013 -1.528739 -0.289654 -0.213388
6602 0.121982 1.006237 0.913317 -0.200906 -0.088220 0.650445 0.837819 -0.546091 -0.267454 0.363862
200081 0.135380 1.360465 0.395233 0.182985 0.295308 -0.143364 0.912884 0.315693 -0.033397 -0.526985
974 -0.687966 1.291451 1.021761 -0.043548 -0.394152 -0.174824 -0.795515 -0.701813 0.446350 -0.051362
4173 0.027957 1.231271 0.125558 0.231735 -0.418677 0.999778 0.675809 -0.615995 0.029899 0.577077
2495 0.474925 1.280130 0.107242 0.433641 0.065876 0.222360 -0.374854 0.264575 -0.716335 0.056366
23521 -0.177101 0.919964 -0.765996 1.114045 -0.049061 0.068804 0.037016 -1.453752 -0.459444 -0.008104
3836 0.021674 1.146174 0.143189 -0.108550 -0.189356 0.336960 0.884158 -0.714226 -0.371120 0.486803
55692 -0.132043 1.232937 -0.523476 0.180623 -0.186750 -0.456325 0.788104 -1.105173 -0.288027 -0.100302
54535 0.017965 1.317471 1.110990 -0.248495 0.678479 -0.149790 1.062930 0.153771 -0.121682 -0.698352
5478 -0.148789 0.798154 0.302419 0.860044 -0.369330 0.123035 0.538246 -0.124799 -0.252480 0.500975
6144 0.128853 0.982014 -0.907686 1.504143 0.084712 0.326175 0.081834 -1.334575 -0.405107 0.133136
7159 0.124514 1.093695 0.365211 0.444775 0.869389 0.336937 0.558209 0.197854 -0.160227 -0.388017
2244 -0.052240 0.950012 0.522644 0.745919 -0.449139 -0.219076 0.548581 0.237943 -0.157585 0.530654
2648 0.223573 0.648666 1.051681 -0.065789 0.167054 0.438672 0.976872 -1.240730 -0.507753 0.136146
5727 -0.267903 1.116199 0.620106 0.400665 -0.121366 -0.261907 -1.540788 -0.964615 -0.411878 -0.066659
6231 0.069220 0.896821 -0.762733 1.322901 0.058410 0.166482 0.005148 -1.408787 -0.488677 -0.103645
6633 0.108166 1.142973 -0.428114 1.005884 -0.226737 -0.362333 1.195703 -0.772348 0.143537 0.434710
356 -0.529555 1.354285 0.212006 0.360456 0.972180 -0.256297 -0.234070 0.119379 0.272055 1.151021
8535 -0.197242 0.993421 0.042887 -0.357191 0.649408 0.399249 0.560938 -0.968764 -0.849425 -0.064638
5713 0.002159 0.587424 0.512150 0.881784 -0.109477 0.018976 0.665877 -0.030205 -1.365885 -0.569183
7024 0.373979 1.299546 0.630926 -0.390138 -0.198767 -0.164119 0.637966 -0.398530 -0.198875 0.465140
2289 0.406705 0.775774 0.778577 0.935236 0.040783 0.772939 0.271945 -0.188834 0.072367 0.629955
10213 -0.048333 0.489404 0.512574 1.107607 0.007698 0.008431 0.578366 -0.021631 -1.420339 -0.384026
26994 -0.749436 0.778878 0.280017 0.390257 0.586983 0.229927 0.050960 0.108551 -1.078197 0.371438
10015 -0.798209 0.788935 0.420030 0.755861 -0.203299 0.057656 0.398582 0.198362 -0.277224 0.515433
7048 -0.878703 0.809336 1.030439 0.244019 0.687405 0.495097 -0.875382 -0.503909 0.030209 0.393845
4311 -0.426110 0.778786 0.267883 0.717721 -0.597692 -0.480271 -0.333038 -0.866685 -0.151321 -0.260825
596 -0.517801 0.503699 0.945254 0.468579 0.203416 0.104789 -0.009059 -0.177452 -0.761883 0.439601
515 -0.558007 0.789262 0.673432 0.762969 -0.970749 -0.311026 0.116769 -0.944956 -0.305376 -1.057941
2773 -0.659581 0.795521 0.373434 1.249715 0.371960 -0.544379 -0.017872 -0.038287 0.358327 -0.434797
6181 0.180766 1.030923 -0.803025 1.356042 -0.116655 0.199160 0.019562 -1.157892 -0.443523 0.184418
79084 0.443134 0.786045 0.078227 0.860444 -0.012999 0.078207 0.802775 -0.807662 -0.026637 0.340328
9694 -0.524139 1.141754 -0.092111 0.258272 -0.845538 -0.627303 0.490512 -0.863274 -0.174271 -0.236776
167691 0.158044 1.691024 -0.030391 0.335881 0.431438 0.377567 0.534746 0.293042 0.196200 -0.901071
5519 0.126347 0.904952 1.037249 0.629743 -0.109898 1.045344 0.189101 -0.397385 0.434929 -0.130193
3297 -0.101011 0.838679 0.784593 0.320092 -0.174043 0.645548 0.728753 -0.213028 -0.186594 0.471882
55666 -0.708077 0.899084 0.265716 0.738311 -0.315820 -0.044860 0.240719 0.251342 -0.426040 0.014900
6498 0.101190 0.827975 0.543465 -0.155831 0.689705 0.430402 -0.164203 -0.789774 -0.875697 0.250390
3636 -0.067316 0.993360 -0.084121 1.038022 0.127834 0.087866 0.004417 -0.146536 0.213172 0.655848
51199 -0.043559 1.256962 0.428045 0.562740 0.544508 0.648881 0.709736 0.027081 0.208786 -1.150120
86 0.080440 0.831781 0.811192 0.181863 -0.408968 0.678658 1.279790 -0.846391 -0.367599 -0.117491
3265 -0.398882 0.845552 0.877691 0.647712 0.378610 -0.236072 0.023846 -0.281442 0.694342 0.508940
220988 -0.261774 0.834173 -0.362667 1.091425 -0.440970 0.108755 0.581712 -0.565353 -0.506283 0.294985
10432 -0.253847 1.115836 -0.371202 0.351690 -0.163537 0.077841 0.840961 -0.989156 -0.127449 0.406991
23542 0.116667 0.880914 0.894763 0.391832 0.293437 0.067613 -0.192921 -0.359325 0.303496 0.825074
7307 -0.095867 1.161966 -0.606724 0.747647 -0.195275 -0.191696 1.073984 -1.064134 -0.021614 0.532478
7414 -0.578932 0.993944 0.130546 1.055292 -0.003213 0.162234 0.386769 0.212989 0.316089 0.329140
6741 -0.291766 0.920075 -0.296024 0.589889 -0.163771 0.117986 0.649330 -0.803717 -0.219802 0.317683
23144 0.399788 1.609085 -0.823101 0.229562 -0.144488 0.110544 0.218981 -1.078949 -0.462562 -0.629342
302 -0.484216 0.703164 0.100110 1.039251 -0.043132 0.232153 0.423760 -0.395624 0.025878 0.459482
3688 -0.688808 0.963241 0.171485 0.967649 -0.196407 -0.173478 -0.843539 -0.530419 0.235508 0.396366
7375 0.083733 0.923115 0.362583 0.371942 0.124047 0.257541 0.329560 -0.071763 -0.336887 0.292367
10477 -0.117731 1.084239 0.418959 -0.044654 0.068095 0.326729 0.092758 0.151582 -1.432804 0.683698
6169 0.088499 0.973549 -0.791668 1.380266 -0.016079 0.283377 0.158552 -1.089865 -0.401372 0.094676
10152 -0.057674 1.468688 0.322427 0.319158 0.566806 -0.522099 0.681867 0.436934 0.416550 0.352061
23029 0.050981 1.667519 -1.215787 0.265980 0.360351 -0.084259 0.071569 -1.605683 -0.403197 -0.071221
11100 -0.046060 0.952514 -0.110306 0.494682 -0.194148 -0.049802 0.745963 -0.671203 -0.222296 0.254316
823 0.091368 0.826660 0.360156 0.882531 -0.320679 0.040354 0.109448 -0.100474 -0.144222 0.261897
55165 0.049191 1.274374 0.485589 0.179533 0.421401 -0.010611 0.687669 0.445980 -0.238590 -0.399046
10111 0.119595 1.176514 0.186240 0.099746 -0.247793 0.519168 0.637232 -0.479500 -0.144026 0.034600
5718 -0.088631 0.491350 0.211215 1.229218 0.068467 0.085768 0.722477 -0.168440 -1.374138 -0.204757
